{"learner":{"attributes":{"best_iteration":"24","best_ntree_limit":"25","scikit_learn":"{\"use_label_encoder\": false, \"n_estimators\": 25, \"objective\": \"multi:softprob\", \"max_depth\": null, \"max_leaves\": null, \"max_bin\": null, \"grow_policy\": null, \"learning_rate\": null, \"verbosity\": null, \"booster\": null, \"tree_method\": null, \"gamma\": null, \"min_child_weight\": null, \"max_delta_step\": null, \"subsample\": null, \"sampling_method\": null, \"colsample_bytree\": null, \"colsample_bylevel\": null, \"colsample_bynode\": null, \"reg_alpha\": null, \"reg_lambda\": null, \"scale_pos_weight\": null, \"base_score\": null, \"missing\": NaN, \"num_parallel_tree\": null, \"random_state\": null, \"n_jobs\": null, \"monotone_constraints\": null, \"interaction_constraints\": null, \"importance_type\": null, \"gpu_id\": null, \"validate_parameters\": null, \"predictor\": null, \"enable_categorical\": false, \"max_cat_to_onehot\": null, \"eval_metric\": null, \"early_stopping_rounds\": null, \"callbacks\": null, \"classes_\": [0, 1, 2], \"n_classes_\": 3, \"_estimator_type\": \"classifier\"}"},"feature_names":[],"feature_types":[],"gradient_booster":{"model":{"gbtree_model_param":{"num_parallel_tree":"1","num_trees":"75","size_leaf_vector":"0"},"tree_info":[0,1,2,0,1,2,0,1,2,0,1,2,0,1,2,0,1,2,0,1,2,0,1,2,0,1,2,0,1,2,0,1,2,0,1,2,0,1,2,0,1,2,0,1,2,0,1,2,0,1,2,0,1,2,0,1,2,0,1,2,0,1,2,0,1,2,0,1,2,0,1,2,0,1,2],"trees":[{"base_weights":[2.0643342E-2,3.0964464E-1,-1.05952136E-1,4.7713307E-1,-4.7318617E-1,1.2850079E-1,-2.9637912E-1,7.3311895E-1,2.772639E-2,-6.787331E-1,-4.0871758E-8,-1.7791001E-2,5.363825E-1,-3.327198E-1,8.219178E-1,1.0461538E0,2.0168063E-1,-1.07822455E-1,8.5714287E-1,-7.177034E-1,-2.5544848E-8,6.315789E-1,-6.31579E-1,8.503096E-2,-5.240175E-1,-3.2727277E-1,9.6E-1,-1.766498E-1,-4.5864668E-1,-2.0689659E-1,1.245283E0,1.11111075E-1,1.1754386E0,-4.5132747E-1,4.8616597E-1,-2.834646E-1,5.643564E-1,1.2631578E0,-2.0689659E-1,-4.8000002E-1,1.1707317E0,-5.9405947E-1,1.504339E-1,1.9999997E-1,-6.6839385E-1,9.6E-1,-5.2349E-1,1.116041E0,-3.658537E-1,-3.1274137E-1,3.179723E-1,-2.9583982E-1,-6.4093363E-1,-4.5283023E-1,8.918919E-1,2.7272725E-1,1.3078651E0,-6.741574E-1,2.7272725E-1,9.896907E-1,1.6363633E-1,8.918919E-1,-3.994335E-1,-4.0000004E-1,1.1538461E0,-2.5544848E-8,-6.741574E-1,1.0449438E0,6.583068E-2,-4.8000002E-1,7.241379E-1,-2.5544848E-8,-7.127072E-1,1.6216213E-1,-6.9421494E-1,1.245283E0,-8.1081115E-2,-2.5544848E-8,-5.172414E-1,-4.7368428E-1,-4.3229743E-8,6.8456376E-1,-4.285715E-1,-4.6934468E-1,1.6216213E-1,-6.7039114E-1,1.0344825E-1],"categories":[],"categories_nodes":[],"categories_segments":[],"categories_sizes":[],"default_left":[1,1,1,1,1,1,1,1,1,1,1,1,1,1,1,1,1,1,1,0,0,1,0,1,1,1,1,1,1,0,0,1,1,1,1,1,1,0,0,0,0,1,1,1,1,0,1,1,1,1,1,1,1,0,0,0,0,0,0,0,0,0,0,0,0,0,0,0,0,0,0,0,0,0,0,0,0,0,0,0,0,0,0,0,0,0,0],"id":0,"left_children":[1,3,5,7,9,11,13,15,17,19,21,23,25,27,29,31,33,35,37,-1,-1,39,-1,41,43,45,47,49,51,-1,-1,53,55,57,59,61,63,-1,-1,-1,-1,65,67,69,71,-1,73,75,77,79,81,83,85,-1,-1,-1,-1,-1,-1,-1,-1,-1,-1,-1,-1,-1,-1,-1,-1,-1,-1,-1,-1,-1,-1,-1,-1,-1,-1,-1,-1,-1,-1,-1,-1,-1,-1],"loss_changes":[2.3663462E1,2.6055449E1,2.0123898E1,1.8705914E1,3.4257817E0,1.208272E1,1.0374678E1,1.7034866E1,6.8504972E0,6.495056E-1,5.0526314E0,7.846454E0,1.986734E1,4.6641865E0,3.7905545E0,7.7270355E0,7.588345E0,6.3648386E0,3.95748E0,0E0,0E0,4.357587E0,0E0,5.6609206E0,2.7934108E0,5.1332765E0,7.879242E0,7.4665747E0,3.7575016E0,0E0,0E0,4.366706E0,6.4572525E0,2.2095869E0,4.403341E0,6.126485E0,6.8411274E0,0E0,0E0,0E0,0E0,5.3398585E-1,8.651047E0,2.129655E0,6.351595E-1,0E0,2.0505342E0,5.1379166E0,2.5231284E-1,4.345459E0,6.8920307E0,5.8064604E0,1.4264259E0,0E0,0E0,0E0,0E0,0E0,0E0,0E0,0E0,0E0,0E0,0E0,0E0,0E0,0E0,0E0,0E0,0E0,0E0,0E0,0E0,0E0,0E0,0E0,0E0,0E0,0E0,0E0,0E0,0E0,0E0,0E0,0E0,0E0,0E0],"parents":[2147483647,0,0,1,1,2,2,3,3,4,4,5,5,6,6,7,7,8,8,9,9,10,10,11,11,12,12,13,13,14,14,15,15,16,16,17,17,18,18,21,21,23,23,24,24,25,25,26,26,27,27,28,28,31,31,32,32,33,33,34,34,35,35,36,36,41,41,42,42,43,43,44,44,46,46,47,47,48,48,49,49,50,50,51,51,52,52],"right_children":[2,4,6,8,10,12,14,16,18,20,22,24,26,28,30,32,34,36,38,-1,-1,40,-1,42,44,46,48,50,52,-1,-1,54,56,58,60,62,64,-1,-1,-1,-1,66,68,70,72,-1,74,76,78,80,82,84,86,-1,-1,-1,-1,-1,-1,-1,-1,-1,-1,-1,-1,-1,-1,-1,-1,-1,-1,-1,-1,-1,-1,-1,-1,-1,-1,-1,-1,-1,-1,-1,-1,-1,-1],"split_conditions":[1.0034412E2,1.054365E1,-2.1201527E1,3.7682784E-1,-2.13534E0,5.891062E0,3.920208E0,-1.2951061E1,1.968288E0,-1.8262994E2,-4.946642E0,2.0491338E0,-5.5205317E0,-8.213552E0,-1.63653E1,-3.382285E0,2.9702927E1,6.148919E0,2.523178E0,-2.1531104E-1,-7.663455E-9,-2.3313897E0,-1.894737E-1,-1.8295082E1,-1.1742006E1,8.594078E0,7.943843E0,2.8247957E0,-1.7697461E0,-6.206898E-2,3.7358493E-1,-8.684105E-1,1.8632973E1,-1.0470905E0,8.502095E1,-4.309315E0,3.2435563E-1,3.7894738E-1,-6.206898E-2,-1.4400001E-1,3.512195E-1,-4.476404E2,-5.4586998E1,-6.7601395E0,5.607844E0,2.8800002E-1,-3.660842E0,-1.2675416E0,-3.018819E2,1.2837036E2,-3.9854008E-1,-4.6525726E-1,2.530273E0,-1.3584907E-1,2.6756757E-1,8.181818E-2,3.9235955E-1,-2.0224722E-1,8.181818E-2,2.9690722E-1,4.90909E-2,2.6756757E-1,-1.1983005E-1,-1.2000001E-1,3.4615386E-1,-7.663455E-9,-2.0224722E-1,3.1348315E-1,1.9749204E-2,-1.4400001E-1,2.1724138E-1,-7.663455E-9,-2.1381217E-1,4.864864E-2,-2.0826449E-1,3.7358493E-1,-2.4324335E-2,-7.663455E-9,-1.5517244E-1,-1.421053E-1,-1.2968924E-8,2.0536913E-1,-1.2857145E-1,-1.4080341E-1,4.864864E-2,-2.0111735E-1,3.1034475E-2],"split_indices":[1,12,2,26,29,8,9,6,33,0,8,35,18,6,4,36,3,12,31,0,0,38,0,13,5,5,14,16,17,0,0,17,3,26,1,25,10,0,0,0,0,0,2,13,3,0,33,15,0,1,25,24,35,0,0,0,0,0,0,0,0,0,0,0,0,0,0,0,0,0,0,0,0,0,0,0,0,0,0,0,0,0,0,0,0,0,0],"split_type":[0,0,0,0,0,0,0,0,0,0,0,0,0,0,0,0,0,0,0,0,0,0,0,0,0,0,0,0,0,0,0,0,0,0,0,0,0,0,0,0,0,0,0,0,0,0,0,0,0,0,0,0,0,0,0,0,0,0,0,0,0,0,0,0,0,0,0,0,0,0,0,0,0,0,0,0,0,0,0,0,0,0,0,0,0,0,0],"sum_hessian":[6.4488885E2,1.9599998E2,4.4888885E2,1.6177777E2,3.422222E1,2.0133333E2,2.4755554E2,1.02666664E2,5.9111107E1,2.3555553E1,1.0666666E1,1.4888889E2,5.2444443E1,2.4044443E2,7.1111107E0,6.3999996E1,3.8666664E1,5.1555553E1,7.5555553E0,2.2222221E1,1.3333333E0,5.333333E0,5.333333E0,1.24444435E2,2.4444443E1,1.7333332E1,3.511111E1,1.08444435E2,1.3199998E2,2.222222E0,4.8888884E0,7.9999995E0,5.5999996E1,1.1555555E1,2.7111109E1,4.1333332E1,1.0222221E1,5.333333E0,2.222222E0,1.7777777E0,3.5555553E0,1.0222221E1,1.1422221E2,3.9999998E0,2.0444443E1,1.7777777E0,1.5555554E1,3.1555553E1,3.5555553E0,8.533333E1,2.311111E1,7.111111E1,6.0888885E1,4.8888884E0,3.111111E0,7.5555553E0,4.8444443E1,8.888888E0,2.6666665E0,9.777777E0,1.7333332E1,3.111111E0,3.822222E1,3.9999998E0,6.222222E0,1.3333333E0,8.888888E0,8.888888E0,1.0533333E2,1.7777777E0,2.222222E0,1.3333333E0,1.911111E1,3.111111E0,1.2444444E1,2.8444443E1,3.111111E0,1.3333333E0,2.222222E0,5.5999996E1,2.9333332E1,1.5555554E1,7.5555553E0,5.1555553E1,1.9555553E1,5.8666664E1,2.222222E0],"tree_param":{"num_deleted":"0","num_feature":"40","num_nodes":"87","size_leaf_vector":"0"}},{"base_weights":[-7.225189E-2,-4.1124964E-1,2.8075707E-1,-5.7845557E-1,-4.7619093E-2,4.6265444E-1,-5.9940107E-2,-6.029926E-1,8.918919E-1,-2.151395E-1,5.8208954E-1,5.1841354E-1,-5.1428574E-1,-3.2673272E-1,2.0792076E-1,-4.567601E-1,-6.99078E-1,6.8852454E-1,-2.9101288E-1,8.8235295E-1,-3.1578952E-1,8.519266E-2,6.814988E-1,2.3999998E-1,-6.741574E-1,5.9999996E-1,-4.0938172E-1,9.677415E-2,1.2244898E0,-4.8314613E-1,4.137931E-1,-7.061813E-1,-2.5544848E-8,-4.8000002E-1,1.1999999E0,-2.0373519E-1,-6.9421494E-1,1.0212766E0,-4.2857146E-1,4.285714E-1,-6E-1,-1.1111116E-1,8.969072E-1,3.624801E-1,9.7579426E-1,1.0344827E0,-1.2000003E-1,7.241379E-1,-4.743876E-1,1.0408163E0,-1.4117692E-2,-3.6585373E-1,-6.9314086E-1,-2.727273E-1,-7.130511E-1,-4.5801573E-2,-4.9756104E-1,1.9999997E-1,1.2857143E0,1.1913353E-1,-5.6934315E-1,-8.1081115E-2,1.3043479E0,6.467532E-1,-8.3004E-2,2.0547941E-1,1.0552764E0,-5.5745727E-1,3.0612242E-1,-8.8888936E-2,1.0344827E0],"categories":[],"categories_nodes":[],"categories_segments":[],"categories_sizes":[],"default_left":[1,1,1,1,1,1,1,1,0,1,1,1,1,1,1,1,1,1,1,1,1,1,1,0,0,1,1,1,0,1,0,1,0,0,0,1,0,1,0,0,0,1,1,1,1,0,0,0,1,0,1,0,0,0,0,0,0,0,0,0,0,0,0,0,0,0,0,0,0,0,0],"id":1,"left_children":[1,3,5,7,9,11,13,15,-1,17,19,21,23,25,27,29,31,33,35,37,39,41,43,-1,-1,45,47,49,-1,51,-1,53,-1,-1,-1,55,-1,57,-1,-1,-1,59,61,63,65,-1,-1,-1,67,-1,69,-1,-1,-1,-1,-1,-1,-1,-1,-1,-1,-1,-1,-1,-1,-1,-1,-1,-1,-1,-1],"loss_changes":[7.7408485E1,2.0030087E1,1.9672832E1,8.687416E0,1.1201579E1,1.1530483E1,8.016241E0,2.8108978E0,0E0,5.9368954E0,6.299709E0,1.3797573E1,1.5686674E0,4.5433774E0,6.2213936E0,2.2953358E0,6.5823364E-1,4.626885E0,2.5995164E0,3.5337029E0,1.5969925E0,8.828093E0,1.3009369E1,0E0,0E0,1.6882758E0,4.1833515E0,5.4235E0,0E0,1.9385529E0,0E0,1.962738E-1,0E0,0E0,0E0,3.0141587E0,0E0,3.1452904E0,0E0,0E0,0E0,4.815574E0,4.400402E0,8.904351E0,4.279892E0,0E0,0E0,0E0,3.405282E0,0E0,3.7944198E0,0E0,0E0,0E0,0E0,0E0,0E0,0E0,0E0,0E0,0E0,0E0,0E0,0E0,0E0,0E0,0E0,0E0,0E0,0E0,0E0],"parents":[2147483647,0,0,1,1,2,2,3,3,4,4,5,5,6,6,7,7,9,9,10,10,11,11,12,12,13,13,14,14,15,15,16,16,17,17,18,18,19,19,20,20,21,21,22,22,25,25,26,26,27,27,29,29,31,31,35,35,37,37,41,41,42,42,43,43,44,44,48,48,50,50],"right_children":[2,4,6,8,10,12,14,16,-1,18,20,22,24,26,28,30,32,34,36,38,40,42,44,-1,-1,46,48,50,-1,52,-1,54,-1,-1,-1,56,-1,58,-1,-1,-1,60,62,64,66,-1,-1,-1,68,-1,70,-1,-1,-1,-1,-1,-1,-1,-1,-1,-1,-1,-1,-1,-1,-1,-1,-1,-1,-1,-1],"split_conditions":[3.881067E1,-9.591318E0,2.0334377E0,1.105854E1,7.5389075E-1,1.4536104E2,-5.655058E0,-4.6310002E-1,2.6756757E-1,-1.3373888E1,-4.803798E0,9.480603E1,-1.0075619E0,-8.833757E0,1.4718727E2,1.7909798E1,3.841808E1,-1.4712496E0,1.05975E1,6.851752E-1,1.0241113E2,1.0514901E1,5.7977474E1,7.2E-2,-2.0224722E-1,6.498731E0,-4.7386703E0,-1.7097696E1,3.6734694E-1,-3.226287E2,1.2413793E-1,-9.29179E0,-7.663455E-9,-1.4400001E-1,3.5999998E-1,-6.419462E-2,-2.0826449E-1,1.9163921E1,-1.2857145E-1,1.2857142E-1,-1.8E-1,5.9949045E0,-6.5236015E0,5.7662897E0,-2.0023563E1,3.1034482E-1,-3.600001E-2,2.1724138E-1,3.9658427E0,3.122449E-1,2.661644E0,-1.0975612E-1,-2.0794226E-1,-8.181819E-2,-2.1391533E-1,-1.37404725E-2,-1.4926831E-1,5.9999995E-2,3.857143E-1,3.5740063E-2,-1.7080295E-1,-2.4324335E-2,3.9130437E-1,1.9402596E-1,-2.49012E-2,6.1643828E-2,3.1658292E-1,-1.6723719E-1,9.183673E-2,-2.6666682E-2,3.1034482E-1],"split_indices":[3,4,16,13,26,1,22,8,0,13,11,1,21,17,1,12,3,30,2,36,1,12,3,0,0,16,36,9,0,0,0,27,0,0,0,39,0,3,0,0,0,12,20,7,8,0,0,0,30,0,11,0,0,0,0,0,0,0,0,0,0,0,0,0,0,0,0,0,0,0,0],"split_type":[0,0,0,0,0,0,0,0,0,0,0,0,0,0,0,0,0,0,0,0,0,0,0,0,0,0,0,0,0,0,0,0,0,0,0,0,0,0,0,0,0,0,0,0,0,0,0,0,0,0,0,0,0,0,0,0,0,0,0,0,0,0,0,0,0,0,0,0,0,0,0],"sum_hessian":[6.4488885E2,3.2888885E2,3.1599997E2,2.2488887E2,1.0399999E2,2.0577777E2,1.1022221E2,2.2177777E2,3.111111E0,8.2666664E1,2.1333332E1,1.951111E2,1.0666666E1,5.5111107E1,5.5111107E1,9.022221E1,1.3155554E2,5.7777777E0,7.6888885E1,1.5999999E1,5.333333E0,5.3777775E1,1.4133333E2,1.7777777E0,8.888888E0,3.9999998E0,5.1111107E1,5.0666664E1,4.444444E0,8.799999E1,2.222222E0,1.3022221E2,1.3333333E0,1.7777777E0,3.9999998E0,6.444444E1,1.2444444E1,1.4666666E1,1.3333333E0,1.3333333E0,3.9999998E0,4.3999996E1,9.777777E0,6.8888885E1,7.244444E1,2.222222E0,1.7777777E0,2.222222E0,4.8888885E1,4.444444E0,4.622222E1,5.8222218E1,2.9777777E1,2.6666665E0,1.2755555E2,4.2666664E1,2.1777777E1,3.9999998E0,1.0666666E1,2.9777777E1,1.4222221E1,3.111111E0,6.666666E0,4.1777775E1,2.7111109E1,7.1111107E0,6.533333E1,4.4444443E1,4.444444E0,4.3999996E1,2.222222E0],"tree_param":{"num_deleted":"0","num_feature":"40","num_nodes":"71","size_leaf_vector":"0"}},{"base_weights":[5.160842E-2,4.429152E-1,-4.251429E-1,7.929155E-1,2.5795722E-1,-5.2363133E-1,6.0361736E-3,2.432432E-1,1.019305E0,-4.446983E-2,4.704931E-1,-5.3505886E-1,8.571428E-1,2.4920124E-1,-3.886011E-1,-3.8297877E-1,6.7164177E-1,7.011236E-1,1.4076246E0,6.3829786E-1,-1.7315441E-1,-5.5453307E-3,8.297872E-1,8.571428E-1,-5.4661626E-1,-5.454546E-1,4.897959E-1,8.571428E-1,-5.138122E-1,-5.5200005E-1,5.9999996E-1,8.6440676E-1,-5.4545456E-1,1.5254234E-1,1.0288808E0,1.431611E0,4.285714E-1,-4.9180366E-2,1.0449438E0,1.3043474E-1,-4.2542794E-1,-1.8367352E-1,7.155963E-1,1.0076776E0,3.1088078E-1,-6.627593E-1,-4.1461012E-1,-6.461539E-1,-2.5544848E-8,9.677419E-1,1.8633537E-1,-6.545455E-1,5.9999996E-1,-6.8807346E-1,2.3999998E-1,-2.727273E-1,1.0588235E0,-3.092784E-1,6.404494E-1,1.3043475E-1,1.2718894E0,4.285714E-1,1.4574132E0,8.571428E-1,-4.2857146E-1,1.0344825E-1,1.3043479E0,4.7302902E-1,-6.1061954E-1,-4.800004E-2,-5.733789E-1,7.4157304E-1,-4.0720227E-1,1.0684931E0,-3.576279E-8,4.186046E-1,1.1745635E0,9.438202E-1,-2.1238942E-1,-6.1224528E-2,-6.8475217E-1,-4.893139E-1,1.1278192E-1,-1.2000003E-1,1.2077922E0,7.8947365E-1,-1.327434E-1,-2.5544848E-8,-7.0588243E-1],"categories":[],"categories_nodes":[],"categories_segments":[],"categories_sizes":[],"default_left":[1,1,1,1,1,1,1,1,1,1,1,1,0,1,1,1,1,1,1,1,1,1,1,0,1,1,1,0,1,1,0,1,0,1,1,1,0,1,1,1,1,1,1,1,1,1,1,0,0,1,1,1,0,0,0,0,0,0,0,0,0,0,0,0,0,0,0,0,0,0,0,0,0,0,0,0,0,0,0,0,0,0,0,0,0,0,0,0,0],"id":2,"left_children":[1,3,5,7,9,11,13,15,17,19,21,23,-1,25,27,29,31,33,35,37,39,41,43,-1,45,47,49,-1,51,53,-1,55,-1,57,59,61,-1,63,65,67,69,71,73,75,77,79,81,-1,-1,83,85,87,-1,-1,-1,-1,-1,-1,-1,-1,-1,-1,-1,-1,-1,-1,-1,-1,-1,-1,-1,-1,-1,-1,-1,-1,-1,-1,-1,-1,-1,-1,-1,-1,-1,-1,-1,-1,-1],"loss_changes":[1.2068277E2,2.2790894E1,1.2389118E1,1.4975227E1,1.5054504E1,4.2052383E0,5.3960743E0,1.018331E1,9.680084E0,8.672155E0,2.3512798E1,4.2675934E0,0E0,6.9163227E0,3.785336E0,2.934128E0,5.711197E0,8.733238E0,2.7622986E-1,4.431168E0,6.395233E0,7.853048E0,6.917557E0,0E0,3.3247375E0,4.6992993E-1,3.7679253E0,0E0,3.5451536E0,1.6619449E0,0E0,4.6366367E0,0E0,4.6294804E0,6.553814E0,3.214798E-1,0E0,2.6978924E0,2.2802076E0,1.0020944E1,2.5101328E0,1.04361105E1,3.0584388E0,5.1992645E0,7.302821E0,1.5882416E0,4.489668E0,0E0,0E0,2.8430996E0,3.5474892E0,6.160431E-1,0E0,0E0,0E0,0E0,0E0,0E0,0E0,0E0,0E0,0E0,0E0,0E0,0E0,0E0,0E0,0E0,0E0,0E0,0E0,0E0,0E0,0E0,0E0,0E0,0E0,0E0,0E0,0E0,0E0,0E0,0E0,0E0,0E0,0E0,0E0,0E0,0E0],"parents":[2147483647,0,0,1,1,2,2,3,3,4,4,5,5,6,6,7,7,8,8,9,9,10,10,11,11,13,13,14,14,15,15,16,16,17,17,18,18,19,19,20,20,21,21,22,22,24,24,25,25,26,26,28,28,29,29,31,31,33,33,34,34,35,35,37,37,38,38,39,39,40,40,41,41,42,42,43,43,44,44,45,45,46,46,49,49,50,50,51,51],"right_children":[2,4,6,8,10,12,14,16,18,20,22,24,-1,26,28,30,32,34,36,38,40,42,44,-1,46,48,50,-1,52,54,-1,56,-1,58,60,62,-1,64,66,68,70,72,74,76,78,80,82,-1,-1,84,86,88,-1,-1,-1,-1,-1,-1,-1,-1,-1,-1,-1,-1,-1,-1,-1,-1,-1,-1,-1,-1,-1,-1,-1,-1,-1,-1,-1,-1,-1,-1,-1,-1,-1,-1,-1,-1,-1],"split_conditions":[4.149453E1,-4.2001023E0,1.3184221E2,-3.6097045E0,-6.560336E0,1.6887125E1,-4.925728E0,-4.1013355E0,1.1893065E2,-2.878222E0,9.24904E0,-2.8131342E1,2.5714284E-1,-7.1529036E0,-6.102273E0,7.451327E-1,2.0608778E0,-5.0197735E0,3.9955444E1,-2.1382318E0,-1.304774E1,-4.9143214E0,-1.0235885E1,2.5714284E-1,8.236376E0,-4.3171893E2,-1.8582289E0,2.5714284E-1,9.324497E0,2.870986E0,1.7999999E-1,-2.0533068E1,-1.6363637E-1,-3.7332394E0,4.019927E0,-2.432745E0,1.2857142E-1,-3.1995161E1,-4.0320175E1,2.8502867E0,-3.3100965E0,-8.26604E0,7.072238E-1,-7.044263E0,-3.77097E-1,-4.182807E0,9.667321E-1,-1.9384618E-1,-7.663455E-9,-3.8378796E1,-5.7923517E0,1.3351703E2,1.7999999E-1,-2.0642205E-1,7.2E-2,-8.181819E-2,3.1764704E-1,-9.2783526E-2,1.9213483E-1,3.9130427E-2,3.8156685E-1,1.2857142E-1,4.3722397E-1,2.5714284E-1,-1.2857145E-1,3.1034475E-2,3.9130437E-1,1.419087E-1,-1.8318588E-1,-1.4400013E-2,-1.7201369E-1,2.2247192E-1,-1.2216069E-1,3.2054794E-1,-1.07288365E-8,1.2558138E-1,3.5236907E-1,2.8314605E-1,-6.371683E-2,-1.836736E-2,-2.0542566E-1,-1.4679417E-1,3.3834577E-2,-3.600001E-2,3.6233765E-1,2.3684211E-1,-3.982302E-2,-7.663455E-9,-2.1176474E-1],"split_indices":[3,10,1,16,11,8,31,22,1,32,5,8,0,24,30,24,4,20,3,24,4,2,4,0,5,0,36,0,14,36,0,9,0,18,5,3,0,4,2,14,31,13,11,22,32,39,27,0,0,2,33,1,0,0,0,0,0,0,0,0,0,0,0,0,0,0,0,0,0,0,0,0,0,0,0,0,0,0,0,0,0,0,0,0,0,0,0,0,0],"split_type":[0,0,0,0,0,0,0,0,0,0,0,0,0,0,0,0,0,0,0,0,0,0,0,0,0,0,0,0,0,0,0,0,0,0,0,0,0,0,0,0,0,0,0,0,0,0,0,0,0,0,0,0,0,0,0,0,0,0,0,0,0,0,0,0,0,0,0,0,0,0,0,0,0,0,0,0,0,0,0,0,0,0,0,0,0,0,0,0,0],"sum_hessian":[6.4488885E2,3.542222E2,2.9066666E2,1.2133333E2,2.3288887E2,2.3644443E2,5.4222218E1,3.5999996E1,8.533333E1,9.6444435E1,1.3644444E2,2.351111E2,1.3333333E0,3.3777775E1,2.0444443E1,1.4666666E1,2.1333332E1,4.8444443E1,3.6888885E1,1.4666666E1,8.177777E1,5.9111107E1,7.733333E1,1.3333333E0,2.3377777E2,7.5555553E0,2.6222221E1,1.3333333E0,1.911111E1,1.2888888E1,1.7777777E0,1.8666666E1,2.6666665E0,1.8666666E1,2.9777777E1,3.5555553E1,1.3333333E0,5.7777777E0,8.888888E0,3.7333332E1,4.4444443E1,4.7999996E1,1.1111111E1,5.6888885E1,2.0444443E1,1.2222221E2,1.1155555E2,6.222222E0,1.3333333E0,9.333333E0,1.6888887E1,1.7333332E1,1.7777777E0,1.1111111E1,1.7777777E0,2.6666665E0,1.5999999E1,9.777777E0,8.888888E0,6.666666E0,2.311111E1,1.3333333E0,3.422222E1,1.3333333E0,4.444444E0,2.222222E0,6.666666E0,2.5777777E1,1.1555555E1,1.2888888E1,3.1555553E1,8.888888E0,3.9111107E1,7.1111107E0,3.9999998E0,1.3333332E1,4.3555553E1,8.888888E0,1.1555555E1,4.444444E0,1.1777777E2,9.777777E1,1.3777777E1,1.7777777E0,7.5555553E0,5.333333E0,1.1555555E1,1.3333333E0,1.5999999E1],"tree_param":{"num_deleted":"0","num_feature":"40","num_nodes":"89","size_leaf_vector":"0"}},{"base_weights":[1.7381307E-2,1.8739462E-1,-1.2464812E-1,3.7303606E-1,-5.67981E-2,-1.7484432E-1,5.272286E-1,1.263378E-1,6.5434426E-1,1.6394927E-1,-3.3504033E-1,1.3331494E-1,-2.3824938E-1,4.7106024E-2,9.9028814E-1,-3.7150687E-1,2.7177477E-1,-1.145795E-1,7.372668E-1,-1.9619516E-1,4.1708994E-1,-3.7895437E-2,-5.268983E-1,-1.6561967E-1,3.8292596E-1,-2.7652353E-1,3.0646452E-1,6.2119097E-1,-5.842498E-1,3.191875E-1,1.0463107E0,-6.747545E-1,2.784173E-2,1.0029248E0,1.4462948E-1,-4.9260855E-1,7.2904783E-1,7.818386E-1,-2.8625676E-1,2.178908E-1,-4.3573025E-1,5.582602E-1,-2.5480035E-1,-6.1087424E-1,2.4407263E-1,2.5371662E-1,-6.013471E-1,-4.867614E-1,2.4687788E-1,-5.5948067E-1,5.0442946E-1,1.9775389E-1,-3.157258E-1,8.195661E-1,-4.0513092E-1,-1.9984101E-1,9.9224627E-1,5.8791995E-1,-6.192116E-1,1.0684386E0,3.4245998E-1,7.0163876E-1,-2.9360188E-2,-5.598083E-4,-6.182592E-1,8.679298E-1,1.8615866E-1,-4.147804E-3,-4.409915E-1,-5.5391926E-1,6.950512E-1,5.0522554E-1,-6.206933E-1,7.402837E-2,8.755473E-1,-5.643271E-1,2.7688918E-1,9.323459E-1,-2.1378617E-1,-4.0507847E-1,7.7282476E-1,-6.6065854E-1,4.4509915E-1,3.3962846E-1,-6.6280985E-1,-2.354358E-1,7.471059E-1,4.238746E-2,8.089193E-1,-6.003412E-2,9.642304E-1,-4.2105126E-1,-1.3820624E-1,7.425748E-2,1.0057731E0,3.4948462E-1,-6.1149603E-1],"categories":[],"categories_nodes":[],"categories_segments":[],"categories_sizes":[],"default_left":[1,1,1,1,1,1,1,1,1,1,1,1,1,1,1,1,1,1,1,1,1,1,1,1,1,1,1,1,0,0,0,0,1,1,1,1,0,1,1,1,1,1,1,0,1,1,1,1,1,0,1,1,1,1,1,0,0,0,0,0,0,0,0,0,0,0,0,0,0,0,0,0,0,0,0,0,0,0,0,0,0,0,0,0,0,0,0,0,0,0,0,0,0,0,0,0,0],"id":3,"left_children":[1,3,5,7,9,11,13,15,17,19,21,23,25,27,29,31,33,35,37,39,41,43,45,47,49,51,53,55,-1,-1,-1,-1,57,59,61,63,-1,65,67,69,71,73,75,-1,77,79,81,83,85,-1,87,89,91,93,95,-1,-1,-1,-1,-1,-1,-1,-1,-1,-1,-1,-1,-1,-1,-1,-1,-1,-1,-1,-1,-1,-1,-1,-1,-1,-1,-1,-1,-1,-1,-1,-1,-1,-1,-1,-1,-1,-1,-1,-1,-1,-1],"loss_changes":[1.5372102E1,1.3154752E1,1.1444101E1,1.1348846E1,7.7936544E0,6.340268E0,5.5232754E0,6.5449886E0,4.976467E0,6.548072E0,3.1763916E0,4.2223573E0,5.674904E0,5.2016063E0,1.4362812E-1,2.5067031E0,6.311698E0,3.0170183E0,3.3893814E0,3.0662374E0,4.1232424E0,3.8771546E0,2.1280384E0,3.5724297E0,3.7948174E0,4.7302437E0,6.932575E0,2.4760635E0,0E0,0E0,0E0,0E0,3.9255002E0,7.201004E-2,5.8679132E0,3.9237344E-1,0E0,3.262169E0,1.5652451E-1,4.673514E0,3.6745806E0,5.3121624E0,1.4685516E0,0E0,5.2979336E0,1.5657102E0,2.238532E0,2.4058414E0,3.0882814E0,0E0,3.8625622E0,3.9665833E0,4.2846966E0,1.4289622E0,1.4973716E0,0E0,0E0,0E0,0E0,0E0,0E0,0E0,0E0,0E0,0E0,0E0,0E0,0E0,0E0,0E0,0E0,0E0,0E0,0E0,0E0,0E0,0E0,0E0,0E0,0E0,0E0,0E0,0E0,0E0,0E0,0E0,0E0,0E0,0E0,0E0,0E0,0E0,0E0,0E0,0E0,0E0,0E0],"parents":[2147483647,0,0,1,1,2,2,3,3,4,4,5,5,6,6,7,7,8,8,9,9,10,10,11,11,12,12,13,13,14,14,15,15,16,16,17,17,18,18,19,19,20,20,21,21,22,22,23,23,24,24,25,25,26,26,27,27,32,32,33,33,34,34,35,35,37,37,38,38,39,39,40,40,41,41,42,42,44,44,45,45,46,46,47,47,48,48,50,50,51,51,52,52,53,53,54,54],"right_children":[2,4,6,8,10,12,14,16,18,20,22,24,26,28,30,32,34,36,38,40,42,44,46,48,50,52,54,56,-1,-1,-1,-1,58,60,62,64,-1,66,68,70,72,74,76,-1,78,80,82,84,86,-1,88,90,92,94,96,-1,-1,-1,-1,-1,-1,-1,-1,-1,-1,-1,-1,-1,-1,-1,-1,-1,-1,-1,-1,-1,-1,-1,-1,-1,-1,-1,-1,-1,-1,-1,-1,-1,-1,-1,-1,-1,-1,-1,-1,-1,-1],"split_conditions":[-1.3143314E1,-4.2737417E0,9.168486E0,1.1464977E0,1.4492781E0,9.6214645E1,1.5575652E0,-2.3775613E0,-3.7628932E0,-3.5687058E0,-3.1022854E0,-1.6991438E0,3.920208E0,-3.7131517E0,9.968618E0,-2.2069101E0,-4.8519335E0,-3.158143E0,2.1530633E0,1.0519469E2,1.0100162E1,-5.866207E0,-4.219001E0,4.7704956E1,-1.5959531E1,1.1130136E1,-6.8291754E-1,-7.7020794E-1,-1.7527494E-1,9.5756255E-2,3.138932E-1,-2.0242636E-1,-3.784036E-1,7.2039175E0,-1.4065289E1,-3.99078E1,2.1871436E-1,4.609191E0,-7.3207903E0,-3.1103144E0,-2.9894054E0,-2.1206965E0,1.3832859E0,-1.8326227E-1,-9.189073E0,-8.030186E0,4.9774375E0,-9.372156E0,-1.4036502E0,-1.678442E-1,-4.23526E0,3.334031E0,6.441097E-1,-4.3121204E0,4.279395E0,-5.9952304E-2,2.9767388E-1,1.7637599E-1,-1.857635E-1,3.205316E-1,1.02738E-1,2.1049164E-1,-8.808057E-3,-1.6794249E-4,-1.8547776E-1,2.6037896E-1,5.58476E-2,-1.2443413E-3,-1.3229746E-1,-1.6617578E-1,2.0851536E-1,1.5156767E-1,-1.8620801E-1,2.2208512E-2,2.626642E-1,-1.6929814E-1,8.3066754E-2,2.797038E-1,-6.413586E-2,-1.21523544E-1,2.3184744E-1,-1.9819757E-1,1.3352975E-1,1.01888545E-1,-1.9884296E-1,-7.0630744E-2,2.2413178E-1,1.2716238E-2,2.426758E-1,-1.8010236E-2,2.8926915E-1,-1.2631539E-1,-4.1461874E-2,2.2277243E-2,3.0173194E-1,1.0484539E-1,-1.8344882E-1],"split_indices":[6,22,8,16,25,1,10,30,30,26,33,34,9,22,3,19,5,29,11,1,12,33,14,3,7,3,28,23,0,0,0,0,37,12,11,4,0,25,7,36,37,18,13,0,11,15,35,20,37,0,10,26,10,36,9,0,0,0,0,0,0,0,0,0,0,0,0,0,0,0,0,0,0,0,0,0,0,0,0,0,0,0,0,0,0,0,0,0,0,0,0,0,0,0,0,0,0],"split_type":[0,0,0,0,0,0,0,0,0,0,0,0,0,0,0,0,0,0,0,0,0,0,0,0,0,0,0,0,0,0,0,0,0,0,0,0,0,0,0,0,0,0,0,0,0,0,0,0,0,0,0,0,0,0,0,0,0,0,0,0,0,0,0,0,0,0,0,0,0,0,0,0,0,0,0,0,0,0,0,0,0,0,0,0,0,0,0,0,0,0,0,0,0,0,0,0,0],"sum_hessian":[6.346405E2,2.8871768E2,3.4592282E2,1.6372342E2,1.2499428E2,3.2186978E2,2.405303E1,8.799966E1,7.572376E1,6.992727E1,5.506701E1,5.4736847E1,2.6713293E2,1.2349843E1,1.1703188E1,1.954406E1,6.84556E1,7.3341265E0,6.838963E1,2.8956161E1,4.0971107E1,2.2075123E1,3.2991886E1,2.5060652E1,2.9676193E1,2.5005524E2,1.7077703E1,6.4767265E0,5.8731165E0,1.4177127E0,1.0285476E1,1.0716662E1,8.827396E0,9.120436E0,5.9335163E1,5.3519864E0,1.98214E0,6.5762E1,2.6276336E0,1.0644794E1,1.8311369E1,3.3997124E1,6.9739842E0,6.895836E0,1.5179286E1,2.6628861E0,3.0328999E1,1.39894285E1,1.1071224E1,2.9774919E0,2.6698702E1,1.878201E1,2.3127322E2,9.834633E0,7.2430706E0,2.1596053E0,4.317121E0,4.780697E0,4.0466995E0,7.735425E0,1.3850113E0,1.3400917E1,4.5934246E1,1.2930094E0,4.058977E0,5.705852E1,8.70348E0,1.2944417E0,1.3331919E0,4.005311E0,6.639483E0,2.723699E0,1.5587669E1,1.3946227E1,2.0050898E1,4.3690987E0,2.6048858E0,5.649857E0,9.529429E0,1.2703553E0,1.3925308E0,2.9051079E1,1.27792E0,2.2936447E0,1.1695784E1,5.9060383E0,5.165186E0,1.1058068E1,1.5640633E1,1.4744639E1,4.0373693E0,1.4429099E2,8.698223E1,2.245525E0,7.589108E0,1.4064775E0,5.836593E0],"tree_param":{"num_deleted":"0","num_feature":"40","num_nodes":"97","size_leaf_vector":"0"}},{"base_weights":[-5.808764E-2,-3.4682924E-1,2.127357E-1,-5.039047E-1,-3.2031264E-2,3.3972612E-1,-9.156425E-2,-5.315484E-1,5.4820496E-1,-1.7413753E-1,4.616011E-1,-2.8124368E-3,4.8504317E-1,3.2600138E-1,-2.8234196E-1,-3.97284E-1,-6.2368166E-1,-4.0352502E-1,9.099029E-1,3.3710045E-1,-2.824586E-1,6.6841155E-1,-2.5186583E-1,-1.9142939E-1,7.550954E-1,5.9733766E-1,1.14439316E-1,-2.2627588E-1,7.838392E-1,-3.8076976E-1,3.5222912E-1,-4.8284876E-1,-5.8927372E-2,-6.3142866E-1,4.373351E-2,7.937164E-1,-3.0404142E-1,-3.1851244E-1,8.420553E-1,-2.402045E-1,8.1251055E-1,4.5592767E-1,-5.476912E-1,-3.062081E-1,6.952366E-1,1.5216771E-2,9.242677E-1,6.331981E-1,-3.9457473E-1,5.036423E-1,-2.8778535E-1,2.2462085E-1,-6.4116675E-1,1.0885229E0,2.8618777E-2,-4.696871E-1,4.5252758E-1,-2.19058E-1,9.2254525E-1,-6.3720804E-1,-2.1911417E-1,5.072857E-1,-5.31203E-1,-2.2046715E-1,-6.386248E-1,-4.2714664E-1,1.0711983E0,4.9238053E-1,-5.7511497E-1,-1.20776884E-1,-5.597147E-1,9.8960936E-1,8.244092E-2,6.0828274E-1,-4.108744E-1,-3.9316645E-1,1.0132831E0,4.1173244E-1,-4.017947E-1,3.0380812E-1,9.834902E-1,8.356073E-1,4.776958E-1,2.5219273E-2,-5.4572695E-1,9.83421E-1,8.8521786E-2,2.5051075E-1,-5.6981826E-1,-2.6862293E-1,9.8568577E-1,1.8090952E-5,1.2233756E0,5.989426E-1,-5.263377E-1,1.2354966E-1,-5.533059E-1,-4.485013E-1,8.9365864E-1,4.935628E-1,-5.4149616E-1],"categories":[],"categories_nodes":[],"categories_segments":[],"categories_sizes":[],"default_left":[1,1,1,1,1,1,1,1,1,1,1,1,1,1,1,1,1,0,0,1,1,1,1,1,1,1,1,1,1,1,1,1,1,1,0,1,1,1,0,0,1,0,0,1,1,1,1,1,1,1,1,1,0,1,1,1,1,1,0,0,0,0,0,0,0,0,0,0,0,0,0,0,0,0,0,0,0,0,0,0,0,0,0,0,0,0,0,0,0,0,0,0,0,0,0,0,0,0,0,0,0],"id":4,"left_children":[1,3,5,7,9,11,13,15,17,19,21,23,25,27,29,31,33,-1,-1,35,37,39,41,43,45,47,49,51,53,55,57,59,61,63,-1,65,67,69,-1,-1,71,-1,-1,73,75,77,79,81,83,85,87,89,-1,91,93,95,97,99,-1,-1,-1,-1,-1,-1,-1,-1,-1,-1,-1,-1,-1,-1,-1,-1,-1,-1,-1,-1,-1,-1,-1,-1,-1,-1,-1,-1,-1,-1,-1,-1,-1,-1,-1,-1,-1,-1,-1,-1,-1,-1,-1],"loss_changes":[4.905804E1,1.4993874E1,1.2545932E1,6.1792755E0,7.2435665E0,1.1385847E1,7.7511516E0,2.1986465E0,2.3207905E0,4.526293E0,3.5767522E0,1.0025576E1,6.6149178E0,7.9185543E0,4.2895126E0,2.3813705E0,6.2496185E-1,0E0,0E0,4.4703064E0,2.9671512E0,2.575776E0,1.4887125E0,5.9267E0,1.7352738E0,4.625351E0,6.18472E0,2.8851023E0,3.872054E0,4.515691E0,3.28205E0,2.559332E0,5.066682E0,1.9713974E-1,0E0,3.4095044E0,1.7364666E0,3.0433726E0,0E0,0E0,1.9769831E0,0E0,0E0,5.07437E0,2.7317417E0,7.6361567E-1,1.1857319E-1,3.3495712E0,3.2519382E-1,3.8906178E0,3.1198199E0,3.1786041E0,0E0,1.7701845E0,2.183637E0,2.6958542E0,2.8289087E0,1.5380737E0,0E0,0E0,0E0,0E0,0E0,0E0,0E0,0E0,0E0,0E0,0E0,0E0,0E0,0E0,0E0,0E0,0E0,0E0,0E0,0E0,0E0,0E0,0E0,0E0,0E0,0E0,0E0,0E0,0E0,0E0,0E0,0E0,0E0,0E0,0E0,0E0,0E0,0E0,0E0,0E0,0E0,0E0,0E0],"parents":[2147483647,0,0,1,1,2,2,3,3,4,4,5,5,6,6,7,7,8,8,9,9,10,10,11,11,12,12,13,13,14,14,15,15,16,16,19,19,20,20,21,21,22,22,23,23,24,24,25,25,26,26,27,27,28,28,29,29,30,30,31,31,32,32,33,33,35,35,36,36,37,37,40,40,43,43,44,44,45,45,46,46,47,47,48,48,49,49,50,50,51,51,53,53,54,54,55,55,56,56,57,57],"right_children":[2,4,6,8,10,12,14,16,18,20,22,24,26,28,30,32,34,-1,-1,36,38,40,42,44,46,48,50,52,54,56,58,60,62,64,-1,66,68,70,-1,-1,72,-1,-1,74,76,78,80,82,84,86,88,90,-1,92,94,96,98,100,-1,-1,-1,-1,-1,-1,-1,-1,-1,-1,-1,-1,-1,-1,-1,-1,-1,-1,-1,-1,-1,-1,-1,-1,-1,-1,-1,-1,-1,-1,-1,-1,-1,-1,-1,-1,-1,-1,-1,-1,-1,-1,-1],"split_conditions":[3.881067E1,-9.591318E0,7.48472E0,9.377382E0,7.5389075E-1,9.480603E1,-4.802927E0,-4.6310002E-1,-6.7760445E1,-8.418282E0,-4.803798E0,1.0624155E1,2.805573E0,9.326923E-1,1.5079575E2,6.708671E-1,3.841808E1,-1.2105751E-1,2.7297089E-1,-1.1508813E0,6.6346197E0,-7.2002907E0,-3.096661E0,1.5023108E0,-6.5236015E0,-1.8313941E-1,-3.4412289E0,5.313219E-1,5.2048445E0,1.3334698E1,-5.6858983E0,2.7618155E1,1.1754185E-3,-9.29179E0,1.3120054E-2,-2.4887943E0,-9.352005E-1,-2.068934E0,2.526166E-1,-7.206135E-2,3.2208417E-2,1.3677831E-1,-1.6430737E-1,-1.6760147E1,-1.9009834E1,5.5677734E1,-2.6668332E0,-4.022066E0,-5.531323E-1,-1.5653105E0,-2.0845141E0,-2.6926937E0,-1.9235003E-1,-3.5935872E0,-1.4842684E1,-3.5554457E0,-2.7528238E0,-2.0212417E0,2.767636E-1,-1.9116242E-1,-6.573425E-2,1.5218572E-1,-1.593609E-1,-6.6140145E-2,-1.9158745E-1,-1.28144E-1,3.2135952E-1,1.4771417E-1,-1.725345E-1,-3.6233068E-2,-1.679144E-1,2.968828E-1,2.4732277E-2,1.8248484E-1,-1.2326232E-1,-1.1794994E-1,3.0398494E-1,1.2351973E-1,-1.2053841E-1,9.114244E-2,2.9504707E-1,2.506822E-1,1.4330874E-1,7.565782E-3,-1.6371809E-1,2.9502633E-1,2.6556537E-2,7.515323E-2,-1.7094548E-1,-8.058688E-2,2.9570574E-1,5.427286E-6,3.6701268E-1,1.7968278E-1,-1.5790132E-1,3.70649E-2,-1.6599178E-1,-1.345504E-1,2.680976E-1,1.4806885E-1,-1.6244885E-1],"split_indices":[3,4,7,13,26,1,17,8,2,20,11,12,10,39,1,33,3,0,0,16,15,15,20,4,20,13,8,16,32,12,22,3,16,27,0,33,12,31,0,0,35,0,0,9,6,3,26,17,12,35,19,16,0,21,11,19,37,39,0,0,0,0,0,0,0,0,0,0,0,0,0,0,0,0,0,0,0,0,0,0,0,0,0,0,0,0,0,0,0,0,0,0,0,0,0,0,0,0,0,0,0],"split_type":[0,0,0,0,0,0,0,0,0,0,0,0,0,0,0,0,0,0,0,0,0,0,0,0,0,0,0,0,0,0,0,0,0,0,0,0,0,0,0,0,0,0,0,0,0,0,0,0,0,0,0,0,0,0,0,0,0,0,0,0,0,0,0,0,0,0,0,0,0,0,0,0,0,0,0,0,0,0,0,0,0,0,0,0,0,0,0,0,0,0,0,0,0,0,0,0,0,0,0,0,0],"sum_hessian":[6.2541345E2,3.0255746E2,3.2285596E2,2.0144252E2,1.0111493E2,2.2771117E2,9.5144806E1,1.9676733E2,4.6751943E0,7.901533E1,2.2099602E1,6.812019E1,1.5959096E2,2.9615322E1,6.552949E1,8.223688E1,1.1453045E2,1.2556312E0,3.419563E0,1.3445441E1,6.5569885E1,1.7182201E1,4.9174013E0,5.5144154E1,1.2976042E1,1.2200973E2,3.7581238E1,1.3652482E1,1.5962841E1,5.7076374E1,8.453113E0,6.529726E1,1.6939625E1,1.1326959E2,1.2608565E0,7.7137785E0,5.7316623E0,6.42274E1,1.342485E0,2.2606618E0,1.4921539E1,1.2899219E0,3.6274793E0,4.940353E1,5.740624E0,2.6176476E0,1.0358394E1,1.18101654E2,3.908072E0,1.8971642E1,1.8609596E1,6.7621202E0,6.8903613E0,1.1059644E1,4.903198E0,5.196751E1,5.1088643E0,4.5306497E0,3.9224627E0,4.0296383E1,2.5000872E1,7.669955E0,9.2696705E0,2.4937184E0,1.1077588E2,1.328646E0,6.385133E0,1.2481506E0,4.483512E0,3.6118496E1,2.8108908E1,1.1722435E1,3.1991043E0,4.5795364E0,4.4823994E1,1.244741E0,4.495883E0,1.348287E0,1.2693605E0,1.4366735E0,8.9217205E0,4.941159E1,6.869006E1,1.2551914E0,2.6528807E0,8.165409E0,1.0806233E1,6.436491E0,1.2173104E1,4.4955873E0,2.266533E0,1.329368E0,9.730275E0,2.3790298E0,2.524168E0,6.3610783E0,4.560643E1,1.6736519E0,3.4352121E0,1.2460446E0,3.284605E0],"tree_param":{"num_deleted":"0","num_feature":"40","num_nodes":"101","size_leaf_vector":"0"}},{"base_weights":[3.9875332E-2,3.3350828E-1,-3.6045426E-1,5.8171976E-1,1.8704848E-1,-4.9001196E-1,-7.854162E-2,2.9865715E-1,7.7915776E-1,-6.2844776E-2,3.501115E-1,7.363883E-1,-5.036944E-1,-6.2308156E-1,9.414348E-2,-2.8260714E-1,5.526098E-1,-6.636449E-2,8.2957613E-1,4.6086252E-1,-1.7930982E-1,-3.3491876E-2,6.150568E-1,-5.173048E-1,7.0322716E-1,-6.6467845E-1,2.1692783E-2,-4.9219406E-1,2.2240429E-1,8.551581E-1,-5.1185197E-1,-3.1439433E-1,7.852199E-1,-5.190666E-1,5.221145E-1,-4.718404E-1,8.6068845E-1,5.99688E-1,-4.7893623E-1,6.815662E-1,-2.4909529E-1,3.689563E-1,-3.19335E-1,6.946609E-1,-9.044931E-2,-5.602266E-1,-2.1239252E-1,-6.386316E-1,2.4344651E-1,-4.2042524E-2,6.6477466E-1,1.3939796E-1,-6.827724E-1,-5.948152E-1,3.869005E-1,8.736246E-1,-4.7780368E-1,-1.6492799E-1,8.893048E-1,7.225694E-1,-4.167912E-1,-1.2242681E-1,1.0452834E0,1.6047375E-1,-3.4737185E-1,6.464088E-1,-3.8737583E-1,9.338993E-1,-4.3817493E-1,5.4606104E-1,9.6419525E-1,-5.233324E-1,7.9105407E-1,-1.3514617E-1,-5.9601396E-1,7.8099036E-1,-4.1670105E-1,3.67277E-1,-2.9837403E-1,1.37641E-1,1.1462514E0],"categories":[],"categories_nodes":[],"categories_segments":[],"categories_sizes":[],"default_left":[1,1,1,1,1,1,1,1,1,1,1,0,1,1,1,1,1,1,1,1,1,1,1,1,0,0,0,1,1,0,1,1,1,0,0,0,1,1,0,1,1,1,1,1,1,1,1,0,0,1,1,0,0,0,0,0,0,0,0,0,0,0,0,0,0,0,0,0,0,0,0,0,0,0,0,0,0,0,0,0,0],"id":5,"left_children":[1,3,5,7,9,11,13,15,17,19,21,-1,23,25,27,29,31,33,35,37,39,41,43,45,-1,-1,-1,47,49,-1,51,53,55,-1,-1,-1,57,59,-1,61,63,65,67,69,71,73,75,-1,-1,77,79,-1,-1,-1,-1,-1,-1,-1,-1,-1,-1,-1,-1,-1,-1,-1,-1,-1,-1,-1,-1,-1,-1,-1,-1,-1,-1,-1,-1,-1,-1],"loss_changes":[7.481687E1,1.3236095E1,9.799374E0,7.354088E0,9.489506E0,3.464386E0,8.145671E0,8.629478E0,3.4377136E0,5.730134E0,1.4325487E1,0E0,3.368412E0,5.732956E-1,5.085228E0,5.162601E0,8.371686E0,1.7072762E0,3.4411736E0,2.5214865E0,4.7636294E0,6.841418E0,4.7411575E0,2.2557106E0,0E0,0E0,0E0,1.468287E0,6.459317E0,0E0,1.8430796E0,2.0465226E0,3.9961033E0,0E0,0E0,0E0,2.3056831E0,2.2203474E0,0E0,1.8829622E0,2.9322872E0,5.441313E0,5.5787954E0,2.476284E0,3.9745636E0,2.3298416E0,5.1965966E0,0E0,0E0,3.8183923E0,5.077756E0,0E0,0E0,0E0,0E0,0E0,0E0,0E0,0E0,0E0,0E0,0E0,0E0,0E0,0E0,0E0,0E0,0E0,0E0,0E0,0E0,0E0,0E0,0E0,0E0,0E0,0E0,0E0,0E0,0E0,0E0],"parents":[2147483647,0,0,1,1,2,2,3,3,4,4,5,5,6,6,7,7,8,8,9,9,10,10,12,12,13,13,14,14,15,15,16,16,17,17,18,18,19,19,20,20,21,21,22,22,23,23,27,27,28,28,30,30,31,31,32,32,36,36,37,37,39,39,40,40,41,41,42,42,43,43,44,44,45,45,46,46,49,49,50,50],"right_children":[2,4,6,8,10,12,14,16,18,20,22,-1,24,26,28,30,32,34,36,38,40,42,44,46,-1,-1,-1,48,50,-1,52,54,56,-1,-1,-1,58,60,-1,62,64,66,68,70,72,74,76,-1,-1,78,80,-1,-1,-1,-1,-1,-1,-1,-1,-1,-1,-1,-1,-1,-1,-1,-1,-1,-1,-1,-1,-1,-1,-1,-1,-1,-1,-1,-1,-1,-1],"split_conditions":[4.149453E1,-3.8798828E0,1.2179578E2,-4.0877733E0,-6.560336E0,-2.8131342E1,-2.0351772E0,-1.4693354E1,-2.073013E1,-7.0853515E0,9.24904E0,2.2091651E-1,1.6847504E1,6.7455316E0,-6.863857E0,-6.2778187E0,-4.3624372E0,5.808839E0,-1.1326921E1,-3.368244E2,-5.120787E0,-2.7186599E0,3.3967185E0,3.6982493E0,2.1096815E-1,-1.9940354E-1,6.507835E-3,6.4569885E-1,5.4095507E0,2.5654745E-1,-9.859725E0,2.6891255E0,3.0834263E1,-1.5571998E-1,1.5663436E-1,-1.4155214E-1,-8.944513E1,1.5391877E0,-1.4368087E-1,-3.8449354E0,-2.7995247E1,7.2002196E-1,-5.4042754E0,3.815414E-1,1.0418966E1,-4.9126996E2,-3.642064E0,-1.9158949E-1,7.303396E-2,-3.3443594E0,-3.6857045E0,4.181939E-2,-2.0483173E-1,-1.7844456E-1,1.1607016E-1,2.620874E-1,-1.4334111E-1,-4.94784E-2,2.6679146E-1,2.1677083E-1,-1.2503737E-1,-3.6728043E-2,3.1358504E-1,4.8142128E-2,-1.0421156E-1,1.9392265E-1,-1.16212755E-1,2.8016979E-1,-1.3145249E-1,1.6381831E-1,2.892586E-1,-1.5699974E-1,2.3731624E-1,-4.0543854E-2,-1.7880419E-1,2.3429711E-1,-1.2501033E-1,1.10183105E-1,-8.9512214E-2,4.1292302E-2,3.4387544E-1],"split_indices":[3,10,1,22,11,8,16,6,9,18,5,0,8,6,24,21,16,14,17,0,30,13,16,22,0,0,0,37,10,0,15,35,5,0,0,0,2,24,0,34,4,38,21,11,10,0,10,0,0,17,15,0,0,0,0,0,0,0,0,0,0,0,0,0,0,0,0,0,0,0,0,0,0,0,0,0,0,0,0,0,0],"split_type":[0,0,0,0,0,0,0,0,0,0,0,0,0,0,0,0,0,0,0,0,0,0,0,0,0,0,0,0,0,0,0,0,0,0,0,0,0,0,0,0,0,0,0,0,0,0,0,0,0,0,0,0,0,0,0,0,0,0,0,0,0,0,0,0,0,0,0,0,0,0,0,0,0,0,0,0,0,0,0,0,0],"sum_hessian":[6.34446E2,3.6609225E2,2.683537E2,1.347515E2,2.3134076E2,1.833527E2,8.500099E1,5.640193E1,7.834956E1,9.159164E1,1.3974911E2,1.4402342E0,1.8191248E2,1.983758E1,6.5163414E1,1.7115034E1,3.92869E1,4.3912663E0,7.39583E1,1.6125074E1,7.546657E1,5.7447235E1,8.230189E1,1.8044896E2,1.4635184E0,1.860634E1,1.2312386E0,1.1186674E1,5.3976738E1,2.4122865E0,1.4702747E1,8.236295E0,3.1050606E1,2.5486255E0,1.8426411E0,1.3960549E0,7.256224E1,1.4364998E1,1.7600756E0,5.0014853E0,7.046508E1,2.373673E1,3.3710506E1,7.397093E1,8.3309555E0,1.5744798E2,2.300098E1,9.439505E0,1.74717E0,3.4348396E1,1.962834E1,3.0948837E0,1.1607863E1,5.992112E0,2.2441823E0,2.9307545E1,1.7430594E0,1.8403507E0,7.072189E1,1.3073676E1,1.2913225E0,1.7644935E0,3.236992E0,1.3513689E1,5.695139E1,1.7472473E1,6.2642565E0,2.3257449E0,3.138476E1,4.963311E1,2.4337818E1,5.8597198E0,2.4712358E0,1.25970545E1,1.4485092E2,3.4421344E0,1.9558846E1,1.3060343E1,2.1288055E1,9.983744E0,9.644596E0],"tree_param":{"num_deleted":"0","num_feature":"40","num_nodes":"81","size_leaf_vector":"0"}},{"base_weights":[1.754333E-2,2.0802101E-1,-7.0696585E-2,3.140601E-1,-3.8726848E-1,9.739547E-2,-2.1815693E-1,4.470859E-1,-1.049693E-1,-5.8164364E-1,7.813489E-3,-2.285378E-2,3.9434326E-1,-2.488305E-1,5.9224015E-1,-2.4432192E-2,5.782664E-1,-2.080745E-1,6.5145826E-1,-6.2222147E-1,2.9244527E-2,4.2737082E-1,-5.2523416E-1,5.421779E-2,-4.525013E-1,-2.3702054E-1,6.6046435E-1,-2.882015E-1,1.26368E-1,-3.5622418E-1,7.87499E-1,2.2530487E-1,-4.7464055E-1,3.8978465E-2,6.5503186E-1,-3.427724E-1,2.7448207E-1,8.781284E-1,-3.1995E-2,-4.320627E-1,7.9265845E-1,-5.301247E-1,1.0587172E-1,-6.3958645E-1,4.8879113E-2,7.2402996E-1,-4.0245175E-1,7.504901E-1,-3.2802936E-1,-3.7642356E-2,-3.617995E-1,-1.7476574E-1,8.895633E-1,7.285254E-1,-1.2805934E-1,-6.104789E-1,2.0898771E-1,-3.5640264E-1,6.91744E-1,7.0081806E-1,-1.6811487E-1,4.2400455E-1,-4.6833256E-1,8.1631404E-1,-3.6537758E-1,1.6240958E-2,-6.090482E-1,6.893251E-1,4.3098368E-2,-5.2019167E-1,6.586565E-1,3.8156977E-1,-5.406792E-1,-4.609568E-1,8.322345E-1,-1.262477E-2,-4.7230828E-1,-3.0734107E-1,2.1573596E-1,-3.8235018E-1,8.2939017E-1,7.0321923E-1,-4.80921E-1,9.924088E-1,3.0801603E-1],"categories":[],"categories_nodes":[],"categories_segments":[],"categories_sizes":[],"default_left":[1,1,1,1,1,1,1,1,1,1,1,1,1,1,1,1,1,1,1,0,0,1,0,1,1,1,1,1,1,0,0,1,1,1,1,1,1,0,0,0,0,1,1,0,1,0,1,1,1,1,1,1,1,0,0,0,0,0,0,0,0,0,0,0,0,0,0,0,0,0,0,0,0,0,0,0,0,0,0,0,0,0,0,0,0],"id":6,"left_children":[1,3,5,7,9,11,13,15,17,19,21,23,25,27,29,31,33,35,37,-1,-1,39,-1,41,43,45,47,49,51,-1,-1,53,55,57,59,61,63,-1,-1,-1,-1,65,67,-1,69,-1,71,73,75,77,79,81,83,-1,-1,-1,-1,-1,-1,-1,-1,-1,-1,-1,-1,-1,-1,-1,-1,-1,-1,-1,-1,-1,-1,-1,-1,-1,-1,-1,-1,-1,-1,-1,-1],"loss_changes":[1.0324446E1,1.2396027E1,1.0430348E1,9.2778225E0,2.2966971E0,7.0411E0,5.7157297E0,7.8007603E0,3.3108933E0,5.144329E-1,2.6463597E0,4.697428E0,9.702971E0,3.2351894E0,1.8482809E0,3.295501E0,4.053383E0,2.4722798E0,8.221936E-1,0E0,0E0,2.417955E0,0E0,3.694644E0,2.0546198E0,3.0869248E0,3.8266125E0,3.605978E0,5.041516E0,0E0,0E0,3.4574866E0,1.09711E0,3.689646E0,3.366108E0,2.9952557E0,3.2589054E0,0E0,0E0,0E0,0E0,4.3924403E-1,4.057287E0,0E0,2.6990435E0,0E0,1.9016831E0,4.065508E0,1.7853126E-1,3.187964E0,4.0283012E0,4.6606607E0,6.3905716E-2,0E0,0E0,0E0,0E0,0E0,0E0,0E0,0E0,0E0,0E0,0E0,0E0,0E0,0E0,0E0,0E0,0E0,0E0,0E0,0E0,0E0,0E0,0E0,0E0,0E0,0E0,0E0,0E0,0E0,0E0,0E0,0E0],"parents":[2147483647,0,0,1,1,2,2,3,3,4,4,5,5,6,6,7,7,8,8,9,9,10,10,11,11,12,12,13,13,14,14,15,15,16,16,17,17,18,18,21,21,23,23,24,24,25,25,26,26,27,27,28,28,31,31,32,32,33,33,34,34,35,35,36,36,41,41,42,42,44,44,46,46,47,47,48,48,49,49,50,50,51,51,52,52],"right_children":[2,4,6,8,10,12,14,16,18,20,22,24,26,28,30,32,34,36,38,-1,-1,40,-1,42,44,46,48,50,52,-1,-1,54,56,58,60,62,64,-1,-1,-1,-1,66,68,-1,70,-1,72,74,76,78,80,82,84,-1,-1,-1,-1,-1,-1,-1,-1,-1,-1,-1,-1,-1,-1,-1,-1,-1,-1,-1,-1,-1,-1,-1,-1,-1,-1,-1,-1,-1,-1,-1,-1],"split_conditions":[1.0034412E2,1.054365E1,-2.1201527E1,2.1607666E0,-2.13534E0,5.3394833E0,3.920208E0,2.8593737E1,2.9277382E0,2.0129532E1,-4.946642E0,2.0491338E0,-5.1309414E0,9.113546E0,-2.3501259E1,-1.1298227E1,-2.4476461E0,5.9949045E0,-8.042763E0,-1.8666644E-1,8.773359E-3,-2.3313897E0,-1.5757026E-1,-1.8295082E1,1.2730469E2,-4.5831177E2,2.5642464E-1,-4.185609E0,6.240036E1,-1.0686726E-1,2.3624972E-1,-1.309679E0,-6.452271E-1,-1.5821227E0,2.9500456E0,-6.5908704E0,8.927969E1,2.6343852E-1,-9.5985E-3,-1.2961881E-1,2.3779754E-1,-1.2071128E1,-5.443155E1,-1.9187595E-1,-3.04428E0,2.17209E-1,8.157278E0,-1.230401E1,2.0555546E1,-2.5759187E0,1.3693951E1,9.917378E0,8.338144E1,2.1855763E-1,-3.8417805E-2,-1.8314368E-1,6.2696315E-2,-1.0692079E-1,2.0752321E-1,2.1024543E-1,-5.0434463E-2,1.2720138E-1,-1.4049977E-1,2.4489422E-1,-1.0961328E-1,4.8722876E-3,-1.8271446E-1,2.0679754E-1,1.2929511E-2,-1.560575E-1,1.9759695E-1,1.1447094E-1,-1.6220377E-1,-1.3828705E-1,2.4967036E-1,-3.7874312E-3,-1.4169249E-1,-9.220232E-2,6.472079E-2,-1.14705056E-1,2.4881706E-1,2.1096578E-1,-1.442763E-1,2.9772267E-1,9.240481E-2],"split_indices":[1,12,2,26,29,8,9,3,39,7,8,35,18,14,4,4,37,12,11,0,0,38,0,13,1,0,20,16,3,0,0,37,29,34,13,12,1,0,0,0,0,8,2,0,30,0,5,9,5,33,12,14,3,0,0,0,0,0,0,0,0,0,0,0,0,0,0,0,0,0,0,0,0,0,0,0,0,0,0,0,0,0,0,0,0],"split_type":[0,0,0,0,0,0,0,0,0,0,0,0,0,0,0,0,0,0,0,0,0,0,0,0,0,0,0,0,0,0,0,0,0,0,0,0,0,0,0,0,0,0,0,0,0,0,0,0,0,0,0,0,0,0,0,0,0,0,0,0,0,0,0,0,0,0,0,0,0,0,0,0,0,0,0,0,0,0,0,0,0,0,0,0,0],"sum_hessian":[6.123926E2,1.9344917E2,4.1894342E2,1.6460115E2,2.8848026E1,1.9593451E2,2.230089E2,1.2488727E2,3.9713882E1,1.901881E1,9.829216E0,1.4011703E2,5.5817474E1,2.1554352E2,7.465379E0,2.7359486E1,9.752778E1,3.5587975E1,4.12591E0,1.781679E1,1.20202E0,5.6110535E0,4.2181625E0,1.1954625E2,2.0570787E1,1.6583351E1,3.9234123E1,1.9528354E2,2.025998E1,1.1337675E0,6.3316116E0,1.7919073E1,9.440413E0,1.234066E1,8.518712E1,2.804839E1,7.5395827E0,2.8844347E0,1.2414752E0,1.6190407E0,3.9920127E0,8.95691E0,1.1058934E2,1.478009E1,5.7906966E0,1.9394946E0,1.4643856E1,3.6179863E1,3.0542598E0,4.468117E1,1.5060237E2,1.5080628E1,5.179351E0,6.9541254E0,1.0964948E1,7.9647946E0,1.4756193E0,7.968275E0,4.3723855E0,8.083918E1,4.3479404E0,3.6122174E0,2.4436172E1,3.9331923E0,3.6063905E0,1.2307787E0,7.7261314E0,9.772905E0,1.0081644E2,3.0713215E0,2.7193751E0,1.9309762E0,1.271288E1,1.9937406E0,3.4186123E1,1.2999573E0,1.7543025E0,2.1540377E1,2.3140793E1,1.4871571E2,1.8866565E0,3.5637245E0,1.1516904E1,3.8007064E0,1.3786442E0],"tree_param":{"num_deleted":"0","num_feature":"40","num_nodes":"85","size_leaf_vector":"0"}},{"base_weights":[-4.882988E-2,-2.9664555E-1,1.6507885E-1,-4.4813216E-1,-1.4891012E-2,4.0427768E-1,5.37864E-2,-4.7506386E-1,4.7138447E-1,-1.486877E-1,3.5693958E-1,1.9383995E-1,6.1800796E-1,1.9424205E-1,-2.375514E-1,-3.4224457E-1,-5.7187E-1,-3.531733E-1,7.549552E-1,2.8022563E-1,-2.509981E-1,4.9459547E-1,-3.8710448E-1,4.329771E-1,-1.1369268E-1,6.905288E-1,-1.0732577E-1,3.8476014E-1,-2.294398E-2,-3.014964E-1,4.1346836E-1,-6.322088E-1,-2.435944E-1,-1.3686082E-1,-5.888449E-1,-3.6391655E-1,5.8284503E-1,4.1452894E-1,-3.165639E-1,7.370707E-1,-4.971177E-2,-5.478028E-1,6.501571E-2,-1.04977615E-1,6.126769E-1,3.8065258E-1,-3.6981055E-1,-1.4309481E-1,7.546872E-1,-5.1764154E-1,4.1730314E-1,4.7452274E-1,-2.9470587E-1,-1.5821324E-1,5.1425594E-1,2.850849E-1,-3.7244216E-1,-1.8722497E-1,7.712767E-1,-4.4778055E-1,-1.5424619E-2,5.4965127E-1,-4.862072E-1,-6.0668516E-1,-3.4346744E-1,-5.1431775E-1,9.4559625E-2,7.3957986E-1,-3.5983786E-1,9.706853E-1,-4.5007002E-1,-3.9832717E-1,4.6948117E-1,8.449548E-1,-3.529686E-1,-3.2563898E-1,6.882037E-1,-5.760614E-1,3.8232505E-1,-4.1620534E-2,7.4424076E-1,8.454947E-1,-2.0254806E-1,-5.156458E-1,6.563963E-1,3.4364817E-1,-5.021037E-1,8.006301E-1,-4.1489652E-1,5.3405035E-1,-4.119546E-1,-5.113491E-1,4.160426E-1,-3.6813718E-1,4.0054105E-2,-1.7795852E-1,7.400236E-1,-3.1262115E-1,7.219372E-1,-4.3228316E-1,4.8632917E-1,1.0310257E-1,-3.8373086E-1],"categories":[],"categories_nodes":[],"categories_segments":[],"categories_sizes":[],"default_left":[1,1,1,1,1,1,1,1,1,1,1,1,1,1,1,1,1,0,0,1,1,1,1,1,1,1,1,1,1,1,1,0,1,1,1,1,1,1,1,1,1,0,0,1,1,1,1,1,1,0,0,1,1,1,1,1,1,1,0,0,0,0,0,0,0,0,0,0,0,0,0,0,0,0,0,0,0,0,0,0,0,0,0,0,0,0,0,0,0,0,0,0,0,0,0,0,0,0,0,0,0,0,0],"id":7,"left_children":[1,3,5,7,9,11,13,15,17,19,21,23,25,27,29,31,33,-1,-1,35,37,39,41,43,45,47,49,51,53,55,57,-1,59,61,63,65,67,69,71,73,75,-1,-1,77,79,81,83,85,87,-1,-1,89,91,93,95,97,99,101,-1,-1,-1,-1,-1,-1,-1,-1,-1,-1,-1,-1,-1,-1,-1,-1,-1,-1,-1,-1,-1,-1,-1,-1,-1,-1,-1,-1,-1,-1,-1,-1,-1,-1,-1,-1,-1,-1,-1,-1,-1,-1,-1,-1,-1],"loss_changes":[3.1573624E1,1.1767948E1,8.492322E0,4.665985E0,4.9033794E0,4.4409275E0,9.02496E0,2.0513992E0,1.5774578E0,3.2474875E0,2.8639083E0,3.9139762E0,2.6963196E0,6.1575212E0,3.1146894E0,2.0248337E0,6.548691E-1,0E0,0E0,3.022334E0,2.7050865E0,3.0006504E0,3.7234712E-1,2.9422932E0,3.1516004E0,2.5390282E0,1.3777047E0,4.9712496E0,5.195866E0,2.8519368E0,1.6157407E0,0E0,2.7167275E0,1.4767938E0,2.099266E-1,4.088351E-1,1.7721443E0,3.1887426E0,3.674417E0,2.1327515E0,1.8240821E0,0E0,0E0,2.1275105E0,1.9646044E0,2.5049818E0,2.7586849E0,8.8705695E-1,2.6086063E0,0E0,0E0,3.932619E0,1.7310783E0,2.386732E0,2.3810353E0,2.2324362E0,3.257329E0,2.3126182E-1,0E0,0E0,0E0,0E0,0E0,0E0,0E0,0E0,0E0,0E0,0E0,0E0,0E0,0E0,0E0,0E0,0E0,0E0,0E0,0E0,0E0,0E0,0E0,0E0,0E0,0E0,0E0,0E0,0E0,0E0,0E0,0E0,0E0,0E0,0E0,0E0,0E0,0E0,0E0,0E0,0E0,0E0,0E0,0E0,0E0],"parents":[2147483647,0,0,1,1,2,2,3,3,4,4,5,5,6,6,7,7,8,8,9,9,10,10,11,11,12,12,13,13,14,14,15,15,16,16,19,19,20,20,21,21,22,22,23,23,24,24,25,25,26,26,27,27,28,28,29,29,30,30,32,32,33,33,34,34,35,35,36,36,37,37,38,38,39,39,40,40,43,43,44,44,45,45,46,46,47,47,48,48,51,51,52,52,53,53,54,54,55,55,56,56,57,57],"right_children":[2,4,6,8,10,12,14,16,18,20,22,24,26,28,30,32,34,-1,-1,36,38,40,42,44,46,48,50,52,54,56,58,-1,60,62,64,66,68,70,72,74,76,-1,-1,78,80,82,84,86,88,-1,-1,90,92,94,96,98,100,102,-1,-1,-1,-1,-1,-1,-1,-1,-1,-1,-1,-1,-1,-1,-1,-1,-1,-1,-1,-1,-1,-1,-1,-1,-1,-1,-1,-1,-1,-1,-1,-1,-1,-1,-1,-1,-1,-1,-1,-1,-1,-1,-1,-1,-1],"split_conditions":[3.881067E1,-9.591318E0,-4.779647E0,9.377382E0,3.8544685E-1,1.0388596E0,6.1475916E0,-4.6310002E-1,-6.7760445E1,-8.418282E0,5.3718557E0,-1.0313671E0,7.751295E0,-5.5193126E-1,1.5802292E2,1.18401375E1,-8.005518E0,-1.0595199E-1,2.2648656E-1,-2.6969514E0,-1.0295801E1,-3.2853104E-2,-2.6277285E0,-7.6503067E0,-1.0117464E1,-6.679311E0,-6.454814E0,-1.0541402E-2,-2.7061987E2,-4.3314695E0,-5.6858983E0,-1.8966265E-1,-1.3047736E0,6.012683E0,-1.2552053E1,2.1389413E0,-5.1114674E0,1.1172398E2,1.1431998E0,4.6158457E-1,2.586117E0,-1.6434085E-1,1.9504715E-2,-4.18684E0,-3.8154642E2,-1.0189914E1,7.18307E0,-6.750183E0,3.0098333E0,-1.5529247E-1,1.2519094E-1,1.4573036E2,-8.174124E-1,1.0356658E2,-4.964411E0,-2.627596E0,-1.9202167E0,-3.955331E1,2.3138303E-1,-1.3433418E-1,-4.627386E-3,1.6489539E-1,-1.4586216E-1,-1.8200555E-1,-1.0304024E-1,-1.5429533E-1,2.8367888E-2,2.2187397E-1,-1.07951365E-1,2.912056E-1,-1.3502102E-1,-1.19498156E-1,1.4084436E-1,2.5348645E-1,-1.0589059E-1,-9.76917E-2,2.0646112E-1,-1.7281844E-1,1.1469752E-1,-1.2486161E-2,2.2327223E-1,2.5364843E-1,-6.076442E-2,-1.5469375E-1,1.969189E-1,1.0309445E-1,-1.5063111E-1,2.4018903E-1,-1.2446896E-1,1.6021511E-1,-1.2358639E-1,-1.5340473E-1,1.2481278E-1,-1.10441156E-1,1.2016232E-2,-5.3387556E-2,2.220071E-1,-9.378635E-2,2.1658117E-1,-1.2968495E-1,1.4589876E-1,3.0930772E-2,-1.1511926E-1],"split_indices":[3,4,17,13,26,39,7,8,2,20,21,34,32,37,1,3,27,0,0,30,5,35,20,22,20,27,17,34,0,16,22,0,33,8,4,8,2,1,27,11,27,0,0,27,0,13,27,17,24,0,0,1,22,1,18,36,13,2,0,0,0,0,0,0,0,0,0,0,0,0,0,0,0,0,0,0,0,0,0,0,0,0,0,0,0,0,0,0,0,0,0,0,0,0,0,0,0,0,0,0,0,0,0],"split_type":[0,0,0,0,0,0,0,0,0,0,0,0,0,0,0,0,0,0,0,0,0,0,0,0,0,0,0,0,0,0,0,0,0,0,0,0,0,0,0,0,0,0,0,0,0,0,0,0,0,0,0,0,0,0,0,0,0,0,0,0,0,0,0,0,0,0,0,0,0,0,0,0,0,0,0,0,0,0,0,0,0,0,0,0,0,0,0,0,0,0,0,0,0,0,0,0,0,0,0,0,0,0,0],"sum_hessian":[5.9369324E2,2.7486835E2,3.188249E2,1.7837418E2,9.649418E1,1.0040141E2,2.184235E2,1.7376805E2,4.606131E0,7.140167E1,2.5092512E1,5.1551258E1,4.8850155E1,1.4759862E2,7.0824875E1,7.5169685E1,9.859836E1,1.1159006E0,3.4902306E0,1.3416603E1,5.7985065E1,2.1457848E1,3.634664E0,2.8771023E1,2.2780233E1,4.4453552E1,4.3966007E0,7.82155E1,6.938311E1,6.497931E1,5.845564E0,1.7708927E1,5.746076E1,4.043351E0,9.455501E1,4.2236896E0,9.192913E0,4.7228947E0,5.3262173E1,1.4599841E1,6.8580065E0,2.525417E0,1.109247E0,7.3083496E0,2.1462673E1,7.6084886E0,1.5171745E1,3.0888705E0,4.1364685E1,2.4745543E0,1.9220465E0,6.935483E1,8.860676E0,5.599006E1,1.3393055E1,6.6854544E0,5.8293854E1,2.360116E0,3.4854481E0,2.9816168E1,2.7644588E1,1.1702614E0,2.8730898E0,8.677364E1,7.7813635E0,3.088667E0,1.1350228E0,8.067093E0,1.1258202E0,2.799443E0,1.9234517E0,4.8690685E1,4.5714836E0,1.3489581E1,1.1102604E0,5.39818E0,1.4598262E0,3.6234019E0,3.6849475E0,3.7075937E0,1.775508E1,3.9835987E0,3.62489E0,1.3719567E1,1.452178E0,1.3293412E0,1.7595294E0,4.0104767E1,1.2599157E0,6.53632E1,3.9916272E0,7.0057898E0,1.8548859E0,2.6779432E1,2.9210627E1,3.3459563E0,1.0047098E1,2.9430795E0,3.7423751E0,5.49607E1,3.333153E0,1.1444981E0,1.2156179E0],"tree_param":{"num_deleted":"0","num_feature":"40","num_nodes":"103","size_leaf_vector":"0"}},{"base_weights":[3.0037768E-2,2.616766E-1,-3.1030816E-1,1.7981997E-1,5.547363E-1,-3.9850306E-2,-4.3449533E-1,9.5664084E-2,6.078553E-1,6.814303E-1,-1.0644376E-1,-4.0573686E-1,1.15512975E-1,4.6133733E-1,-4.5750713E-1,4.3478843E-2,8.550401E-1,-2.2546908E-2,7.20918E-1,-1.1509799E-1,7.4932724E-1,-4.7200805E-1,5.2224654E-1,-1.3484247E-2,-6.1784E-1,-4.0969053E-1,2.8050178E-1,-3.3795193E-1,7.8665054E-1,-5.041347E-1,-1.4394723E-1,-1.7546763E-1,1.7579377E-1,9.2361677E-1,1.9322684E-1,-5.554168E-1,5.339033E-1,1.7494439E-1,8.324868E-1,5.401334E-1,-4.4389245E-1,-3.5051003E-1,7.750168E-1,3.4920073E-1,-6.548593E-1,8.068419E-1,-1.5068462E-1,5.822396E-1,-5.5044436E-1,-5.9596074E-1,4.007062E-1,3.5502926E-2,5.8913153E-1,3.9725E-1,-5.149641E-1,-4.59E-1,2.4270621E-1,-3.367265E-1,3.2926968E-1,-1.773419E-1,3.027794E-1,1.7265768E-1,6.5233594E-1,-5.0959563E-1,5.116862E-1,8.625766E-1,1.1554305E-2,-5.747685E-1,-5.6875445E-2,6.681211E-2,8.09144E-1,8.9319974E-1,-5.2552197E-2,-1.521933E-1,5.868035E-1,7.539858E-1,-4.5822418E-1,3.519929E-1,-5.2583736E-1,2.609046E-1,-6.031652E-1,-5.267865E-1,5.872276E-1],"categories":[],"categories_nodes":[],"categories_segments":[],"categories_sizes":[],"default_left":[1,1,1,1,1,1,1,1,1,1,1,1,1,1,1,1,1,1,1,1,1,1,1,1,0,1,1,0,0,1,1,1,1,0,0,0,1,1,1,0,1,0,1,0,0,0,0,1,0,0,0,1,1,0,1,1,1,0,0,0,0,0,0,0,0,0,0,0,0,0,0,0,0,0,0,0,0,0,0,0,0,0,0],"id":8,"left_children":[1,3,5,7,9,11,13,15,17,19,21,23,25,27,29,31,33,35,37,39,41,43,45,47,-1,49,51,-1,-1,53,55,57,59,-1,-1,-1,61,63,65,-1,67,-1,69,-1,-1,-1,-1,71,-1,-1,-1,73,75,-1,77,79,81,-1,-1,-1,-1,-1,-1,-1,-1,-1,-1,-1,-1,-1,-1,-1,-1,-1,-1,-1,-1,-1,-1,-1,-1,-1,-1],"loss_changes":[4.805337E1,8.598932E0,8.27482E0,1.0205243E1,6.664274E0,4.525715E0,3.6968517E0,9.445655E0,3.339634E0,3.6649532E0,3.3534794E0,1.9639363E0,4.9747796E0,1.4964454E0,2.3450775E0,6.547949E0,5.174494E-1,2.6866271E0,2.264532E0,1.5462515E0,1.9982071E0,1.5911455E0,1.1644197E0,3.3088107E0,0E0,2.3239524E0,3.2509835E0,0E0,0E0,1.6058578E0,2.8895493E0,7.0488453E0,6.3640814E0,0E0,0E0,0E0,7.787979E-2,2.1001582E0,7.9499626E-1,0E0,1.9964623E-1,0E0,1.3966751E0,0E0,0E0,0E0,0E0,1.0170639E0,0E0,0E0,0E0,2.695516E0,3.6406898E0,0E0,1.5263596E0,1.497489E0,3.1973107E0,0E0,0E0,0E0,0E0,0E0,0E0,0E0,0E0,0E0,0E0,0E0,0E0,0E0,0E0,0E0,0E0,0E0,0E0,0E0,0E0,0E0,0E0,0E0,0E0,0E0,0E0],"parents":[2147483647,0,0,1,1,2,2,3,3,4,4,5,5,6,6,7,7,8,8,9,9,10,10,11,11,12,12,13,13,14,14,15,15,16,16,17,17,18,18,19,19,20,20,21,21,22,22,23,23,25,25,26,26,29,29,30,30,31,31,32,32,36,36,37,37,38,38,40,40,42,42,47,47,51,51,52,52,54,54,55,55,56,56],"right_children":[2,4,6,8,10,12,14,16,18,20,22,24,26,28,30,32,34,36,38,40,42,44,46,48,-1,50,52,-1,-1,54,56,58,60,-1,-1,-1,62,64,66,-1,68,-1,70,-1,-1,-1,-1,72,-1,-1,-1,74,76,-1,78,80,82,-1,-1,-1,-1,-1,-1,-1,-1,-1,-1,-1,-1,-1,-1,-1,-1,-1,-1,-1,-1,-1,-1,-1,-1,-1,-1],"split_conditions":[4.149453E1,-1.4965539E0,-5.6411066E0,6.0979066E0,3.5067314E1,-2.0514366E1,-6.163821E0,4.8830986E0,7.3980036E0,-1.0920281E1,2.281393E0,-5.842576E0,8.292236E0,1.038822E2,1.2277767E1,-3.3275082E0,-3.1196338E2,1.10597244E2,-1.3509918E1,-3.0601218E0,-6.649837E0,-4.320506E2,-4.083323E0,-1.535683E0,-1.85352E-1,1.7251608E0,-3.4298308E0,-1.01385586E-1,2.3599517E-1,-8.397045E1,-5.829624E0,-1.2145814E0,2.3816977E0,2.7708504E-1,5.7968054E-2,-1.6662505E-1,2.6166668E1,5.919613E0,-1.8551529E1,1.6204002E-1,-5.2584535E-1,-1.0515302E-1,7.599048E1,1.0476022E-1,-1.964578E-1,2.4205258E-1,-4.520539E-2,-2.418312E0,-1.6513331E-1,-1.7878823E-1,1.2021186E-1,3.1569923E1,-8.4028774E-1,1.19175E-1,-2.5383244E1,4.6719044E1,-4.3301606E-1,-1.0101795E-1,9.878091E-2,-5.320257E-2,9.083383E-2,5.1797308E-2,1.957008E-1,-1.528787E-1,1.5350586E-1,2.58773E-1,3.4662918E-3,-1.7243055E-1,-1.7062634E-2,2.0043634E-2,2.4274321E-1,2.6795992E-1,-1.576566E-2,-4.565799E-2,1.7604105E-1,2.2619575E-1,-1.3746727E-1,1.05597876E-1,-1.5775122E-1,7.827139E-2,-1.8094957E-1,-1.5803596E-1,1.7616828E-1],"split_indices":[3,2,31,23,3,6,30,35,5,15,7,33,5,1,7,16,0,1,11,19,14,0,11,9,0,30,27,0,0,2,22,15,5,0,0,0,3,8,4,0,17,0,1,0,0,0,0,27,0,0,0,5,33,0,8,3,23,0,0,0,0,0,0,0,0,0,0,0,0,0,0,0,0,0,0,0,0,0,0,0,0,0,0],"split_type":[0,0,0,0,0,0,0,0,0,0,0,0,0,0,0,0,0,0,0,0,0,0,0,0,0,0,0,0,0,0,0,0,0,0,0,0,0,0,0,0,0,0,0,0,0,0,0,0,0,0,0,0,0,0,0,0,0,0,0,0,0,0,0,0,0,0,0,0,0,0,0,0,0,0,0,0,0,0,0,0,0,0,0],"sum_hessian":[6.074956E2,3.6161337E2,2.4588226E2,2.8392252E2,7.769085E1,7.7790054E1,1.6809221E2,2.3829492E2,4.5627594E1,6.517208E1,1.2518771E1,2.2705706E1,5.5084354E1,3.7327077E0,1.643595E2,2.2396129E2,1.4333635E1,7.0605826E0,3.856701E1,5.0643888E0,6.0107693E1,8.073498E0,4.445273E0,8.342005E0,1.43637E1,1.2813241E1,4.227111E1,1.0685202E0,2.6641874E0,1.4255345E2,2.180605E1,8.424002E1,1.3972127E2,1.2629399E1,1.7042365E0,3.6076593E0,3.452923E0,6.979607E0,3.1587402E1,1.4774041E0,3.5869844E0,1.0833316E0,5.902436E1,1.3046033E0,6.7688947E0,2.9842014E0,1.4610715E0,3.9146352E0,4.4273696E0,1.0633687E1,2.179554E0,2.418635E1,1.8084763E1,1.2687181E0,1.4128473E2,1.1912446E1,9.893603E0,6.40951E1,2.0144918E1,3.6849518E1,1.0287174E2,1.4593722E0,1.9935509E0,2.1320968E0,4.8475103E0,3.0421627E1,1.1657765E0,2.317993E0,1.2689915E0,2.8495033E0,5.617486E1,2.3542857E0,1.5603495E0,1.8583376E1,5.6029735E0,1.5867341E1,2.2174218E0,1.361434E0,1.399233E2,1.8524207E0,1.0060025E1,2.896097E0,6.997506E0],"tree_param":{"num_deleted":"0","num_feature":"40","num_nodes":"83","size_leaf_vector":"0"}},{"base_weights":[1.8093323E-2,1.405208E-1,-8.930927E-2,-1.9269554E-1,2.280203E-1,2.7807677E-1,-1.4819814E-1,-4.4928056E-1,6.885859E-2,2.7676412E-1,-4.8273855E-1,-1.0683139E-1,5.5348194E-1,-2.3680073E-1,-1.3406634E-2,1.0292917E-2,-6.017586E-1,4.5097172E-1,-1.7808145E-1,4.5481452E-1,1.2876603E-1,-5.75189E-1,-7.776439E-2,3.6185944E-1,-3.1831184E-1,-2.0799348E-1,6.318675E-1,-3.2606038E-1,1.19044006E-1,5.108016E-1,-1.15301654E-1,-3.9462063E-1,5.32788E-1,1.6358756E-2,-6.400824E-1,6.119693E-1,-3.9814985E-1,2.200413E-1,-6.068418E-1,5.54933E-1,-2.0634675E-2,1.2705392E-2,6.3244545E-1,-3.8476208E-1,3.085952E-1,-3.8417065E-1,6.545932E-1,-4.693909E-1,5.554844E-1,1.9533558E-2,-3.3595765E-1,7.318921E-1,1.7146671E-2,-3.60714E-2,-4.1678107E-1,2.643757E-1,-4.5863163E-1,-3.3619E-1,7.675302E-1,2.2397363E-1,-2.665571E-1,-4.9965262E-1,1.9641465E-2,-2.594052E-2,7.5974715E-1,8.4373784E-1,1.8817516E-1,-4.5795825E-1,3.6405417E-1,7.272561E-1,3.0018708E-1,-2.3707153E-1,7.5541157E-1,-5.4946806E-2,6.706926E-1,-2.3416786E-1,7.6052135E-1,3.6053866E-2,8.1664723E-1,-6.065527E-1,1.3036859E-1,7.709016E-1,6.5676816E-2,5.2112466E-1,-4.2817757E-1,8.524257E-1,-1.1765614E-1,-4.783979E-1,9.2526436E-2,-3.9298517E-1,4.1633043E-1,1.1913828E-1,-5.816449E-1,9.9539995E-2,-4.9716565E-1,9.989747E-1,1.6399623E-1,-4.878644E-1,4.6114615E-1,-3.3574137E-1,4.8764563E-1],"categories":[],"categories_nodes":[],"categories_segments":[],"categories_sizes":[],"default_left":[1,1,1,1,1,1,1,1,1,1,1,1,1,1,1,1,1,1,1,1,1,0,1,1,1,1,1,1,1,1,1,1,1,0,0,1,0,1,0,1,1,1,1,0,0,0,1,1,0,0,0,1,1,1,1,1,1,1,1,1,1,0,0,0,0,0,0,0,0,0,0,0,0,0,0,0,0,0,0,0,0,0,0,0,0,0,0,0,0,0,0,0,0,0,0,0,0,0,0,0,0],"id":9,"left_children":[1,3,5,7,9,11,13,15,17,19,21,23,25,27,29,31,33,35,37,39,41,-1,43,45,47,49,51,53,55,57,59,61,63,-1,-1,65,-1,67,-1,69,71,73,75,-1,-1,-1,77,79,-1,-1,-1,81,83,85,87,89,91,93,95,97,99,-1,-1,-1,-1,-1,-1,-1,-1,-1,-1,-1,-1,-1,-1,-1,-1,-1,-1,-1,-1,-1,-1,-1,-1,-1,-1,-1,-1,-1,-1,-1,-1,-1,-1,-1,-1,-1,-1,-1,-1],"loss_changes":[7.6990733E0,8.020092E0,6.791403E0,3.88562E0,7.6560316E0,4.665107E0,3.2160726E0,2.0472708E0,2.8460155E0,5.3125525E0,4.906404E-1,1.9945357E0,1.6528726E0,5.202882E0,5.8260536E0,1.9534422E0,5.2895784E-1,1.8553097E0,3.2951016E0,4.396759E0,6.5802774E0,0E0,5.71119E-1,1.6411347E0,2.0557523E0,9.7732514E-2,1.4236908E0,3.411501E0,2.9199965E0,4.1189775E0,4.7405863E0,2.3679072E-1,5.2985096E-1,0E0,0E0,8.533406E-1,0E0,1.1760981E0,0E0,3.1239796E0,3.0326777E0,4.15964E0,2.5184412E0,0E0,0E0,0E0,4.6571255E-1,1.0773427E0,0E0,0E0,0E0,4.7084618E-1,1.1865966E0,2.4294534E0,3.154686E0,2.887569E0,5.715443E-1,3.879543E-1,1.7820244E0,5.065204E0,3.4794436E0,0E0,0E0,0E0,0E0,0E0,0E0,0E0,0E0,0E0,0E0,0E0,0E0,0E0,0E0,0E0,0E0,0E0,0E0,0E0,0E0,0E0,0E0,0E0,0E0,0E0,0E0,0E0,0E0,0E0,0E0,0E0,0E0,0E0,0E0,0E0,0E0,0E0,0E0,0E0,0E0],"parents":[2147483647,0,0,1,1,2,2,3,3,4,4,5,5,6,6,7,7,8,8,9,9,10,10,11,11,12,12,13,13,14,14,15,15,16,16,17,17,18,18,19,19,20,20,22,22,23,23,24,24,25,25,26,26,27,27,28,28,29,29,30,30,31,31,32,32,35,35,37,37,39,39,40,40,41,41,42,42,46,46,47,47,51,51,52,52,53,53,54,54,55,55,56,56,57,57,58,58,59,59,60,60],"right_children":[2,4,6,8,10,12,14,16,18,20,22,24,26,28,30,32,34,36,38,40,42,-1,44,46,48,50,52,54,56,58,60,62,64,-1,-1,66,-1,68,-1,70,72,74,76,-1,-1,-1,78,80,-1,-1,-1,82,84,86,88,90,92,94,96,98,100,-1,-1,-1,-1,-1,-1,-1,-1,-1,-1,-1,-1,-1,-1,-1,-1,-1,-1,-1,-1,-1,-1,-1,-1,-1,-1,-1,-1,-1,-1,-1,-1,-1,-1,-1,-1,-1,-1,-1,-1],"split_conditions":[-1.2951061E1,-1.54027815E1,-4.2307525E0,-9.0503764E-1,1.6298393E1,-4.3518448E-1,6.544233E-1,-6.1503973E0,-6.8544645E0,1.0206345E2,2.161272E0,-1.7586067E1,-1.0601104E1,6.5237656E1,-3.2966306E0,5.0479668E1,-1.1600904E1,2.319514E0,-4.18126E1,2.403535E0,-3.6887544E-1,-1.725567E-1,-9.686035E0,-4.4536057E0,2.0648888E1,8.98228E0,3.3919122E-2,-4.8129396E0,6.458371E0,-5.6926575E0,-7.782899E0,1.7855934E1,-7.740563E0,4.9076267E-3,-1.9202474E-1,2.473001E0,-1.1944496E-1,-2.5287042E0,-1.8205255E-1,-6.2623963E0,-2.146182E2,1.4930646E2,-3.3587132E0,-1.1542863E-1,9.257857E-2,-1.152512E-1,1.9951047E-1,3.177226E0,1.6664533E-1,5.8600674E-3,-1.007873E-1,2.9456449E0,9.21463E1,-3.86903E1,2.7680044E0,-3.271832E0,-1.395047E1,-8.612376E0,-1.024004E1,1.732544E0,3.8387666E0,-1.4989579E-1,5.8924397E-3,-7.7821566E-3,2.2792415E-1,2.5312138E-1,5.645255E-2,-1.3738748E-1,1.0921626E-1,2.1817684E-1,9.005613E-2,-7.112146E-2,2.2662348E-1,-1.6484043E-2,2.012078E-1,-7.025036E-2,2.2815642E-1,1.0816161E-2,2.4499418E-1,-1.8196583E-1,3.911058E-2,2.3127049E-1,1.9703045E-2,1.5633741E-1,-1.2845327E-1,2.557277E-1,-3.5296842E-2,-1.4351937E-1,2.7757932E-2,-1.1789555E-1,1.24899134E-1,3.5741486E-2,-1.7449348E-1,2.9862E-2,-1.491497E-1,2.9969242E-1,4.9198873E-2,-1.4635932E-1,1.3834386E-1,-1.0072242E-1,1.462937E-1],"split_indices":[6,13,25,18,12,8,10,16,22,1,34,4,20,3,23,3,22,32,4,26,9,0,15,30,4,7,20,16,12,9,11,21,16,0,0,10,0,38,0,13,0,1,21,0,0,0,10,16,0,0,0,23,1,4,33,37,10,13,4,12,4,0,0,0,0,0,0,0,0,0,0,0,0,0,0,0,0,0,0,0,0,0,0,0,0,0,0,0,0,0,0,0,0,0,0,0,0,0,0,0,0],"split_type":[0,0,0,0,0,0,0,0,0,0,0,0,0,0,0,0,0,0,0,0,0,0,0,0,0,0,0,0,0,0,0,0,0,0,0,0,0,0,0,0,0,0,0,0,0,0,0,0,0,0,0,0,0,0,0,0,0,0,0,0,0,0,0,0,0,0,0,0,0,0,0,0,0,0,0,0,0,0,0,0,0,0,0,0,0,0,0,0,0,0,0,0,0,0,0,0,0,0,0,0,0],"sum_hessian":[5.8356976E2,2.7256567E2,3.110041E2,5.643754E1,2.1612814E2,4.2450287E1,2.6855377E2,2.8127089E1,2.8310452E1,2.0282875E2,1.3299384E1,1.7960567E1,2.4489721E1,1.6158333E2,1.0697046E2,7.239503E0,2.0887585E1,1.0789155E1,1.7521296E1,9.112587E1,1.1170289E2,1.0485393E1,2.813992E0,5.363252E0,1.2597315E1,2.1313448E0,2.2358376E1,1.292469E2,3.233643E1,1.6755783E1,9.0214676E1,4.216565E0,3.0229373E0,1.2529037E0,1.9634682E1,9.304305E0,1.4848502E0,9.337664E0,8.183632E0,7.5136665E1,1.5989202E1,9.161717E1,2.0085716E1,1.5703453E0,1.2436466E0,1.423392E0,3.93986E0,1.1134908E1,1.4624071E0,1.0722244E0,1.0591204E0,1.9065514E1,3.2928631E0,3.1131752E1,9.811514E1,2.6269815E1,6.066616E0,3.8254511E0,1.2930332E1,2.7669504E1,6.2545174E1,3.1992905E0,1.0172749E0,1.129077E0,1.8938603E0,5.374263E0,3.930042E0,1.2539937E0,8.08367E0,4.3712486E1,3.1424181E1,1.3045395E1,2.943806E0,8.390665E1,7.7105274E0,2.4795728E0,1.7606144E1,1.0717208E0,2.8681393E0,9.053169E0,2.0817382E0,1.7862461E1,1.2030523E0,1.4648564E0,1.8280067E0,1.8235935E0,2.9308159E1,8.758024E1,1.0534904E1,4.6345243E0,2.163529E1,1.0704441E0,4.996172E0,1.1349654E0,2.6904857E0,8.872629E0,4.057703E0,6.6508784E0,2.1018627E1,5.7798096E1,4.7470756E0],"tree_param":{"num_deleted":"0","num_feature":"40","num_nodes":"101","size_leaf_vector":"0"}},{"base_weights":[-4.160669E-2,-2.5673202E-1,1.3204865E-1,-4.0498918E-1,2.2506241E-3,3.709818E-1,4.5147978E-2,-4.2991427E-1,3.9777118E-1,-1.14994414E-1,3.1750143E-1,-4.8958263E-1,4.156235E-1,2.6587582E-1,-3.7242733E-2,-2.9806235E-1,-5.3319025E-1,-1.02640264E-1,6.127525E-1,3.4942754E-2,-3.7308758E-1,4.6815613E-1,-2.3101845E-1,-6.6454075E-3,-6.5955716E-1,-9.8846026E-2,4.8052764E-1,4.3599954E-1,-2.357237E-1,-3.3893758E-1,4.722092E-2,-5.9664243E-1,-2.0206438E-1,-3.160188E-1,-5.8402216E-1,5.4676336E-1,-9.492007E-2,4.5915884E-1,-4.9383432E-1,5.685348E-1,-4.0296936E-1,4.81467E-1,-5.511064E-1,-5.5192035E-1,4.3451184E-1,5.2545696E-1,-3.86238E-1,4.8207974E-1,-5.4297525E-1,-4.3481025E-1,3.8984233E-1,-5.323219E-1,3.2671955E-1,9.3846045E-2,-6.1357206E-1,-3.4049046E-1,8.7774806E-2,-5.588851E-1,1.20909944E-1,-2.9977688E-1,-5.9760505E-1,-3.9470884E-1,7.4122083E-1,3.8065606E-1,-3.039624E-1,7.159914E-1,-2.5202848E-2,-5.74036E-1,5.1502454E-1,7.52652E-1,9.093603E-2,-6.3783936E-2,6.0530365E-1,-2.3485926E-1,5.860659E-1,-5.196012E-1,-3.8846076E-2,2.4840578E-1,7.222861E-1,3.7914264E-1,-5.6285083E-1,7.566228E-1,-3.6777815E-1,1.2416623E-2,-6.0873896E-1,7.664873E-1,-2.2488382E-1,-9.33986E-2,2.2721505E-1],"categories":[],"categories_nodes":[],"categories_segments":[],"categories_sizes":[],"default_left":[1,1,1,1,1,1,1,1,1,1,1,1,1,1,1,1,1,0,0,1,1,1,1,0,0,1,1,1,1,1,1,0,1,1,1,1,1,1,1,1,0,0,0,0,1,1,1,1,0,1,1,1,1,1,0,0,0,0,0,0,0,0,0,0,0,0,0,0,0,0,0,0,0,0,0,0,0,0,0,0,0,0,0,0,0,0,0,0,0],"id":10,"left_children":[1,3,5,7,9,11,13,15,17,19,21,23,25,27,29,31,33,-1,-1,35,37,39,41,-1,-1,43,45,47,49,51,53,-1,55,57,59,61,63,65,67,69,-1,-1,-1,-1,71,73,75,77,-1,79,81,83,85,87,-1,-1,-1,-1,-1,-1,-1,-1,-1,-1,-1,-1,-1,-1,-1,-1,-1,-1,-1,-1,-1,-1,-1,-1,-1,-1,-1,-1,-1,-1,-1,-1,-1,-1,-1],"loss_changes":[2.0916302E1,9.600683E0,6.419211E0,3.3525143E0,3.437537E0,3.3740435E0,4.1642165E0,1.947607E0,6.3389295E-1,2.6369352E0,2.1914513E0,3.6740947E-1,2.6854315E0,5.411745E0,4.27719E0,1.8920393E0,7.590866E-1,0E0,0E0,2.9633493E0,2.7391875E0,1.9874344E0,1.656894E0,0E0,0E0,2.578859E0,2.941492E0,2.3733454E0,2.2127008E0,4.8980107E0,4.109758E0,0E0,2.2223086E0,2.0192795E0,8.373642E-2,1.9425895E0,3.6738408E0,4.765784E-1,2.1012506E0,1.5535531E0,0E0,0E0,0E0,0E0,4.6458697E-1,3.2380123E0,1.6707242E-1,2.3595533E0,0E0,1.5596788E0,1.5253699E0,1.2071447E0,2.3267167E0,3.110889E0,0E0,0E0,0E0,0E0,0E0,0E0,0E0,0E0,0E0,0E0,0E0,0E0,0E0,0E0,0E0,0E0,0E0,0E0,0E0,0E0,0E0,0E0,0E0,0E0,0E0,0E0,0E0,0E0,0E0,0E0,0E0,0E0,0E0,0E0,0E0],"parents":[2147483647,0,0,1,1,2,2,3,3,4,4,5,5,6,6,7,7,8,8,9,9,10,10,11,11,12,12,13,13,14,14,15,15,16,16,19,19,20,20,21,21,22,22,25,25,26,26,27,27,28,28,29,29,30,30,32,32,33,33,34,34,35,35,36,36,37,37,38,38,39,39,44,44,45,45,46,46,47,47,49,49,50,50,51,51,52,52,53,53],"right_children":[2,4,6,8,10,12,14,16,18,20,22,24,26,28,30,32,34,-1,-1,36,38,40,42,-1,-1,44,46,48,50,52,54,-1,56,58,60,62,64,66,68,70,-1,-1,-1,-1,72,74,76,78,-1,80,82,84,86,88,-1,-1,-1,-1,-1,-1,-1,-1,-1,-1,-1,-1,-1,-1,-1,-1,-1,-1,-1,-1,-1,-1,-1,-1,-1,-1,-1,-1,-1,-1,-1,-1,-1,-1,-1],"split_conditions":[3.881067E1,-9.591318E0,-3.3529E0,9.377382E0,3.8544685E-1,-4.7049823E0,-8.683481E0,-4.6310002E-1,6.1060326E1,-1.2573309E0,6.114819E-1,-7.333913E0,-5.0034813E1,6.335609E0,-1.2076072E1,1.18401375E1,-4.94956E0,-3.079208E-2,1.8382576E-1,-8.423098E0,-9.103119E0,2.9717696E-1,-6.1062193E0,-1.9936224E-3,-1.9786716E-1,1.2197395E1,4.059601E0,5.9550586E0,3.5159027E1,-3.1591144E0,4.2127695E0,-1.7899273E-1,-1.7690468E-1,6.8926334E0,-5.2248163E0,-2.4887943E0,-2.193797E0,1.7051171E-1,1.6487812E1,-3.2853104E-2,-1.2089081E-1,1.4444011E-1,-1.6533193E-1,-1.6557612E-1,-4.2356563E0,-1.63934E1,-3.3946197E0,-1.2533586E0,-1.6289258E-1,-3.3332033E0,3.7711122E0,-6.9182844E0,-2.5450912E0,5.498422E1,-1.8407163E-1,-1.0214714E-1,2.6332444E-2,-1.6766554E-1,3.6272984E-2,-8.993307E-2,-1.7928152E-1,-1.1841266E-1,2.2236626E-1,1.1419682E-1,-9.118873E-2,2.1479742E-1,-7.560855E-3,-1.7221081E-1,1.5450737E-1,2.2579561E-1,2.728081E-2,-1.913518E-2,1.815911E-1,-7.045778E-2,1.7581977E-1,-1.5588038E-1,-1.1653823E-2,7.4521735E-2,2.1668585E-1,1.137428E-1,-1.6885525E-1,2.2698684E-1,-1.1033345E-1,3.724987E-3,-1.8262169E-1,2.299462E-1,-6.746515E-2,-2.8019581E-2,6.816452E-2],"split_indices":[3,4,16,13,26,39,20,8,1,16,9,15,4,14,13,3,27,0,0,20,5,11,18,0,0,12,6,33,5,11,36,0,33,7,30,33,35,21,4,35,0,0,0,0,20,11,19,33,0,34,18,26,24,3,0,0,0,0,0,0,0,0,0,0,0,0,0,0,0,0,0,0,0,0,0,0,0,0,0,0,0,0,0,0,0,0,0,0,0],"split_type":[0,0,0,0,0,0,0,0,0,0,0,0,0,0,0,0,0,0,0,0,0,0,0,0,0,0,0,0,0,0,0,0,0,0,0,0,0,0,0,0,0,0,0,0,0,0,0,0,0,0,0,0,0,0,0,0,0,0,0,0,0,0,0,0,0,0,0,0,0,0,0,0,0,0,0,0,0,0,0,0,0,0,0,0,0,0,0,0,0],"sum_hessian":[5.579857E2,2.490199E2,3.089658E2,1.5800476E2,9.101514E1,8.1530075E1,2.2743573E2,1.5369704E2,4.30772E0,6.6804924E1,2.4210215E1,3.5292492E0,7.8000824E1,6.1214024E1,1.6622171E2,6.921573E1,8.44813E1,1.4515389E0,2.8561811E0,4.28033E1,2.4001623E1,1.9108458E1,5.1017566E0,1.1892915E0,2.3399577E0,8.679437E0,6.932139E1,4.5808334E1,1.5405685E1,3.569834E1,1.3052336E2,1.5570876E1,5.3644855E1,1.739231E1,6.7089E1,8.012762E0,3.479054E1,2.685964E0,2.131566E1,1.7445581E1,1.6628759E0,1.4252077E0,3.6765487E0,4.674101E0,4.005336E0,6.6279526E1,3.041867E0,4.423382E1,1.5745132E0,1.1917782E1,3.4879043E0,2.7817274E1,7.8810678E0,1.22722145E2,7.801216E0,3.618722E1,1.7457634E1,1.0999262E1,6.3930473E0,4.1118474E0,6.2977146E1,1.1953999E0,6.8173623E0,1.037232E1,2.4418219E1,1.4427371E0,1.2432269E0,2.0145176E1,1.1704847E0,1.2175821E1,5.2697606E0,1.1823361E0,2.8229997E0,4.681156E0,6.1598366E1,1.8398361E0,1.2020308E0,2.3452877E1,2.0780947E1,1.3533612E0,1.0564421E1,2.3510346E0,1.1368697E0,3.5252278E0,2.4292046E1,4.1683073E0,3.7127602E0,5.117468E1,7.154747E1],"tree_param":{"num_deleted":"0","num_feature":"40","num_nodes":"89","size_leaf_vector":"0"}},{"base_weights":[2.2035828E-2,2.0746034E-1,-2.7328473E-1,5.196411E-1,1.4967377E-1,-2.6016148E-2,-3.9607283E-1,6.367173E-2,6.639226E-1,6.119712E-2,4.1792962E-1,-3.6489874E-1,1.0514593E-1,4.0236104E-1,-4.1967297E-1,4.627498E-1,-3.608857E-1,7.035022E-1,-1.7831904E-1,-1.3869374E-1,2.0088987E-1,5.5296975E-1,-1.5478316E-1,-1.31375E-2,-5.7442653E-1,-3.6249787E-1,2.3531544E-1,-3.2107618E-1,6.794053E-1,7.4722595E-3,-4.5032144E-1,7.514412E-1,-4.3841442E-1,4.4710928E-1,-6.14599E-1,-1.23703286E-1,7.3507726E-1,-2.791157E-1,2.7842754E-1,4.7470143E-1,8.776981E-4,-3.7201005E-1,6.0750777E-1,6.3803506E-1,-4.229005E-1,4.9148345E-1,-5.1569444E-1,-5.572188E-1,3.7168828E-1,2.448479E-2,4.8870665E-1,-3.1852737E-1,6.8710935E-1,-1.5824348E-1,-5.040767E-1,7.6622784E-1,-4.6757832E-2,-3.5556626E-1,4.042289E-1,6.924844E-1,-6.896614E-2,-7.182805E-2,5.6600213E-1,-3.428016E-1,1.678888E-1,-4.8038918E-1,-7.1479104E-2,1.8792273E-1,6.756636E-1,-5.559951E-1,3.6058974E-1,-5.3703528E-2,7.476678E-1,1.5595044E-1,-5.5046666E-1,6.4297545E-1,-2.7790883E-1,-5.442114E-1,4.9156672E-1,9.2174226E-1,2.271281E-2,-5.0059533E-1,2.4226785E-1,-5.244407E-1,2.0457101E-1],"categories":[],"categories_nodes":[],"categories_segments":[],"categories_sizes":[],"default_left":[1,1,1,1,1,1,1,1,1,1,1,1,1,1,1,1,1,1,0,1,1,1,1,1,0,1,1,0,0,1,1,0,0,0,0,0,1,1,1,1,1,1,1,0,1,1,0,0,0,1,1,1,1,1,1,0,0,0,0,0,0,0,0,0,0,0,0,0,0,0,0,0,0,0,0,0,0,0,0,0,0,0,0,0,0],"id":11,"left_children":[1,3,5,7,9,11,13,15,17,19,21,23,25,27,29,31,33,35,-1,37,39,41,43,45,-1,47,49,-1,-1,51,53,-1,-1,-1,-1,-1,55,57,59,61,63,65,67,-1,69,71,-1,-1,-1,73,75,77,79,81,83,-1,-1,-1,-1,-1,-1,-1,-1,-1,-1,-1,-1,-1,-1,-1,-1,-1,-1,-1,-1,-1,-1,-1,-1,-1,-1,-1,-1,-1,-1],"loss_changes":[3.1568691E1,6.3096333E0,6.7417526E0,3.569436E0,7.09884E0,3.3658104E0,2.9675808E0,2.5902333E0,1.5121136E0,6.363538E0,5.8301306E0,1.548554E0,3.417952E0,1.1750988E0,1.8983707E0,2.361397E0,1.8105812E0,1.1339283E0,0E0,5.579384E0,7.3363824E0,3.269123E0,3.448462E0,2.5117202E0,0E0,1.9676142E0,2.3083456E0,0E0,0E0,2.5839443E0,2.0410576E0,0E0,0E0,0E0,0E0,0E0,9.761143E-1,3.8409638E0,3.5225606E0,2.862358E0,4.5586276E0,9.5261395E-2,1.5129261E0,0E0,1.428453E0,7.322506E-1,0E0,0E0,0E0,1.9573872E0,2.5052896E0,1.7113698E0,5.6788254E-1,3.2000327E0,1.7469864E0,0E0,0E0,0E0,0E0,0E0,0E0,0E0,0E0,0E0,0E0,0E0,0E0,0E0,0E0,0E0,0E0,0E0,0E0,0E0,0E0,0E0,0E0,0E0,0E0,0E0,0E0,0E0,0E0,0E0,0E0],"parents":[2147483647,0,0,1,1,2,2,3,3,4,4,5,5,6,6,7,7,8,8,9,9,10,10,11,11,12,12,13,13,14,14,15,15,16,16,17,17,19,19,20,20,21,21,22,22,23,23,25,25,26,26,29,29,30,30,36,36,37,37,38,38,39,39,40,40,41,41,42,42,44,44,45,45,49,49,50,50,51,51,52,52,53,53,54,54],"right_children":[2,4,6,8,10,12,14,16,18,20,22,24,26,28,30,32,34,36,-1,38,40,42,44,46,-1,48,50,-1,-1,52,54,-1,-1,-1,-1,-1,56,58,60,62,64,66,68,-1,70,72,-1,-1,-1,74,76,78,80,82,84,-1,-1,-1,-1,-1,-1,-1,-1,-1,-1,-1,-1,-1,-1,-1,-1,-1,-1,-1,-1,-1,-1,-1,-1,-1,-1,-1,-1,-1,-1],"split_conditions":[4.173195E1,-5.524131E0,-5.6411066E0,-1.3350105E0,-2.6793733E0,-2.0514366E1,-6.163821E0,-1.9444588E1,1.0770493E1,-2.7262506E0,3.4860214E1,-5.842576E0,8.292236E0,-2.9446633E0,-5.0269876E2,9.099601E-1,-9.407768E0,-6.5162563E-1,-5.3495713E-2,-1.2145814E0,-5.559174E0,-1.088772E1,-3.2371316E0,-1.535683E0,-1.7232797E-1,1.7251608E0,-3.4298308E0,-9.632286E-2,2.0382158E-1,-3.6678252E0,-1.3954799E1,2.2543237E-1,-1.3152434E-1,1.3413279E-1,-1.843797E-1,-3.7110988E-2,1.1262968E1,1.7914555E0,-2.0418925E0,-7.4702883E0,-3.3665395E0,-1.3557871E1,9.079448E1,1.9141053E-1,2.7905592E-1,-1.7824047E0,-1.5470834E-1,-1.6716564E-1,1.11506484E-1,-4.7710757E0,1.2041354E0,4.0302725E0,1.2379149E2,2.0095024E0,1.21810875E1,2.2986837E-1,-1.4027351E-2,-1.0666988E-1,1.21268675E-1,2.0774533E-1,-2.0689843E-2,-2.1548416E-2,1.6980064E-1,-1.0284048E-1,5.0366644E-2,-1.4411676E-1,-2.1443732E-2,5.6376822E-2,2.0269908E-1,-1.6679853E-1,1.08176924E-1,-1.611106E-2,2.2430034E-1,4.6785135E-2,-1.6514E-1,1.9289264E-1,-8.337265E-2,-1.6326343E-1,1.4747003E-1,2.765227E-1,6.8138433E-3,-1.5017861E-1,7.2680354E-2,-1.5733221E-1,6.1371304E-2],"split_indices":[3,29,31,12,2,6,30,4,9,16,3,33,5,19,0,13,18,3,0,15,15,15,34,9,0,30,27,0,0,6,11,0,0,0,0,0,13,34,38,22,17,6,1,0,23,8,0,0,0,4,35,28,1,21,26,0,0,0,0,0,0,0,0,0,0,0,0,0,0,0,0,0,0,0,0,0,0,0,0,0,0,0,0,0,0],"split_type":[0,0,0,0,0,0,0,0,0,0,0,0,0,0,0,0,0,0,0,0,0,0,0,0,0,0,0,0,0,0,0,0,0,0,0,0,0,0,0,0,0,0,0,0,0,0,0,0,0,0,0,0,0,0,0,0,0,0,0,0,0,0,0,0,0,0,0,0,0,0,0,0,0,0,0,0,0,0,0,0,0,0,0,0,0],"sum_hessian":[5.744599E2,3.5307208E2,2.2138779E2,5.3899277E1,2.9917282E2,7.386055E1,1.4752724E2,1.3302137E1,4.0597137E1,2.2589563E2,7.327719E1,2.0112911E1,5.3747643E1,3.7746642E0,1.4375256E2,6.810451E0,6.491687E0,3.8932312E1,1.664826E0,9.292846E1,1.3296716E2,5.9323708E1,1.3953484E1,7.9048023E0,1.2208109E1,1.1314528E1,4.2433113E1,1.001235E0,2.7734292E0,9.674606E0,1.3407796E2,5.2838826E0,1.526568E0,1.3691435E0,5.1225433E0,1.3241602E0,3.760815E1,6.9771164E1,2.315729E1,5.554885E1,7.741832E1,2.9789405E0,5.634477E1,3.177623E0,1.0775861E1,3.955296E0,3.9495063E0,9.133246E0,2.1812823E0,2.3760307E1,1.8672806E1,6.897452E0,2.7771544E0,2.1453684E1,1.1262428E2,3.6186344E1,1.4218074E0,6.3182198E1,6.58897E0,1.011176E1,1.3045529E1,7.9819384E0,4.756691E1,2.4973896E1,5.2444424E1,1.7495424E0,1.229398E0,8.398521E0,4.7946247E1,9.459329E0,1.3165323E0,1.5171067E0,2.4381895E0,1.99316E1,3.8287058E0,1.5678954E1,2.9938524E0,5.6512756E0,1.246176E0,1.7661113E0,1.0110431E0,1.143193E1,1.0021754E1,1.0973095E2,2.8933327E0],"tree_param":{"num_deleted":"0","num_feature":"40","num_nodes":"85","size_leaf_vector":"0"}},{"base_weights":[1.88256E-2,1.5101174E-1,-5.56285E-2,2.2933513E-1,-3.2001576E-1,-1.6727516E-1,9.642714E-2,-2.2519553E-1,3.019654E-1,-4.9563783E-1,-2.5086226E-2,9.0823464E-2,-2.3530315E-1,1.4150426E-3,4.5852497E-1,-2.9943085E-1,5.7264376E-1,4.7644898E-1,1.5613048E-1,-5.976945E-1,1.5519617E-2,4.9987036E-1,-3.041376E-1,-1.8457496E-1,4.8736617E-1,4.9013432E-2,-3.0469465E-1,-7.887812E-2,4.110922E-1,-3.684369E-1,5.818008E-1,-1.5027593E-2,-5.299188E-1,7.027614E-1,2.4888888E-1,5.5861145E-2,5.455932E-1,-3.7579605E-1,4.4747838E-1,5.7222563E-1,1.5383738E-1,-5.5584604E-1,1.667861E-1,5.465315E-1,-3.2258555E-1,-3.4680983E-1,7.920431E-1,-5.094038E-1,2.4411961E-1,4.3417153E-1,-3.3426794E-1,-1.5913601E-1,4.663826E-1,7.631936E-1,-5.620221E-2,-4.8995563E-1,2.2576911E-2,7.022846E-1,-4.5186877E-1,-2.7664447E-1,6.580099E-1,8.522341E-2,-5.9017724E-1,7.3015654E-1,-3.1148933E-2,1.1674129E-1,6.6952443E-1,2.510772E-1,-1.4138515E-1,-2.2246899E-1,6.7260283E-1,6.2478495E-1,-4.1575694E-1,-1.9313674E-2,7.4466217E-1,-4.9022627E-1,5.7526314E-1,1.1118423E-1,-4.754427E-1,8.9112765E-1,-3.339238E-2,-1.633785E-2,-5.7481134E-1,-5.007221E-1,3.7937436E-1,-1.8779309E-1,7.3080444E-1,-1.8356456E-1,-4.9336708E-1,6.6766554E-1,-1.934216E-1,7.025541E-1,-3.2199994E-1,8.2046896E-1,1.6036683E-1,3.5419545E-1,-5.289574E-1,-3.0761812E-2,8.185124E-1],"categories":[],"categories_nodes":[],"categories_segments":[],"categories_sizes":[],"default_left":[1,1,1,1,1,1,1,1,1,1,1,1,1,1,1,1,0,1,1,0,1,1,1,1,1,1,1,1,1,1,1,1,1,1,1,1,1,0,0,0,0,0,1,1,1,1,1,1,1,1,1,1,1,1,1,0,0,1,0,0,0,0,0,0,0,0,0,0,0,0,0,0,0,0,0,0,0,0,0,0,0,0,0,0,0,0,0,0,0,0,0,0,0,0,0,0,0,0,0],"id":12,"left_children":[1,3,5,7,9,11,13,15,17,19,21,23,25,27,29,31,-1,33,35,-1,37,39,41,43,45,47,49,51,53,55,57,59,61,63,65,67,69,-1,-1,-1,-1,-1,71,73,75,77,79,81,83,85,87,89,91,93,95,-1,-1,97,-1,-1,-1,-1,-1,-1,-1,-1,-1,-1,-1,-1,-1,-1,-1,-1,-1,-1,-1,-1,-1,-1,-1,-1,-1,-1,-1,-1,-1,-1,-1,-1,-1,-1,-1,-1,-1,-1,-1,-1,-1],"loss_changes":[5.473361E0,7.4644713E0,6.0587373E0,5.758072E0,1.4886699E0,3.6314034E0,5.2057443E0,1.6118855E0,3.7180586E0,9.540849E-1,1.8908308E0,4.852466E0,3.23073E0,4.0087028E0,3.4207091E0,1.4935834E0,0E0,3.294508E0,3.1979797E0,0E0,8.4241766E-1,2.4587631E-2,1.0850616E0,2.846274E0,4.8871794E0,3.702152E0,3.011033E0,4.5339684E0,3.3286746E0,2.3403203E-1,3.7745047E0,2.1687367E0,5.182104E-1,6.9081306E-1,1.8751101E0,2.6099823E0,1.7897205E0,0E0,0E0,0E0,0E0,0E0,1.2430043E0,5.270765E-1,3.7270732E0,3.798712E-1,1.1418839E0,2.7527308E-1,2.7097497E0,1.1487553E0,2.9467125E0,2.6685061E0,2.7082076E0,2.6401377E-1,2.0329926E0,0E0,0E0,2.1767483E0,0E0,0E0,0E0,0E0,0E0,0E0,0E0,0E0,0E0,0E0,0E0,0E0,0E0,0E0,0E0,0E0,0E0,0E0,0E0,0E0,0E0,0E0,0E0,0E0,0E0,0E0,0E0,0E0,0E0,0E0,0E0,0E0,0E0,0E0,0E0,0E0,0E0,0E0,0E0,0E0,0E0],"parents":[2147483647,0,0,1,1,2,2,3,3,4,4,5,5,6,6,7,7,8,8,9,9,10,10,11,11,12,12,13,13,14,14,15,15,17,17,18,18,20,20,21,21,22,22,23,23,24,24,25,25,26,26,27,27,28,28,29,29,30,30,31,31,32,32,33,33,34,34,35,35,36,36,42,42,43,43,44,44,45,45,46,46,47,47,48,48,49,49,50,50,51,51,52,52,53,53,54,54,57,57],"right_children":[2,4,6,8,10,12,14,16,18,20,22,24,26,28,30,32,-1,34,36,-1,38,40,42,44,46,48,50,52,54,56,58,60,62,64,66,68,70,-1,-1,-1,-1,-1,72,74,76,78,80,82,84,86,88,90,92,94,96,-1,-1,98,-1,-1,-1,-1,-1,-1,-1,-1,-1,-1,-1,-1,-1,-1,-1,-1,-1,-1,-1,-1,-1,-1,-1,-1,-1,-1,-1,-1,-1,-1,-1,-1,-1,-1,-1,-1,-1,-1,-1,-1,-1],"split_conditions":[-1.6685646E1,-9.050189E-1,6.3159955E-1,-3.06879E0,1.089306E2,-9.70152E0,5.631856E0,2.6515045E0,-3.7764344E0,2.161272E0,-7.175823E0,2.61142E-1,-4.982818E0,4.5770782E-1,-4.6707556E2,-2.8120704E0,1.7179313E-1,1.1037338E2,-2.7547374E0,-1.7930835E-1,4.463237E1,1.4017532E2,-5.1694355E0,-9.298039E0,-3.093924E0,-5.7040696E0,-5.5012962E1,5.1000476E-1,-1.45981E0,-6.044401E-1,5.371955E0,6.9675703E0,-8.940607E0,9.51902E0,2.3033557E0,9.842062E1,-4.650446E0,-1.1273882E-1,1.3424352E-1,1.716677E-1,4.6151217E-2,-1.6675381E-1,3.2373336E-1,-1.4141385E1,8.7727066E1,-1.2553413E1,4.802885E0,-1.389355E1,-1.8842716E0,-2.268025E0,-2.5432234E0,-8.91687E0,1.6514359E0,6.0910463E-1,1.2475787E1,-1.469867E-1,6.7730737E-3,-1.007723E1,-1.3556063E-1,-8.299334E-2,1.9740297E-1,2.5567023E-2,-1.7705318E-1,2.1904697E-1,-9.34468E-3,3.502239E-2,2.0085734E-1,7.5323164E-2,-4.2415548E-2,-6.67407E-2,2.0178086E-1,1.874355E-1,-1.24727085E-1,-5.7941023E-3,2.2339866E-1,-1.4706789E-1,1.7257895E-1,3.335527E-2,-1.4263281E-1,2.673383E-1,-1.0017714E-2,-4.901355E-3,-1.724434E-1,-1.5021664E-1,1.1381231E-1,-5.633793E-2,2.1924134E-1,-5.506937E-2,-1.4801013E-1,2.0029967E-1,-5.802648E-2,2.1076624E-1,-9.659999E-2,2.461407E-1,4.8110053E-2,1.0625864E-1,-1.5868723E-1,-9.228544E-3,2.4555372E-1],"split_indices":[6,11,10,32,1,10,21,27,24,34,22,17,24,13,0,34,0,1,9,0,3,1,13,18,38,29,2,33,39,22,11,7,17,30,28,1,33,0,0,0,0,0,13,18,3,9,17,15,37,20,8,18,30,32,5,0,0,9,0,0,0,0,0,0,0,0,0,0,0,0,0,0,0,0,0,0,0,0,0,0,0,0,0,0,0,0,0,0,0,0,0,0,0,0,0,0,0,0,0],"split_type":[0,0,0,0,0,0,0,0,0,0,0,0,0,0,0,0,0,0,0,0,0,0,0,0,0,0,0,0,0,0,0,0,0,0,0,0,0,0,0,0,0,0,0,0,0,0,0,0,0,0,0,0,0,0,0,0,0,0,0,0,0,0,0,0,0,0,0,0,0,0,0,0,0,0,0,0,0,0,0,0,0,0,0,0,0,0,0,0,0,0,0,0,0,0,0,0,0,0,0],"sum_hessian":[5.542806E2,1.9934116E2,3.5493942E2,1.7136017E2,2.7980997E1,2.0460693E2,1.5033247E2,2.3319952E1,1.480402E2,1.7111223E1,1.0869773E1,4.260984E1,1.619971E2,1.19880516E2,3.0451956E1,2.1906363E1,1.4135894E0,6.6367744E1,8.167247E1,1.4122297E1,2.9889262E0,3.497983E0,7.3717904E0,2.5461441E1,1.7148401E1,3.1838684E1,1.3015842E2,1.0091041E2,1.8970102E1,3.6925814E0,2.6759375E1,1.0283081E1,1.16232815E1,3.22281E1,3.413964E1,6.58599E1,1.5812566E1,1.6364598E0,1.3524662E0,2.3524199E0,1.145563E0,4.6865177E0,2.6852727E0,3.5730832E0,2.1888357E1,4.5507097E0,1.2597692E1,7.8267326E0,2.4011951E1,4.48261E0,1.25675804E2,8.858027E1,1.233014E1,1.0457368E1,8.512734E0,2.6240451E0,1.0685364E0,2.4253048E1,2.506327E0,7.828875E0,2.4542065E0,1.0000525E0,1.0623229E1,3.1073324E1,1.1547774E0,2.6950396E1,7.189246E0,3.296314E1,3.2896767E1,2.1371346E0,1.3675431E1,1.4627427E0,1.22253E0,1.1607101E0,2.412373E0,1.8827082E1,3.0612764E0,1.0276029E0,3.5231066E0,1.117649E1,1.4212012E0,1.0630274E0,6.7637053E0,3.2749395E0,2.0737013E1,1.5660065E0,2.9166038E0,6.564689E1,6.0028908E1,2.7914095E0,8.5788864E1,9.571672E0,2.758468E0,9.220299E0,1.2370687E0,4.6911464E0,3.821588E0,3.4197955E0,2.0833252E1],"tree_param":{"num_deleted":"0","num_feature":"40","num_nodes":"99","size_leaf_vector":"0"}},{"base_weights":[-3.6280226E-2,-2.2445591E-1,1.0351725E-1,-3.9763337E-1,-7.1552484E-3,2.8573427E-1,1.8571023E-2,-1.8725698E-1,-5.143143E-1,5.6729782E-2,-4.4365093E-1,3.7186062E-1,-3.0316407E-2,1.1498285E-1,-1.9119251E-1,-3.2646435E-1,3.3180234E-1,-1.6508597E-1,-5.539628E-1,-1.0684564E-2,6.500259E-1,-5.038283E-2,-5.552813E-1,4.173459E-1,-4.409497E-1,-3.6101538E-1,4.4448388E-1,1.6942511E-1,-2.975062E-1,-2.752721E-1,2.264118E-1,-4.565081E-1,4.297739E-1,-2.8693616E-1,6.057907E-1,-5.1943886E-1,4.35502E-1,-5.7885766E-1,-3.664172E-1,6.677581E-2,-4.9738315E-1,8.2085705E-1,-3.400649E-2,-4.1769886E-1,4.07698E-1,5.0499034E-1,5.3645033E-2,-5.51378E-1,-7.182052E-2,8.7522365E-2,-5.951087E-1,-3.7179777E-1,6.094342E-1,4.9326664E-1,6.963759E-2,3.5640904E-1,-5.170038E-1,-4.045686E-1,7.4604295E-2,-4.7134283E-1,5.3177506E-1,-5.547277E-1,-1.6348147E-1,-3.7887666E-1,8.2544917E-1,-5.09959E-3,-3.8592216E-1,7.5209683E-1,-7.997765E-2,8.992666E-1,-3.329897E-1,-5.261264E-1,2.3434593E-1,3.6230502E-1,-1.0354999E-1,1.1789434E-1,-5.7570803E-1,4.442664E-2,9.648303E-1,-2.845188E-1,5.456247E-1,4.0475833E-1,-5.6068075E-1,-3.4912592E-1,5.0524443E-1,2.120467E-2,-6.976899E-1,7.420096E-1,-1.02610834E-1,6.569527E-1,1.606597E-1,-5.8896225E-2,3.3107066E-1,5.8318394E-1,-9.27223E-2,3.4006706E-1,-6.944656E-1,-6.176056E-1,-1.0230695E-1,3.80503E-1,-5.3482497E-1,7.2681683E-1,-3.4316844E-1],"categories":[],"categories_nodes":[],"categories_segments":[],"categories_sizes":[],"default_left":[1,1,1,1,1,1,1,1,1,1,1,1,1,1,1,1,1,1,1,1,1,1,0,1,1,1,1,1,1,1,1,1,1,1,1,0,1,0,1,1,1,1,0,0,0,1,1,0,0,1,1,0,1,1,1,1,1,1,1,0,1,0,0,0,0,0,0,0,0,0,0,0,0,0,0,0,0,0,0,0,0,0,0,0,0,0,0,0,0,0,0,0,0,0,0,0,0,0,0,0,0,0,0],"id":13,"left_children":[1,3,5,7,9,11,13,15,17,19,21,23,25,27,29,31,33,35,37,39,41,43,-1,45,47,49,51,53,55,57,59,61,63,65,67,-1,69,-1,71,73,75,77,-1,-1,-1,79,81,-1,-1,83,85,-1,87,89,91,93,95,97,99,-1,101,-1,-1,-1,-1,-1,-1,-1,-1,-1,-1,-1,-1,-1,-1,-1,-1,-1,-1,-1,-1,-1,-1,-1,-1,-1,-1,-1,-1,-1,-1,-1,-1,-1,-1,-1,-1,-1,-1,-1,-1,-1,-1],"loss_changes":[1.3824976E1,8.424623E0,4.6646795E0,2.9624252E0,2.8231733E0,2.6205974E0,4.205162E0,3.4341316E0,1.0104465E0,3.5432506E0,5.393925E-1,2.9718752E0,3.5289237E0,3.2468262E0,2.362488E0,3.8150535E0,1.9080282E0,2.2561455E0,1.1958504E-1,3.063436E0,1.0839748E0,8.361352E-1,0E0,2.2655897E0,1.4311308E-1,1.4377902E0,1.4728334E0,4.0495844E0,2.6183891E0,2.5174289E0,2.706843E0,8.269496E-1,2.205141E0,1.04551226E-1,8.037596E-1,0E0,1.7547432E0,0E0,1.1834995E0,3.5722878E0,6.0542035E-1,7.699504E-1,0E0,0E0,0E0,2.0107737E0,3.4808369E0,0E0,0E0,1.1608825E0,5.7113266E-1,0E0,8.387654E-1,1.5062075E0,3.3049698E0,5.4844415E-1,2.2293768E0,2.5319438E0,3.1266506E0,0E0,1.6979692E0,0E0,0E0,0E0,0E0,0E0,0E0,0E0,0E0,0E0,0E0,0E0,0E0,0E0,0E0,0E0,0E0,0E0,0E0,0E0,0E0,0E0,0E0,0E0,0E0,0E0,0E0,0E0,0E0,0E0,0E0,0E0,0E0,0E0,0E0,0E0,0E0,0E0,0E0,0E0,0E0,0E0,0E0],"parents":[2147483647,0,0,1,1,2,2,3,3,4,4,5,5,6,6,7,7,8,8,9,9,10,10,11,11,12,12,13,13,14,14,15,15,16,16,17,17,18,18,19,19,20,20,21,21,23,23,24,24,25,25,26,26,27,27,28,28,29,29,30,30,31,31,32,32,33,33,34,34,36,36,38,38,39,39,40,40,41,41,45,45,46,46,49,49,50,50,52,52,53,53,54,54,55,55,56,56,57,57,58,58,60,60],"right_children":[2,4,6,8,10,12,14,16,18,20,22,24,26,28,30,32,34,36,38,40,42,44,-1,46,48,50,52,54,56,58,60,62,64,66,68,-1,70,-1,72,74,76,78,-1,-1,-1,80,82,-1,-1,84,86,-1,88,90,92,94,96,98,100,-1,102,-1,-1,-1,-1,-1,-1,-1,-1,-1,-1,-1,-1,-1,-1,-1,-1,-1,-1,-1,-1,-1,-1,-1,-1,-1,-1,-1,-1,-1,-1,-1,-1,-1,-1,-1,-1,-1,-1,-1,-1,-1,-1],"split_conditions":[3.858812E1,-1.2594842E1,-4.779647E0,-2.206441E0,5.654178E-1,5.9219475E0,6.1475916E0,9.712899E0,-6.511439E0,1.0930476E0,-4.52531E0,4.89573E0,-6.245675E0,2.8026505E1,1.0452652E1,4.556285E0,-4.2778934E1,1.5951743E0,8.4897566E-1,-3.5813576E-1,-6.7373574E-1,-3.464199E0,-1.6658439E-1,1.27640015E2,7.693004E1,-2.3241515E0,-3.7178043E1,-3.076692E0,-9.7382765E0,2.7791828E1,-3.6182437E0,-1.901403E0,-3.4892834E1,3.462414E0,7.289974E0,-1.5583166E-1,-9.171736E0,-1.736573E-1,6.137987E-1,-2.6174111E0,-2.0029385E1,-9.674346E0,-1.0201948E-2,-1.2530966E-1,1.2230941E-1,-7.1281166E0,-7.8110514E0,-1.6541341E-1,-2.1546157E-2,3.4679136E0,-1.4027199E1,-1.11539334E-1,-1.1375636E0,9.0592165E0,-4.8724133E-1,-2.3182995E0,-7.721607E0,-1.9912551E-1,-5.271102E-1,-1.4140286E-1,4.4082155E0,-1.6641831E-1,-4.9044445E-2,-1.13663E-1,2.4763475E-1,-1.5298771E-3,-1.1577665E-1,2.2562906E-1,-2.3993295E-2,2.6977998E-1,-9.9896915E-2,-1.5783793E-1,7.030378E-2,1.08691506E-1,-3.1064996E-2,3.53683E-2,-1.7271242E-1,1.33279925E-2,2.894491E-1,-8.535565E-2,1.6368741E-1,1.21427506E-1,-1.6820423E-1,-1.0473778E-1,1.5157333E-1,6.3614016E-3,-2.0930697E-1,2.2260289E-1,-3.078325E-2,1.9708581E-1,4.8197914E-2,-1.7668867E-2,9.93212E-2,1.7495519E-1,-2.781669E-2,1.0202012E-1,-2.0833968E-1,-1.852817E-1,-3.0692086E-2,1.14150904E-1,-1.604475E-1,2.1804506E-1,-1.02950536E-1],"split_indices":[3,4,17,8,34,21,7,12,27,38,19,33,17,5,10,30,4,35,33,11,6,8,0,1,3,39,2,38,22,5,26,20,2,5,19,0,11,0,24,31,6,22,0,0,0,27,20,0,0,28,15,0,34,5,4,17,31,28,28,0,23,0,0,0,0,0,0,0,0,0,0,0,0,0,0,0,0,0,0,0,0,0,0,0,0,0,0,0,0,0,0,0,0,0,0,0,0,0,0,0,0,0,0],"split_type":[0,0,0,0,0,0,0,0,0,0,0,0,0,0,0,0,0,0,0,0,0,0,0,0,0,0,0,0,0,0,0,0,0,0,0,0,0,0,0,0,0,0,0,0,0,0,0,0,0,0,0,0,0,0,0,0,0,0,0,0,0,0,0,0,0,0,0,0,0,0,0,0,0,0,0,0,0,0,0,0,0,0,0,0,0,0,0,0,0,0,0,0,0,0,0,0,0,0,0,0,0,0,0],"sum_hessian":[5.236517E2,2.2294669E2,3.00705E2,1.2360776E2,9.933892E1,9.485949E1,2.0584552E2,4.5027588E1,7.858017E1,8.741499E1,1.1923929E1,7.4406525E1,2.0452965E1,1.413362E2,6.450931E1,3.579793E1,9.229659E0,8.538239E0,7.004193E1,7.937756E1,8.037429E0,2.9572E0,8.966729E0,7.092411E1,3.4824097E0,1.2197228E1,8.255737E0,1.2537754E2,1.5958663E1,5.3981598E1,1.0527715E1,3.0883503E1,4.914426E0,2.818187E0,6.4114723E0,5.4549055E0,3.0833328E0,5.9992085E1,1.0049843E1,6.922317E1,1.0154396E1,6.2712193E0,1.7662094E0,1.6901186E0,1.2670814E0,5.683868E1,1.4085432E1,2.3004754E0,1.1819341E0,4.3974857E0,7.799742E0,1.1770293E0,7.0787077E0,2.8604357E1,9.6773186E1,3.8538206E0,1.2104842E1,3.930146E1,1.4680137E1,3.0393214E0,7.4883933E0,2.246153E1,8.421974E0,1.628559E0,3.2858672E0,1.0058401E0,1.8123469E0,5.204409E0,1.207063E0,1.8167818E0,1.266551E0,8.037388E0,2.0124545E0,2.4897259E1,4.432591E1,1.089634E0,9.064762E0,1.1856619E0,5.0855575E0,2.4883857E0,5.4350292E1,9.179876E0,4.9055557E0,2.2303245E0,2.1671615E0,1.2261647E0,6.5735774E0,5.932125E0,1.1465826E0,1.8516605E1,1.008775E1,6.539593E1,3.1377253E1,2.362486E0,1.4913347E0,1.9192646E0,1.0185577E1,2.2441317E1,1.6860144E1,1.00242E1,4.655936E0,6.261813E0,1.2265801E0],"tree_param":{"num_deleted":"0","num_feature":"40","num_nodes":"103","size_leaf_vector":"0"}},{"base_weights":[1.5901415E-2,1.6760056E-1,-2.3637703E-1,6.1921567E-1,1.3513923E-1,-1.1487755E-2,-3.5492623E-1,7.029694E-1,9.698859E-2,-7.0171155E-2,2.3637502E-1,2.5493407E-1,-1.5526049E-1,3.5980672E-1,-3.7807533E-1,1.2406998E-1,7.3410326E-1,5.053526E-1,-4.1216442E-1,-2.0289026E-1,4.0528458E-1,2.8936884E-1,-1.714771E-1,5.5727726E-1,-1.2917942E-1,5.262689E-1,-2.173248E-1,6.8852395E-1,-1.3442063E-1,-2.1625489E-1,-4.720785E-1,2.0770372E-1,7.6144683E-1,-3.540016E-1,1.859991E-1,5.909653E-1,-1.370978E-1,5.1108308E-2,3.97273E-1,-4.7359982E-1,4.243833E-1,2.6605655E-2,9.2302656E-1,-5.417968E-1,1.9958895E-1,7.752206E-1,-2.8561693E-2,4.5999807E-1,-3.0789003E-1,-3.7008932E-1,1.674157E-1,-5.4231924E-1,-1.1298446E-1,-4.1664183E-1,2.2123682E-1,6.4108866E-1,-1.5983003E-1,-2.3838896E-2,6.858258E-1,-5.3423536E-1,3.5214493E-1,-1.14343494E-1,6.9059545E-1,5.487889E-1,1.1267587E-1,-3.7414223E-2,-6.818473E-1,7.137184E-1,-2.8446254E-1,6.652326E-1,-2.5635752E-1,1.004667E0,2.3756318E-1,-2.705973E-1,6.241708E-1,7.307878E-1,-1.2054372E-1,-3.61947E-1,3.6359045E-1,1.06565386E-1,-5.250202E-1,4.9701288E-1,-3.6867186E-1,3.5799542E-1,-5.692025E-1,-3.8485026E-1,8.947848E-1],"categories":[],"categories_nodes":[],"categories_segments":[],"categories_sizes":[],"default_left":[1,1,1,1,1,1,1,1,1,1,1,1,1,1,1,0,1,0,0,1,1,1,1,1,1,1,1,0,0,1,1,0,0,1,1,1,1,1,1,1,1,1,1,0,1,0,0,1,1,1,1,1,1,0,0,0,0,0,0,0,0,0,0,0,0,0,0,0,0,0,0,0,0,0,0,0,0,0,0,0,0,0,0,0,0,0,0],"id":14,"left_children":[1,3,5,7,9,11,13,15,17,19,21,23,25,27,29,-1,31,-1,-1,33,35,37,39,41,43,45,47,-1,-1,49,51,-1,-1,53,55,57,59,61,63,65,67,69,71,-1,73,-1,-1,75,77,79,81,83,85,-1,-1,-1,-1,-1,-1,-1,-1,-1,-1,-1,-1,-1,-1,-1,-1,-1,-1,-1,-1,-1,-1,-1,-1,-1,-1,-1,-1,-1,-1,-1,-1,-1,-1],"loss_changes":[2.0691753E1,4.8652678E0,5.409486E0,9.0974236E-1,6.5891967E0,2.763966E0,2.335434E0,2.5331402E-1,1.0919995E0,6.7207212E0,4.632145E0,3.0110788E0,2.0946774E0,8.5331476E-1,1.8639889E0,0E0,9.991646E-2,0E0,0E0,4.938161E0,2.4266999E0,4.813339E0,4.703114E0,2.7605505E0,1.7303545E0,6.022543E-1,2.8172011E0,0E0,0E0,2.973974E0,1.9795284E0,0E0,0E0,2.2561073E0,3.8571582E0,1.0392723E0,1.4999806E0,6.401124E0,5.511902E0,1.5247777E0,2.0368643E0,1.4145983E0,2.3504257E-1,0E0,1.643425E0,0E0,0E0,9.598266E-1,1.5498488E0,2.6797051E0,2.7999008E0,1.8353195E0,4.3171434E0,0E0,0E0,0E0,0E0,0E0,0E0,0E0,0E0,0E0,0E0,0E0,0E0,0E0,0E0,0E0,0E0,0E0,0E0,0E0,0E0,0E0,0E0,0E0,0E0,0E0,0E0,0E0,0E0,0E0,0E0,0E0,0E0,0E0,0E0],"parents":[2147483647,0,0,1,1,2,2,3,3,4,4,5,5,6,6,7,7,8,8,9,9,10,10,11,11,12,12,13,13,14,14,16,16,19,19,20,20,21,21,22,22,23,23,24,24,25,25,26,26,29,29,30,30,33,33,34,34,35,35,36,36,37,37,38,38,39,39,40,40,41,41,42,42,44,44,47,47,48,48,49,49,50,50,51,51,52,52],"right_children":[2,4,6,8,10,12,14,16,18,20,22,24,26,28,30,-1,32,-1,-1,34,36,38,40,42,44,46,48,-1,-1,50,52,-1,-1,54,56,58,60,62,64,66,68,70,72,-1,74,-1,-1,76,78,80,82,84,86,-1,-1,-1,-1,-1,-1,-1,-1,-1,-1,-1,-1,-1,-1,-1,-1,-1,-1,-1,-1,-1,-1,-1,-1,-1,-1,-1,-1,-1,-1,-1,-1,-1,-1],"split_conditions":[4.173195E1,-1.7521305E1,-5.6411066E0,2.5406265E0,-1.4596489E1,-2.0303264E0,-6.163821E0,-1.2456926E1,-8.716086E0,6.6206465E0,3.0603859E1,-1.7669313E0,-4.6752787E0,-7.118043E0,-9.12391E0,3.7220996E-2,-1.6373379E1,1.5160578E-1,-1.2364933E-1,5.261507E0,-1.9569023E1,-3.5316353E0,-5.1988573E0,-2.5624106E0,-1.8439765E0,1.52298E0,-5.5464363E0,2.065572E-1,-4.0326193E-2,4.142218E0,2.1153292E1,6.231112E-2,2.2843406E-1,2.7623878E0,-9.239433E0,-3.8432832E0,1.3385852E2,-1.1710951E0,-7.655614E-1,-1.8682796E0,-2.338122E0,-5.5598583E0,-2.897152E0,-1.6253905E-1,3.8124914E0,2.3256618E-1,-8.568509E-3,3.4697027E0,1.4865694E0,-4.377185E2,3.594544E-1,-1.9270844E1,1.0927043E0,-1.2499256E-1,6.637105E-2,1.923266E-1,-4.7949012E-2,-7.1516694E-3,2.0574775E-1,-1.6027062E-1,1.0564348E-1,-3.430305E-2,2.0717864E-1,1.6463667E-1,3.3802763E-2,-1.1224267E-2,-2.0455419E-1,2.1411553E-1,-8.5338764E-2,1.9956979E-1,-7.690726E-2,3.0140013E-1,7.126895E-2,-8.1179194E-2,1.8725124E-1,2.1923636E-1,-3.6163118E-2,-1.08584106E-1,1.0907714E-1,3.1969618E-2,-1.5750606E-1,1.4910387E-1,-1.1060157E-1,1.0739863E-1,-1.7076075E-1,-1.1545508E-1,2.6843545E-1],"split_indices":[3,13,31,39,6,18,30,15,15,10,5,28,36,10,11,0,8,0,0,19,6,16,11,34,30,10,34,0,0,21,5,0,0,22,15,5,1,15,10,33,7,28,29,0,21,0,0,16,15,0,10,7,24,0,0,0,0,0,0,0,0,0,0,0,0,0,0,0,0,0,0,0,0,0,0,0,0,0,0,0,0,0,0,0,0,0,0],"split_type":[0,0,0,0,0,0,0,0,0,0,0,0,0,0,0,0,0,0,0,0,0,0,0,0,0,0,0,0,0,0,0,0,0,0,0,0,0,0,0,0,0,0,0,0,0,0,0,0,0,0,0,0,0,0,0,0,0,0,0,0,0,0,0,0,0,0,0,0,0,0,0,0,0,0,0,0,0,0,0,0,0,0,0,0,0,0,0],"sum_hessian":[5.3863696E2,3.36581E2,2.02056E2,2.1358435E1,3.1522256E2,7.012497E1,1.3193103E2,1.8108183E1,3.2502513E0,1.04202484E2,2.1102008E2,2.4307728E1,4.5817245E1,3.6827412E0,1.2824829E2,1.1785948E0,1.6929588E1,1.8077873E0,1.442464E0,8.191104E1,2.2291443E1,1.8701146E2,2.400862E1,1.3349367E1,1.095836E1,3.19988E0,4.2617363E1,1.9756068E0,1.7071344E0,4.8338005E1,7.991028E1,1.2604444E0,1.5669145E1,5.905403E1,2.2857008E1,1.6539642E1,5.7518005E0,5.875333E1,1.2825812E2,1.606717E1,7.9414515E0,5.8843746E0,7.4649925E0,4.5721593E0,6.386201E0,1.9346051E0,1.2652748E0,4.5452185E0,3.8072147E1,3.4528893E1,1.3809114E1,6.64099E1,1.350038E1,5.3503506E1,5.550525E0,9.500789E0,1.3356219E1,2.3109233E0,1.4228719E1,3.1239796E0,2.6278212E0,4.732923E1,1.1424097E1,8.309246E1,4.5165665E1,5.573284E0,1.0493884E1,5.6346416E0,2.3068097E0,1.3919333E0,4.492441E0,6.2544007E0,1.2105917E0,3.202449E0,3.1837516E0,2.9230013E0,1.622217E0,3.5662167E1,2.40998E0,8.546675E0,2.5982218E1,8.596627E0,5.2124867E0,1.5683813E0,6.4841515E1,1.111894E1,2.381439E0],"tree_param":{"num_deleted":"0","num_feature":"40","num_nodes":"87","size_leaf_vector":"0"}},{"base_weights":[1.9031454E-2,1.349134E-1,-4.2026207E-2,1.8574719E-1,-4.8335585E-1,8.24273E-2,-1.5760256E-1,2.666869E-1,-2.1233834E-1,-5.672955E-1,1.9082587E-2,-1.1783571E-2,3.6202255E-1,-1.8581693E-1,4.887321E-1,-9.135871E-3,3.587033E-1,-3.6288166E-1,3.9009193E-1,2.6443902E-1,-9.2518866E-2,-1.0511912E-1,5.3031826E-1,7.880183E-2,-2.3896703E-1,-1.5392438E-1,6.916644E-1,1.6115397E-1,-4.405836E-1,3.9834505E-1,-2.758584E-1,2.0663114E-1,-4.5939523E-1,6.150448E-1,-3.7521206E-2,5.880558E-1,-3.3229405E-1,-2.4190411E-1,1.409203E-1,2.5121084E-1,-4.282875E-1,6.1346567E-1,-6.1172906E-2,-2.743741E-1,3.7872142E-1,-2.889415E-1,1.5889728E-1,3.2077056E-1,-3.2757208E-1,-5.6828374E-1,1.8158916E-1,1.6425794E-1,4.895291E-1,4.0898764E-1,-5.924544E-1,-1.5330067E-1,4.5447943E-1,2.1772547E-1,-5.1661026E-1,-7.0472725E-2,1.435733E-2,-4.772128E-2,7.153783E-1,-5.838014E-1,2.6217693E-1,1.1888602E-1,-3.8623676E-1,7.9967016E-1,-1.5940111E-2,-3.6988887E-1,5.546486E-1,-3.569263E-2,-4.9372426E-1,6.815415E-1,8.134164E-2,-4.5180577E-1,4.9347982E-1,-4.361886E-1,6.672629E-1,-4.1042402E-2,7.527982E-1,-3.3921504E-1,9.682253E-2,-3.5441384E-1,4.848028E-1],"categories":[],"categories_nodes":[],"categories_segments":[],"categories_sizes":[],"default_left":[1,1,1,1,1,1,1,1,1,0,0,1,1,1,1,1,1,1,1,1,1,1,1,1,1,0,0,1,1,1,1,1,1,0,1,1,1,1,1,1,1,1,1,1,1,1,1,0,0,0,0,0,0,0,0,0,0,0,0,0,0,0,0,0,0,0,0,0,0,0,0,0,0,0,0,0,0,0,0,0,0,0,0,0,0],"id":15,"left_children":[1,3,5,7,9,11,13,15,17,-1,-1,19,21,23,25,27,29,31,33,35,37,39,41,43,45,-1,-1,47,49,51,53,55,57,-1,59,61,63,65,67,69,71,73,75,77,79,81,83,-1,-1,-1,-1,-1,-1,-1,-1,-1,-1,-1,-1,-1,-1,-1,-1,-1,-1,-1,-1,-1,-1,-1,-1,-1,-1,-1,-1,-1,-1,-1,-1,-1,-1,-1,-1,-1,-1],"loss_changes":[3.7059531E0,5.7690907E0,4.9505424E0,5.4599743E0,6.015284E-1,4.3753767E0,3.342752E0,3.5515537E0,2.7618303E0,0E0,0E0,2.8140695E0,3.3462672E0,2.4321842E0,1.1151395E0,2.7121346E0,2.7475767E0,1.3939669E0,6.2508696E-1,5.7090425E0,3.4354649E0,1.4802057E0,1.5589294E0,3.2236462E0,2.8919563E0,0E0,0E0,2.172849E0,9.3274426E-1,2.0348969E0,1.7071832E0,4.3672028E-1,9.0742207E-1,0E0,6.310988E-3,1.5618906E0,1.7496101E0,3.1622677E0,4.010962E0,1.3923604E0,1.5245771E-1,9.303427E-1,1.2460427E0,2.4402814E0,2.5977964E0,2.505952E0,2.9518843E0,0E0,0E0,0E0,0E0,0E0,0E0,0E0,0E0,0E0,0E0,0E0,0E0,0E0,0E0,0E0,0E0,0E0,0E0,0E0,0E0,0E0,0E0,0E0,0E0,0E0,0E0,0E0,0E0,0E0,0E0,0E0,0E0,0E0,0E0,0E0,0E0,0E0,0E0],"parents":[2147483647,0,0,1,1,2,2,3,3,4,4,5,5,6,6,7,7,8,8,11,11,12,12,13,13,14,14,15,15,16,16,17,17,18,18,19,19,20,20,21,21,22,22,23,23,24,24,27,27,28,28,29,29,30,30,31,31,32,32,34,34,35,35,36,36,37,37,38,38,39,39,40,40,41,41,42,42,43,43,44,44,45,45,46,46],"right_children":[2,4,6,8,10,12,14,16,18,-1,-1,20,22,24,26,28,30,32,34,36,38,40,42,44,46,-1,-1,48,50,52,54,56,58,-1,60,62,64,66,68,70,72,74,76,78,80,82,84,-1,-1,-1,-1,-1,-1,-1,-1,-1,-1,-1,-1,-1,-1,-1,-1,-1,-1,-1,-1,-1,-1,-1,-1,-1,-1,-1,-1,-1,-1,-1,-1,-1,-1,-1,-1,-1,-1],"split_conditions":[1.0356658E2,1.9127955E0,-2.1201527E1,7.760462E0,2.0447965E0,5.891062E0,3.920208E0,2.8965683E1,6.0369635E0,-1.7018865E-1,5.7247765E-3,-2.670891E0,-5.1309414E0,-5.314376E0,-1.63653E1,-1.1298227E1,2.9500456E0,-1.4575844E0,1.9012954E0,-1.9075059E0,-9.6788657E-1,-3.2375581E0,-1.2675416E0,-7.35629E0,9.113546E0,-4.6177313E-2,2.0749933E-1,6.3636756E-1,2.6577085E1,-1.4966191E0,-5.613097E0,4.085275E0,-2.0254795E1,1.8451343E-1,7.718043E1,-4.9008512E0,2.913741E0,-8.837607E0,1.1390715E1,-2.6630488E-1,-5.669586E0,-1.07677475E-1,5.016763E0,7.4857336E-1,-1.281803E0,3.2439533E1,-2.0006068E0,9.623117E-2,-9.827163E-2,-1.7048512E-1,5.447675E-2,4.9277384E-2,1.4685874E-1,1.22696295E-1,-1.7773631E-1,-4.5990203E-2,1.3634384E-1,6.5317646E-2,-1.5498309E-1,-2.1141818E-2,4.3071993E-3,-1.4316385E-2,2.146135E-1,-1.7514043E-1,7.865308E-2,3.5665806E-2,-1.15871035E-1,2.3990105E-1,-4.7820336E-3,-1.1096667E-1,1.6639458E-1,-1.0707789E-2,-1.4811729E-1,2.0446245E-1,2.4402494E-2,-1.3554174E-1,1.4804395E-1,-1.3085659E-1,2.0017888E-1,-1.2312721E-2,2.2583947E-1,-1.01764515E-1,2.904676E-2,-1.0632416E-1,1.4544085E-1],"split_indices":[1,11,2,23,34,8,9,3,20,0,0,37,18,16,4,4,13,24,14,20,26,17,15,13,14,0,0,35,3,14,23,14,8,0,1,10,19,15,3,39,27,33,18,36,24,5,37,0,0,0,0,0,0,0,0,0,0,0,0,0,0,0,0,0,0,0,0,0,0,0,0,0,0,0,0,0,0,0,0,0,0,0,0,0,0],"split_type":[0,0,0,0,0,0,0,0,0,0,0,0,0,0,0,0,0,0,0,0,0,0,0,0,0,0,0,0,0,0,0,0,0,0,0,0,0,0,0,0,0,0,0,0,0,0,0,0,0,0,0,0,0,0,0,0,0,0,0,0,0,0,0,0,0,0,0,0,0,0,0,0,0,0,0,0,0,0,0,0,0,0,0,0,0],"sum_hessian":[5.219727E2,1.7970299E2,3.422697E2,1.6669684E2,1.300616E1,1.6494379E2,1.7732593E2,1.388048E2,2.7892042E1,1.10337305E1,1.9724298E0,1.24089226E2,4.085457E1,1.7059163E2,6.734308E0,3.4947884E1,1.038569E2,2.2633673E1,5.258368E0,2.7551365E1,9.6537865E1,1.0919763E1,2.9934805E1,2.8452473E1,1.4213914E2,1.6741191E0,5.060189E0,2.5506931E1,9.440952E0,9.81007E1,5.756204E0,3.114499E0,1.9519175E1,3.1584787E0,2.0998893E0,1.7873081E1,9.678284E0,5.884487E1,3.769299E1,5.2993207E0,5.620442E0,2.6212847E1,3.721957E0,1.310528E1,1.5347194E1,1.2652101E2,1.5618136E1,1.948639E1,6.0205417E0,7.905063E0,1.5358897E0,2.828613E1,6.9814575E1,1.7275082E0,4.0286956E0,1.4256322E0,1.688867E0,1.3022374E0,1.8216936E1,1.0650116E0,1.0348777E0,3.0864205E0,1.478666E1,6.813565E0,2.8647184E0,1.686458E1,4.198029E1,6.4610853E0,3.1231905E1,1.6673883E0,3.6319325E0,1.0237564E0,4.5966854E0,2.299079E1,3.222059E0,2.2926834E0,1.4292736E0,1.1641531E1,1.463749E0,7.65149E0,7.6957035E0,1.1204036E2,1.4480659E1,6.031254E0,9.586883E0],"tree_param":{"num_deleted":"0","num_feature":"40","num_nodes":"85","size_leaf_vector":"0"}},{"base_weights":[-3.2550443E-2,-1.9512852E-1,8.3215415E-2,-3.6365896E-1,-3.7053712E-3,2.648051E-1,1.6600925E-2,-1.574776E-1,-4.8735067E-1,4.9972832E-2,-4.0835428E-1,-4.5699796E-1,3.037674E-1,4.5196208E-1,-9.949795E-3,-2.8843042E-1,2.9634097E-1,-2.0673513E-1,-5.442116E-1,-9.465977E-3,5.7002586E-1,-3.9122276E-2,-5.2802163E-1,-3.3583006E-4,-6.092256E-1,-4.31789E-1,3.3050525E-1,-3.4478077E-1,5.897841E-1,-3.0814332E-1,2.799034E-2,-4.1725942E-1,3.7290668E-1,6.5530056E-1,-9.499593E-2,3.2845396E-1,-5.0934476E-1,-5.59931E-1,-3.3077013E-1,5.7135556E-2,-4.6659973E-1,-9.998841E-2,7.02188E-1,-3.895046E-1,4.0194064E-1,1.0876372E-1,4.4187656E-1,6.6824746E-1,-7.524566E-2,1.9329683E-1,-4.8544332E-1,2.8770837E-1,-3.686618E-2,-5.613916E-1,-1.9809522E-1,8.444765E-1,-1.875194E-1,2.0244206E-1,7.2937614E-1,6.1883605E-1,-4.737439E-1,-3.8805282E-1,8.10611E-1,1.6260111E-1,-4.5589265E-1,3.0063412E-1,-8.154331E-2,1.08677395E-1,-5.482215E-1,9.926158E-1,2.778013E-1,3.0728778E-1,-4.5771083E-1,-2.7743208E-1,4.9442235E-1,5.030543E-1,-2.9296464E-1,-5.8507156E-1,2.4076784E-1,-4.2678863E-1,4.123666E-1,-6.483125E-2,5.3164077E-1],"categories":[],"categories_nodes":[],"categories_segments":[],"categories_sizes":[],"default_left":[1,1,1,1,1,1,1,1,1,1,1,1,1,1,1,1,1,1,1,1,1,1,0,0,0,0,1,0,1,1,1,1,1,1,1,1,0,0,1,1,1,0,1,0,0,1,1,0,0,1,1,1,1,0,0,0,0,0,0,0,0,0,0,0,0,0,0,0,0,0,0,0,0,0,0,0,0,0,0,0,0,0,0],"id":16,"left_children":[1,3,5,7,9,11,13,15,17,19,21,23,25,27,29,31,33,35,37,39,41,43,-1,-1,-1,-1,45,-1,47,49,51,53,55,57,59,61,-1,-1,63,65,67,-1,69,-1,-1,71,73,-1,-1,75,77,79,81,-1,-1,-1,-1,-1,-1,-1,-1,-1,-1,-1,-1,-1,-1,-1,-1,-1,-1,-1,-1,-1,-1,-1,-1,-1,-1,-1,-1,-1,-1],"loss_changes":[9.24259E0,6.585772E0,3.4676838E0,2.6922302E0,2.1188464E0,2.30341E0,2.44421E0,2.5927436E0,9.626999E-1,2.6695151E0,4.8409986E-1,3.0158043E-1,1.5907474E0,1.5379033E0,2.2703059E0,2.9883418E0,1.4587156E0,2.2672272E0,7.305145E-4,2.4114609E0,8.544557E-1,7.555871E-1,0E0,0E0,0E0,0E0,1.7204218E0,0E0,6.101842E-1,2.1073215E0,3.01333E0,7.827325E-1,1.7305304E0,3.0526638E-2,1.8151579E0,2.1425462E0,0E0,0E0,4.5963728E-1,2.363274E0,5.324156E-1,0E0,6.513605E-1,0E0,0E0,2.9823272E0,1.9265547E0,0E0,0E0,1.1461868E0,1.3720183E0,3.3587449E0,2.316329E0,0E0,0E0,0E0,0E0,0E0,0E0,0E0,0E0,0E0,0E0,0E0,0E0,0E0,0E0,0E0,0E0,0E0,0E0,0E0,0E0,0E0,0E0,0E0,0E0,0E0,0E0,0E0,0E0,0E0,0E0],"parents":[2147483647,0,0,1,1,2,2,3,3,4,4,5,5,6,6,7,7,8,8,9,9,10,10,11,11,12,12,13,13,14,14,15,15,16,16,17,17,18,18,19,19,20,20,21,21,26,26,28,28,29,29,30,30,31,31,32,32,33,33,34,34,35,35,38,38,39,39,40,40,42,42,45,45,46,46,49,49,50,50,51,51,52,52],"right_children":[2,4,6,8,10,12,14,16,18,20,22,24,26,28,30,32,34,36,38,40,42,44,-1,-1,-1,-1,46,-1,48,50,52,54,56,58,60,62,-1,-1,64,66,68,-1,70,-1,-1,72,74,-1,-1,76,78,80,82,-1,-1,-1,-1,-1,-1,-1,-1,-1,-1,-1,-1,-1,-1,-1,-1,-1,-1,-1,-1,-1,-1,-1,-1,-1,-1,-1,-1,-1,-1],"split_conditions":[3.858812E1,-1.2594842E1,-3.3529E0,-2.206441E0,5.654178E-1,-4.7049823E0,-1.765412E1,9.712899E0,-5.40817E0,1.0930476E0,1.0226657E2,-7.333913E0,-6.6899734E1,-1.3291546E1,-1.0225983E1,4.556285E0,-4.4381847E0,2.4718084E0,1.093218E1,-3.5813576E-1,-4.4203043E0,1.0098901E0,-1.584065E-1,-1.0074902E-4,-1.8276767E-1,-1.295367E-1,-2.0399146E0,-1.03434235E-1,4.54994E0,-2.292795E0,-4.2597494E0,-1.5205261E-1,-3.226287E2,-2.1332262E0,-3.913141E0,2.0067447E-1,-1.5280344E-1,-1.679793E-1,-5.0567975E0,-2.677394E0,-2.0029385E1,-2.9996524E-2,-1.8234217E0,-1.1685139E-1,1.205822E-1,-5.2309144E-1,-1.5869377E1,2.0047425E-1,-2.25737E-2,-3.5161185E0,9.215164E0,-4.178395E0,1.6042614E1,-1.6841748E-1,-5.942857E-2,2.5334296E-1,-5.625582E-2,6.073262E-2,2.1881285E-1,1.8565083E-1,-1.4212318E-1,-1.1641585E-1,2.4318331E-1,4.8780337E-2,-1.367678E-1,9.019024E-2,-2.4462994E-2,3.260322E-2,-1.6446647E-1,2.9778475E-1,8.334039E-2,9.218634E-2,-1.3731326E-1,-8.322963E-2,1.4832671E-1,1.5091631E-1,-8.7889396E-2,-1.7552148E-1,7.2230354E-2,-1.2803659E-1,1.23709984E-1,-1.9449376E-2,1.5949224E-1],"split_indices":[3,4,16,8,34,39,9,12,27,38,1,15,2,11,10,30,5,8,10,11,21,35,0,0,0,0,19,0,37,37,10,10,0,32,31,35,0,0,18,31,6,0,31,0,0,17,11,0,0,29,12,5,12,0,0,0,0,0,0,0,0,0,0,0,0,0,0,0,0,0,0,0,0,0,0,0,0,0,0,0,0,0,0],"split_type":[0,0,0,0,0,0,0,0,0,0,0,0,0,0,0,0,0,0,0,0,0,0,0,0,0,0,0,0,0,0,0,0,0,0,0,0,0,0,0,0,0,0,0,0,0,0,0,0,0,0,0,0,0,0,0,0,0,0,0,0,0,0,0,0,0,0,0,0,0,0,0,0,0,0,0,0,0,0,0,0,0,0,0],"sum_hessian":[4.8921616E2,2.0318448E2,2.8603168E2,1.0757491E2,9.5609566E1,7.596835E1,2.1006332E2,4.1189465E1,6.6385445E1,8.5185844E1,1.042372E1,3.3411949E0,7.262716E1,1.1153473E1,1.9890985E2,3.2248386E1,8.941081E0,1.1966268E1,5.4419178E1,7.7329384E1,7.8564663E0,2.8761923E0,7.547528E0,1.0858872E0,2.2553077E0,2.0160742E0,7.0611084E1,1.4233742E0,9.730099E0,2.1647532E1,1.7726233E2,2.729949E1,4.948896E0,4.311644E0,4.6294374E0,4.2913213E0,7.6749463E0,4.9174286E1,5.2448907E0,6.825942E1,9.069958E0,1.3344963E0,6.5219703E0,1.6680119E0,1.2081804E0,2.4268608E1,4.6342476E1,8.69892E0,1.0311784E0,5.631184E0,1.6016346E1,3.473398E1,1.4252835E2,1.5526838E1,1.1772651E1,2.4122574E0,2.5366385E0,1.1308916E0,3.1807523E0,1.385072E0,3.2443652E0,1.804672E0,2.4866493E0,1.0004553E0,4.2444353E0,2.4345194E1,4.3914227E1,1.0857841E0,7.984174E0,3.0771737E0,3.4447966E0,1.830949E1,5.959117E0,2.8635135E0,4.3478962E1,3.418807E0,2.212377E0,1.4255058E1,1.761288E0,4.7997622E0,2.9934216E1,1.3669046E2,5.8378925E0],"tree_param":{"num_deleted":"0","num_feature":"40","num_nodes":"83","size_leaf_vector":"0"}},{"base_weights":[1.1949237E-2,1.2160078E-1,-2.4246538E-1,2.197546E-1,-2.1188032E-2,