{"learner":{"attributes":{"best_iteration":"1023","best_ntree_limit":"1024","scikit_learn":"{\"use_label_encoder\": false, \"n_estimators\": 1024, \"objective\": \"binary:logistic\", \"max_depth\": null, \"max_leaves\": null, \"max_bin\": null, \"grow_policy\": null, \"learning_rate\": null, \"verbosity\": null, \"booster\": null, \"tree_method\": null, \"gamma\": null, \"min_child_weight\": null, \"max_delta_step\": null, \"subsample\": null, \"sampling_method\": null, \"colsample_bytree\": null, \"colsample_bylevel\": null, \"colsample_bynode\": null, \"reg_alpha\": null, \"reg_lambda\": null, \"scale_pos_weight\": null, \"base_score\": null, \"missing\": NaN, \"num_parallel_tree\": null, \"random_state\": null, \"n_jobs\": null, \"monotone_constraints\": null, \"interaction_constraints\": null, \"importance_type\": null, \"gpu_id\": null, \"validate_parameters\": null, \"predictor\": null, \"enable_categorical\": false, \"max_cat_to_onehot\": null, \"eval_metric\": null, \"early_stopping_rounds\": null, \"callbacks\": null, \"classes_\": [0.0, 1.0], \"n_classes_\": 2, \"_estimator_type\": \"classifier\"}"},"feature_names":[],"feature_types":[],"gradient_booster":{"model":{"gbtree_model_param":{"num_parallel_tree":"1","num_trees":"3072","size_leaf_vector":"0"},"tree_info":[0,1,2,0,1,2,0,1,2,0,1,2,0,1,2,0,1,2,0,1,2,0,1,2,0,1,2,0,1,2,0,1,2,0,1,2,0,1,2,0,1,2,0,1,2,0,1,2,0,1,2,0,1,2,0,1,2,0,1,2,0,1,2,0,1,2,0,1,2,0,1,2,0,1,2,0,1,2,0,1,2,0,1,2,0,1,2,0,1,2,0,1,2,0,1,2,0,1,2,0,1,2,0,1,2,0,1,2,0,1,2,0,1,2,0,1,2,0,1,2,0,1,2,0,1,2,0,1,2,0,1,2,0,1,2,0,1,2,0,1,2,0,1,2,0,1,2,0,1,2,0,1,2,0,1,2,0,1,2,0,1,2,0,1,2,0,1,2,0,1,2,0,1,2,0,1,2,0,1,2,0,1,2,0,1,2,0,1,2,0,1,2,0,1,2,0,1,2,0,1,2,0,1,2,0,1,2,0,1,2,0,1,2,0,1,2,0,1,2,0,1,2,0,1,2,0,1,2,0,1,2,0,1,2,0,1,2,0,1,2,0,1,2,0,1,2,0,1,2,0,1,2,0,1,2,0,1,2,0,1,2,0,1,2,0,1,2,0,1,2,0,1,2,0,1,2,0,1,2,0,1,2,0,1,2,0,1,2,0,1,2,0,1,2,0,1,2,0,1,2,0,1,2,0,1,2,0,1,2,0,1,2,0,1,2,0,1,2,0,1,2,0,1,2,0,1,2,0,1,2,0,1,2,0,1,2,0,1,2,0,1,2,0,1,2,0,1,2,0,1,2,0,1,2,0,1,2,0,1,2,0,1,2,0,1,2,0,1,2,0,1,2,0,1,2,0,1,2,0,1,2,0,1,2,0,1,2,0,1,2,0,1,2,0,1,2,0,1,2,0,1,2,0,1,2,0,1,2,0,1,2,0,1,2,0,1,2,0,1,2,0,1,2,0,1,2,0,1,2,0,1,2,0,1,2,0,1,2,0,1,2,0,1,2,0,1,2,0,1,2,0,1,2,0,1,2,0,1,2,0,1,2,0,1,2,0,1,2,0,1,2,0,1,2,0,1,2,0,1,2,0,1,2,0,1,2,0,1,2,0,1,2,0,1,2,0,1,2,0,1,2,0,1,2,0,1,2,0,1,2,0,1,2,0,1,2,0,1,2,0,1,2,0,1,2,0,1,2,0,1,2,0,1,2,0,1,2,0,1,2,0,1,2,0,1,2,0,1,2,0,1,2,0,1,2,0,1,2,0,1,2,0,1,2,0,1,2,0,1,2,0,1,2,0,1,2,0,1,2,0,1,2,0,1,2,0,1,2,0,1,2,0,1,2,0,1,2,0,1,2,0,1,2,0,1,2,0,1,2,0,1,2,0,1,2,0,1,2,0,1,2,0,1,2,0,1,2,0,1,2,0,1,2,0,1,2,0,1,2,0,1,2,0,1,2,0,1,2,0,1,2,0,1,2,0,1,2,0,1,2,0,1,2,0,1,2,0,1,2,0,1,2,0,1,2,0,1,2,0,1,2,0,1,2,0,1,2,0,1,2,0,1,2,0,1,2,0,1,2,0,1,2,0,1,2,0,1,2,0,1,2,0,1,2,0,1,2,0,1,2,0,1,2,0,1,2,0,1,2,0,1,2,0,1,2,0,1,2,0,1,2,0,1,2,0,1,2,0,1,2,0,1,2,0,1,2,0,1,2,0,1,2,0,1,2,0,1,2,0,1,2,0,1,2,0,1,2,0,1,2,0,1,2,0,1,2,0,1,2,0,1,2,0,1,2,0,1,2,0,1,2,0,1,2,0,1,2,0,1,2,0,1,2,0,1,2,0,1,2,0,1,2,0,1,2,0,1,2,0,1,2,0,1,2,0,1,2,0,1,2,0,1,2,0,1,2,0,1,2,0,1,2,0,1,2,0,1,2,0,1,2,0,1,2,0,1,2,0,1,2,0,1,2,0,1,2,0,1,2,0,1,2,0,1,2,0,1,2,0,1,2,0,1,2,0,1,2,0,1,2,0,1,2,0,1,2,0,1,2,0,1,2,0,1,2,0,1,2,0,1,2,0,1,2,0,1,2,0,1,2,0,1,2,0,1,2,0,1,2,0,1,2,0,1,2,0,1,2,0,1,2,0,1,2,0,1,2,0,1,2,0,1,2,0,1,2,0,1,2,0,1,2,0,1,2,0,1,2,0,1,2,0,1,2,0,1,2,0,1,2,0,1,2,0,1,2,0,1,2,0,1,2,0,1,2,0,1,2,0,1,2,0,1,2,0,1,2,0,1,2,0,1,2,0,1,2,0,1,2,0,1,2,0,1,2,0,1,2,0,1,2,0,1,2,0,1,2,0,1,2,0,1,2,0,1,2,0,1,2,0,1,2,0,1,2,0,1,2,0,1,2,0,1,2,0,1,2,0,1,2,0,1,2,0,1,2,0,1,2,0,1,2,0,1,2,0,1,2,0,1,2,0,1,2,0,1,2,0,1,2,0,1,2,0,1,2,0,1,2,0,1,2,0,1,2,0,1,2,0,1,2,0,1,2,0,1,2,0,1,2,0,1,2,0,1,2,0,1,2,0,1,2,0,1,2,0,1,2,0,1,2,0,1,2,0,1,2,0,1,2,0,1,2,0,1,2,0,1,2,0,1,2,0,1,2,0,1,2,0,1,2,0,1,2,0,1,2,0,1,2,0,1,2,0,1,2,0,1,2,0,1,2,0,1,2,0,1,2,0,1,2,0,1,2,0,1,2,0,1,2,0,1,2,0,1,2,0,1,2,0,1,2,0,1,2,0,1,2,0,1,2,0,1,2,0,1,2,0,1,2,0,1,2,0,1,2,0,1,2,0,1,2,0,1,2,0,1,2,0,1,2,0,1,2,0,1,2,0,1,2,0,1,2,0,1,2,0,1,2,0,1,2,0,1,2,0,1,2,0,1,2,0,1,2,0,1,2,0,1,2,0,1,2,0,1,2,0,1,2,0,1,2,0,1,2,0,1,2,0,1,2,0,1,2,0,1,2,0,1,2,0,1,2,0,1,2,0,1,2,0,1,2,0,1,2,0,1,2,0,1,2,0,1,2,0,1,2,0,1,2,0,1,2,0,1,2,0,1,2,0,1,2,0,1,2,0,1,2,0,1,2,0,1,2,0,1,2,0,1,2,0,1,2,0,1,2,0,1,2,0,1,2,0,1,2,0,1,2,0,1,2,0,1,2,0,1,2,0,1,2,0,1,2,0,1,2,0,1,2,0,1,2,0,1,2,0,1,2,0,1,2,0,1,2,0,1,2,0,1,2,0,1,2,0,1,2,0,1,2,0,1,2,0,1,2,0,1,2,0,1,2,0,1,2,0,1,2,0,1,2,0,1,2,0,1,2,0,1,2,0,1,2,0,1,2,0,1,2,0,1,2,0,1,2,0,1,2,0,1,2,0,1,2,0,1,2,0,1,2,0,1,2,0,1,2,0,1,2,0,1,2,0,1,2,0,1,2,0,1,2,0,1,2,0,1,2,0,1,2,0,1,2,0,1,2,0,1,2,0,1,2,0,1,2,0,1,2,0,1,2,0,1,2,0,1,2,0,1,2,0,1,2,0,1,2,0,1,2,0,1,2,0,1,2,0,1,2,0,1,2,0,1,2,0,1,2,0,1,2,0,1,2,0,1,2,0,1,2,0,1,2,0,1,2,0,1,2,0,1,2,0,1,2,0,1,2,0,1,2,0,1,2,0,1,2,0,1,2,0,1,2,0,1,2,0,1,2,0,1,2,0,1,2,0,1,2,0,1,2,0,1,2,0,1,2,0,1,2,0,1,2,0,1,2,0,1,2,0,1,2,0,1,2,0,1,2,0,1,2,0,1,2,0,1,2,0,1,2,0,1,2,0,1,2,0,1,2,0,1,2,0,1,2,0,1,2,0,1,2,0,1,2,0,1,2,0,1,2,0,1,2,0,1,2,0,1,2,0,1,2,0,1,2,0,1,2,0,1,2,0,1,2,0,1,2,0,1,2,0,1,2,0,1,2,0,1,2,0,1,2,0,1,2,0,1,2,0,1,2,0,1,2,0,1,2,0,1,2,0,1,2,0,1,2,0,1,2,0,1,2,0,1,2,0,1,2,0,1,2,0,1,2,0,1,2,0,1,2,0,1,2,0,1,2,0,1,2,0,1,2,0,1,2,0,1,2,0,1,2,0,1,2,0,1,2,0,1,2,0,1,2,0,1,2,0,1,2,0,1,2,0,1,2,0,1,2,0,1,2,0,1,2,0,1,2,0,1,2,0,1,2,0,1,2,0,1,2,0,1,2,0,1,2,0,1,2,0,1,2,0,1,2,0,1,2,0,1,2,0,1,2,0,1,2,0,1,2,0,1,2,0,1,2,0,1,2,0,1,2,0,1,2,0,1,2,0,1,2,0,1,2,0,1,2,0,1,2,0,1,2,0,1,2,0,1,2,0,1,2,0,1,2,0,1,2,0,1,2,0,1,2,0,1,2,0,1,2,0,1,2,0,1,2,0,1,2,0,1,2,0,1,2,0,1,2,0,1,2,0,1,2,0,1,2,0,1,2,0,1,2,0,1,2,0,1,2,0,1,2,0,1,2,0,1,2,0,1,2,0,1,2,0,1,2,0,1,2,0,1,2,0,1,2,0,1,2,0,1,2,0,1,2,0,1,2,0,1,2,0,1,2,0,1,2,0,1,2,0,1,2,0,1,2,0,1,2,0,1,2,0,1,2,0,1,2,0,1,2,0,1,2,0,1,2,0,1,2,0,1,2,0,1,2,0,1,2,0,1,2,0,1,2,0,1,2,0,1,2,0,1,2,0,1,2,0,1,2,0,1,2,0,1,2,0,1,2,0,1,2,0,1,2,0,1,2,0,1,2,0,1,2,0,1,2,0,1,2,0,1,2,0,1,2,0,1,2,0,1,2,0,1,2,0,1,2,0,1,2,0,1,2,0,1,2,0,1,2,0,1,2,0,1,2,0,1,2,0,1,2,0,1,2,0,1,2,0,1,2,0,1,2,0,1,2,0,1,2,0,1,2,0,1,2,0,1,2,0,1,2,0,1,2,0,1,2,0,1,2,0,1,2,0,1,2,0,1,2,0,1,2,0,1,2,0,1,2,0,1,2,0,1,2,0,1,2,0,1,2,0,1,2,0,1,2,0,1,2,0,1,2,0,1,2,0,1,2,0,1,2,0,1,2,0,1,2,0,1,2,0,1,2,0,1,2,0,1,2,0,1,2,0,1,2,0,1,2,0,1,2,0,1,2,0,1,2,0,1,2,0,1,2,0,1,2,0,1,2,0,1,2,0,1,2,0,1,2,0,1,2,0,1,2,0,1,2,0,1,2,0,1,2,0,1,2,0,1,2,0,1,2,0,1,2,0,1,2,0,1,2,0,1,2,0,1,2,0,1,2,0,1,2,0,1,2,0,1,2,0,1,2,0,1,2,0,1,2,0,1,2,0,1,2,0,1,2,0,1,2,0,1,2,0,1,2,0,1,2,0,1,2,0,1,2,0,1,2,0,1,2,0,1,2,0,1,2,0,1,2,0,1,2,0,1,2,0,1,2,0,1,2,0,1,2,0,1,2,0,1,2,0,1,2,0,1,2,0,1,2,0,1,2,0,1,2,0,1,2,0,1,2,0,1,2,0,1,2,0,1,2,0,1,2,0,1,2,0,1,2,0,1,2,0,1,2,0,1,2,0,1,2,0,1,2,0,1,2,0,1,2,0,1,2,0,1,2,0,1,2,0,1,2,0,1,2,0,1,2,0,1,2,0,1,2,0,1,2,0,1,2,0,1,2,0,1,2,0,1,2,0,1,2,0,1,2,0,1,2,0,1,2,0,1,2,0,1,2,0,1,2,0,1,2,0,1,2,0,1,2,0,1,2,0,1,2,0,1,2,0,1,2,0,1,2,0,1,2,0,1,2,0,1,2,0,1,2,0,1,2,0,1,2,0,1,2,0,1,2,0,1,2,0,1,2,0,1,2,0,1,2,0,1,2,0,1,2,0,1,2,0,1,2,0,1,2,0,1,2,0,1,2,0,1,2,0,1,2,0,1,2,0,1,2,0,1,2,0,1,2,0,1,2,0,1,2,0,1,2,0,1,2,0,1,2,0,1,2,0,1,2,0,1,2,0,1,2,0,1,2,0,1,2,0,1,2,0,1,2,0,1,2,0,1,2,0,1,2,0,1,2,0,1,2,0,1,2,0,1,2,0,1,2,0,1,2,0,1,2,0,1,2,0,1,2,0,1,2,0,1,2,0,1,2,0,1,2,0,1,2,0,1,2,0,1,2,0,1,2,0,1,2,0,1,2,0,1,2,0,1,2,0,1,2,0,1,2,0,1,2,0,1,2,0,1,2,0,1,2,0,1,2,0,1,2,0,1,2,0,1,2,0,1,2,0,1,2,0,1,2,0,1,2,0,1,2,0,1,2,0,1,2,0,1,2,0,1,2,0,1,2,0,1,2,0,1,2,0,1,2,0,1,2,0,1,2,0,1,2,0,1,2,0,1,2,0,1,2,0,1,2,0,1,2,0,1,2,0,1,2,0,1,2,0,1,2,0,1,2,0,1,2,0,1,2,0,1,2,0,1,2,0,1,2,0,1,2,0,1,2,0,1,2,0,1,2,0,1,2,0,1,2,0,1,2,0,1,2,0,1,2,0,1,2,0,1,2,0,1,2,0,1,2,0,1,2,0,1,2,0,1,2,0,1,2,0,1,2,0,1,2,0,1,2,0,1,2,0,1,2,0,1,2,0,1,2,0,1,2,0,1,2,0,1,2,0,1,2,0,1,2,0,1,2,0,1,2,0,1,2,0,1,2,0,1,2,0,1,2,0,1,2,0,1,2,0,1,2,0,1,2,0,1,2],"trees":[{"base_weights":[-6.3092786E-1,-1.0812438E0,3.4632036E-1,9.268293E-1,-1.1625E0,6.768448E-1,-1.4520547E0,1.1351352E0,-5E-1,3.1746034E-2,-1.2408435E0,8.795518E-1,-1.2E0,-1.8181819E0,1.2727273E0,1.375E0,-2.2222222E-1,-1.125E0,1.0857143E0,-1.4728682E0,-9.203085E-1,1.1111112E0,4.8780486E-2,-1.7647059E0,1.2E0,-5E-1,-1.8709677E0,1.5714285E0,-0E0,-1.5555556E0,6.666667E-1,1.5714285E0,-5.4545456E-1,-1.641791E0,-8.4745765E-1,-1.0514286E0,2.3255815E-1,1.8481013E0,8.039216E-1,-1.0769231E0,9.787234E-1,-1.6759493E0,1.8181819E-1,1.4285715E-1,-1.106383E0,-4.347826E-1,-1.2519084E0,-4.6153846E-1,1.0476191E0,1.8933333E0,5E-1,9.263158E-1,-6.666667E-1,-1.5151515E0,8E-1,1.255814E0,-1E0],"categories":[],"categories_nodes":[],"categories_segments":[],"categories_sizes":[],"default_left":[1,1,1,1,1,1,1,1,0,1,1,1,1,1,0,1,0,1,1,1,1,1,1,0,0,0,0,0,0,0,0,0,0,1,1,1,1,1,1,1,1,0,0,0,0,0,0,0,0,0,0,0,0,0,0,0,0],"id":0,"left_children":[1,3,5,7,9,11,13,15,-1,17,19,21,23,25,-1,27,-1,29,31,33,35,37,39,-1,-1,-1,-1,-1,-1,-1,-1,-1,-1,41,43,45,47,49,51,53,55,-1,-1,-1,-1,-1,-1,-1,-1,-1,-1,-1,-1,-1,-1,-1,-1],"loss_changes":[1.6045004E2,4.1747192E1,6.963681E1,3.6140404E0,2.249414E1,3.843464E1,2.052055E1,3.317192E0,0E0,2.0423412E1,1.539682E1,1.7115082E1,1.5670589E1,2.1260834E-1,0E0,2.160715E0,0E0,7.208334E0,7.789612E0,1.2236969E1,1.4945221E1,1.43053665E1,2.251423E1,0E0,0E0,0E0,0E0,0E0,0E0,0E0,0E0,0E0,0E0,6.565033E0,7.722372E0,1.0272881E1,6.565125E0,2.5763702E-1,9.7971115E0,9.231702E0,7.6981697E0,0E0,0E0,0E0,0E0,0E0,0E0,0E0,0E0,0E0,0E0,0E0,0E0,0E0,0E0,0E0,0E0],"parents":[2147483647,0,0,1,1,2,2,3,3,4,4,5,5,6,6,7,7,9,9,10,10,11,11,12,12,13,13,15,15,17,17,18,18,19,19,20,20,21,21,22,22,33,33,34,34,35,35,36,36,37,37,38,38,39,39,40,40],"right_children":[2,4,6,8,10,12,14,16,-1,18,20,22,24,26,-1,28,-1,30,32,34,36,38,40,-1,-1,-1,-1,-1,-1,-1,-1,-1,-1,42,44,46,48,50,52,54,56,-1,-1,-1,-1,-1,-1,-1,-1,-1,-1,-1,-1,-1,-1,-1,-1],"split_conditions":[-3.291631E2,-1.523597E1,1.1115938E1,4.5850987E0,7.861804E1,5.6017566E0,2.0045095E1,4.0034027E0,-1.5E-1,-1.2054302E0,-3.9946158E2,5.5421457E0,1.0543406E1,-1.1123863E1,3.818182E-1,-1.6196682E1,-6.666667E-2,1.7863975E0,3.7422194E0,-1.2356292E0,6.7275834E-1,-4.4962593E1,-1.089973E0,-5.294118E-1,3.6E-1,-1.5E-1,-5.612903E-1,4.7142857E-1,-0E0,-4.666667E-1,2.0000002E-1,4.7142857E-1,-1.6363637E-1,2.0186916E1,-7.104517E-1,-2.730993E0,4.684388E-1,1.4273939E1,5.403097E0,2.2254405E0,-2.6437366E-1,-5.0278485E-1,5.454546E-2,4.2857148E-2,-3.319149E-1,-1.3043478E-1,-3.7557253E-1,-1.3846155E-1,3.1428576E-1,5.68E-1,1.5E-1,2.7789474E-1,-2.0000002E-1,-4.5454547E-1,2.4000001E-1,3.767442E-1,-3E-1],"split_indices":[0,8,23,39,1,26,12,27,0,35,0,8,14,7,0,8,0,32,25,31,15,2,30,0,0,0,0,0,0,0,0,0,0,4,31,25,8,19,34,33,24,0,0,0,0,0,0,0,0,0,0,0,0,0,0,0,0],"split_type":[0,0,0,0,0,0,0,0,0,0,0,0,0,0,0,0,0,0,0,0,0,0,0,0,0,0,0,0,0,0,0,0,0,0,0,0,0,0,0,0,0,0,0,0,0,0,0,0,0,0,0,0,0,0,0,0,0],"sum_hessian":[3.6275E2,2.4825E2,1.145E2,9.25E0,2.39E2,9.725E1,1.725E1,8.25E0,1E0,1.475E1,2.2425E2,8.825E1,9E0,1.55E1,1.75E0,7E0,1.25E0,7E0,7.75E0,1.28E2,9.625E1,6.875E1,1.95E1,7.5E0,1.5E0,1E0,1.45E1,6E0,1E0,5.75E0,1.25E0,6E0,1.75E0,9.95E1,2.85E1,8.65E1,9.75E0,1.875E1,5E1,8.75E0,1.075E1,9.775E1,1.75E0,6E0,2.25E1,2.2E1,6.45E1,5.5E0,4.25E0,1.775E1,1E0,4.65E1,3.5E0,7.25E0,1.5E0,9.75E0,1E0],"tree_param":{"num_deleted":"0","num_feature":"40","num_nodes":"57","size_leaf_vector":"0"}},{"base_weights":[-6.034364E-1,-7.0929366E-1,6.666667E-1,-5.590062E-1,-1.4594594E0,1.1020408E0,-1.6E0,-3.796034E-1,-8.517647E-1,-1.7078651E0,-4.1666666E-1,1.3563218E0,-6.666667E-1,-1.6432866E-1,-8.815166E-1,-1.0708215E0,2.1052632E-1,5E-1,-1.7701149E0,-7.619048E-1,1.2E0,-5E-1,1.4698795E0,-1.2727273E0,5E-1,8.813559E-2,-5.192308E-1,7.692308E-1,-9.7029704E-1,3.2258064E-1,-1.190184E0,9.019608E-1,-1.0344827E0,-1.8343195E0,2.2222222E-1,-1.5714285E0,6.666667E-1,1.7419355E0,5.6E-1,2.8333333E-1,-7.118644E-1,-1.1764706E0,-1.9444445E-1,1.1111112E0,-0E0,-1.3707865E0,-6.3247865E-1,1.1304348E0,-1.3333334E0,-1.2375E0,8E-1,-1E0,1.1489362E0,6.666667E-1,-1.5E0,-1.8181819E-1,-1.9012346E0,-6.666667E-1,1.3846154E0,1.8571428E0,4E-1,-3.3333334E-1,1.0588236E0],"categories":[],"categories_nodes":[],"categories_segments":[],"categories_sizes":[],"default_left":[1,1,1,1,1,1,0,1,1,1,1,1,1,1,1,1,1,0,1,1,0,0,1,0,0,1,1,1,1,1,1,1,1,1,0,0,1,1,1,0,0,0,0,0,0,0,0,0,0,0,0,0,0,0,0,0,0,0,0,0,0,0,0],"id":1,"left_children":[1,3,5,7,9,11,-1,13,15,17,19,21,23,25,27,29,31,-1,33,35,-1,-1,37,-1,-1,39,41,43,45,47,49,51,53,55,-1,-1,57,59,61,-1,-1,-1,-1,-1,-1,-1,-1,-1,-1,-1,-1,-1,-1,-1,-1,-1,-1,-1,-1,-1,-1,-1,-1],"loss_changes":[4.937892E1,3.7093155E1,2.9888435E1,1.4474655E1,1.3664871E1,1.1923059E1,0E0,1.8925829E1,2.4950027E1,7.0010834E0,7.611905E0,5.319832E0,3.287879E0,1.1223375E1,8.477112E0,1.5061668E1,1.7289064E1,0E0,5.9720306E0,1.3190477E1,0E0,0E0,4.1609306E0,0E0,0E0,1.1718361E1,1.0871291E1,8.547008E-1,5.96529E0,1.1874708E1,8.664642E0,7.13809E0,6.7413793E0,4.3262177E0,0E0,0E0,5.230769E0,1.6534576E0,3.138039E0,0E0,0E0,0E0,0E0,0E0,0E0,0E0,0E0,0E0,0E0,0E0,0E0,0E0,0E0,0E0,0E0,0E0,0E0,0E0,0E0,0E0,0E0,0E0,0E0],"parents":[2147483647,0,0,1,1,2,2,3,3,4,4,5,5,7,7,8,8,9,9,10,10,11,11,12,12,13,13,14,14,15,15,16,16,18,18,19,19,22,22,25,25,26,26,27,27,28,28,29,29,30,30,31,31,32,32,33,33,36,36,37,37,38,38],"right_children":[2,4,6,8,10,12,-1,14,16,18,20,22,24,26,28,30,32,-1,34,36,-1,-1,38,-1,-1,40,42,44,46,48,50,52,54,56,-1,-1,58,60,62,-1,-1,-1,-1,-1,-1,-1,-1,-1,-1,-1,-1,-1,-1,-1,-1,-1,-1,-1,-1,-1,-1,-1,-1],"split_conditions":[5.3132677E0,-2.9042017E2,1.0405462E1,3.08889E-1,3.0669743E-1,1.0230563E0,-4.8000002E-1,-1.0531201E0,2.8652316E-1,-4.8991537E0,6.8325714E1,-2.0163906E1,-5.9761505E0,-1.2620019E0,-3.6785812E0,-1.5762336E1,-1.3060153E0,1.5E-1,9.686838E0,5.600484E0,3.6E-1,-1.5E-1,-1.9191313E0,-3.818182E-1,1.5E-1,-6.7605925E-1,-2.464066E0,-4.089224E2,-4.332206E0,-2.6887981E1,1.3735867E1,-3.1497677E1,-4.036603E2,-4.705208E0,6.666667E-2,-4.7142857E-1,-2.4698138E0,1.1994181E0,-3.4260232E0,8.5E-2,-2.1355933E-1,-3.5294122E-1,-5.8333337E-2,3.3333337E-1,-0E0,-4.11236E-1,-1.8974361E-1,3.3913043E-1,-4.0000004E-1,-3.7125E-1,2.4000001E-1,-3E-1,3.4468085E-1,2.0000002E-1,-4.5000002E-1,-5.454546E-2,-5.7037044E-1,-2.0000002E-1,4.1538465E-1,5.5714285E-1,1.20000005E-1,-1.0000001E-1,3.176471E-1],"split_indices":[26,0,12,39,29,2,0,33,27,39,3,10,8,24,39,15,18,0,34,8,0,0,18,0,0,36,37,0,15,2,12,4,0,23,0,0,27,20,20,0,0,0,0,0,0,0,0,0,0,0,0,0,0,0,0,0,0,0,0,0,0,0,0],"split_type":[0,0,0,0,0,0,0,0,0,0,0,0,0,0,0,0,0,0,0,0,0,0,0,0,0,0,0,0,0,0,0,0,0,0,0,0,0,0,0,0,0,0,0,0,0,0,0,0,0,0,0,0,0,0,0,0,0,0,0,0,0,0,0],"sum_hessian":[3.6275E2,3.3525E2,2.75E1,2.8075E2,5.45E1,2.35E1,4E0,1.755E2,1.0525E2,4.35E1,1.1E1,2.075E1,2.75E0,1.2375E2,5.175E1,8.725E1,1.8E1,1E0,4.25E1,9.5E0,1.5E0,1E0,1.975E1,1.75E0,1E0,7.275E1,5.1E1,2.25E0,4.95E1,6.75E0,8.05E1,1.175E1,6.25E0,4.125E1,1.25E0,6E0,3.5E0,1.45E1,5.25E0,5.9E1,1.375E1,1.6E1,3.5E1,1.25E0,1E0,2.125E1,2.825E1,4.75E0,2E0,7.9E1,1.5E0,1E0,1.075E1,1.25E0,5E0,1.75E0,3.95E1,1.25E0,2.25E0,1.3E1,1.5E0,2E0,3.25E0],"tree_param":{"num_deleted":"0","num_feature":"40","num_nodes":"63","size_leaf_vector":"0"}},{"base_weights":[-7.6013744E-1,-2.0838971E-1,-1.3222222E0,-4.4444445E-1,7.38255E-1,-1.5109718E0,1.3953489E-1,-5.4545456E-1,1.1351352E0,1.04E0,-7.1428573E-1,-1.0794979E0,-1.7518611E0,9.818182E-1,-1.2E0,-8.292683E-1,-0E0,1.6923077E0,-1.3333334E-1,-3.3333334E-1,1.3142858E0,6.666667E-1,-1.1304348E0,-1.5272727E0,-6.766917E-1,-1.8692098E0,-5E-1,1.3333334E0,-9.0909094E-1,-1.6E0,6.666667E-1,1.8867925E-1,-9.875E-1,-7.8571427E-1,3.0555555E-1,1.1111112E0,-1.2E0,7.692308E-1,-1.2E0,1.5051546E0,-6.666667E-1,2.2222222E-1,-1.5555556E0,-1.7083334E0,-2.2222222E-1,-8.429752E-1,7.5E-1,-1.8898071E0,-0E0,6.666667E-1,-1.2307693E0,1.6842105E0,-0E0,1.4482758E0,-1.1428572E0,-1.0921053E0,8E-1,5E-1,-1.1818181E0,7.8431374E-1,-7.826087E-1,1.1111112E0,-0E0,-1.8181819E-1,1.6444445E0,-1E0,-0E0,-0E0,-1.7826087E0,-8.5714287E-1,1E0,-9.655172E-1,1.1111112E0,-5E-1,1.3333334E0,-4E-1,-1.9103642E0,1.4285715E0,-1E0,5E-1,-1.6363636E0,5E-1,1.7647059E0,1.1111112E0,-1.1111112E0],"categories":[],"categories_nodes":[],"categories_segments":[],"categories_sizes":[],"default_left":[1,1,1,1,1,1,1,1,1,1,1,1,1,1,1,1,1,0,1,1,1,0,1,1,1,1,1,1,0,0,0,1,1,1,1,0,0,1,0,1,1,0,0,1,1,1,1,1,0,1,1,1,1,0,0,0,0,0,0,0,0,0,0,0,0,0,0,0,0,0,0,0,0,0,0,0,0,0,0,0,0,0,0,0,0],"id":2,"left_children":[1,3,5,7,9,11,13,15,17,19,21,23,25,27,29,31,33,-1,35,37,39,-1,41,43,45,47,49,51,-1,-1,-1,53,55,57,59,-1,-1,61,-1,63,65,-1,-1,67,69,71,73,75,-1,77,79,81,83,-1,-1,-1,-1,-1,-1,-1,-1,-1,-1,-1,-1,-1,-1,-1,-1,-1,-1,-1,-1,-1,-1,-1,-1,-1,-1,-1,-1,-1,-1,-1,-1],"loss_changes":[1.12533905E2,4.1612343E1,4.98739E1,2.4312857E1,1.7069416E1,1.468689E1,2.5435942E1,2.1711754E1,6.763134E0,1.2209526E1,4.7763977E0,9.743401E0,1.3866028E1,1.0351517E1,7.6000004E0,1.5045166E1,1.2003969E1,0E0,6.311111E0,6.6564107E0,1.0928619E1,0E0,3.652174E0,6.118431E0,8.520305E0,3.5324402E0,9.346154E0,5.6140347E0,0E0,0E0,0E0,2.3878056E1,1.5832237E1,7.7207785E0,1.9368643E1,0E0,0E0,8.547008E-1,0E0,5.9972076E0,6.666666E-1,0E0,0E0,3.0452957E0,4.349206E0,8.316391E0,3.5833335E0,2.0151672E0,0E0,7.1428566E0,5.381119E0,2.3220062E-2,5.5555553E0,0E0,0E0,0E0,0E0,0E0,0E0,0E0,0E0,0E0,0E0,0E0,0E0,0E0,0E0,0E0,0E0,0E0,0E0,0E0,0E0,0E0,0E0,0E0,0E0,0E0,0E0,0E0,0E0,0E0,0E0,0E0,0E0],"parents":[2147483647,0,0,1,1,2,2,3,3,4,4,5,5,6,6,7,7,8,8,9,9,10,10,11,11,12,12,13,13,14,14,15,15,16,16,18,18,19,19,20,20,22,22,23,23,24,24,25,25,26,26,27,27,31,31,32,32,33,33,34,34,37,37,39,39,40,40,43,43,44,44,45,45,46,46,47,47,49,49,50,50,51,51,52,52],"right_children":[2,4,6,8,10,12,14,16,18,20,22,24,26,28,30,32,34,-1,36,38,40,-1,42,44,46,48,50,52,-1,-1,-1,54,56,58,60,-1,-1,62,-1,64,66,-1,-1,68,70,72,74,76,-1,78,80,82,84,-1,-1,-1,-1,-1,-1,-1,-1,-1,-1,-1,-1,-1,-1,-1,-1,-1,-1,-1,-1,-1,-1,-1,-1,-1,-1,-1,-1,-1,-1,-1,-1],"split_conditions":[-3.7419785E2,5.0177917E0,1.105886E1,4.9084125E0,1.4557788E0,-3.3343524E2,-2.0524921E0,2.1006708E1,-4.032389E2,1.9361267E1,-3.8576236E0,6.334794E0,5.118791E0,1.1608274E1,2.2495167E0,-9.9546995E0,-4.8759394E0,5.0769234E-1,-2.0451817E1,-3.1201914E-1,2.1051743E0,2.0000002E-1,-1.4939323E1,-3.4292224E-1,4.24605E0,1.7369244E2,1.6077166E0,-2.7335472E0,-2.7272728E-1,-4.8000002E-1,2.0000002E-1,-2.8970172E0,2.4618793E0,-4.6051884E1,-1.5437274E0,3.3333337E-1,-3.6E-1,-4.1838464E2,-3.6E-1,-3.209446E0,1.3321538E2,6.666667E-2,-4.666667E-1,-1.0869732E1,-5.905383E0,1.5860623E2,9.214386E1,-1.0370001E1,-0E0,-1.1591518E0,-5.2500477E0,7.193768E1,-4.418236E0,4.3448275E-1,-3.4285718E-1,-3.276316E-1,2.4000001E-1,1.5E-1,-3.5454544E-1,2.3529413E-1,-2.3478262E-1,3.3333337E-1,-0E0,-5.454546E-2,4.9333337E-1,-3E-1,-0E0,-0E0,-5.3478265E-1,-2.5714287E-1,3E-1,-2.8965518E-1,3.3333337E-1,-1.5E-1,4.0000004E-1,-1.20000005E-1,-5.7310927E-1,4.2857146E-1,-3E-1,1.5E-1,-4.909091E-1,1.5E-1,5.294118E-1,3.3333337E-1,-3.3333337E-1],"split_indices":[0,8,23,37,18,0,33,5,0,3,35,5,20,8,20,20,33,0,6,39,25,0,2,4,23,1,10,29,0,0,0,24,20,2,31,0,0,0,0,35,1,0,0,17,13,1,1,24,0,27,32,1,10,0,0,0,0,0,0,0,0,0,0,0,0,0,0,0,0,0,0,0,0,0,0,0,0,0,0,0,0,0,0,0,0],"split_type":[0,0,0,0,0,0,0,0,0,0,0,0,0,0,0,0,0,0,0,0,0,0,0,0,0,0,0,0,0,0,0,0,0,0,0,0,0,0,0,0,0,0,0,0,0,0,0,0,0,0,0,0,0,0,0,0,0,0,0,0,0,0,0,0,0,0,0,0,0,0,0,0,0,0,0,0,0,0,0,0,0,0,0,0,0],"sum_hessian":[3.6275E2,1.8375E2,1.79E2,1.475E2,3.625E1,1.585E2,2.05E1,1.3925E2,8.25E0,3.025E1,6E0,5.875E1,9.975E1,1.275E1,7.75E0,9.125E1,4.8E1,5.5E0,2.75E0,5E0,2.525E1,1.25E0,4.75E0,2.65E1,3.225E1,9.075E1,9E0,1.1E1,1.75E0,6.5E0,1.25E0,1.225E1,7.9E1,1.3E1,3.5E1,1.25E0,1.5E0,2.25E0,2.75E0,2.325E1,2E0,1.25E0,3.5E0,2.3E1,3.5E0,2.925E1,3E0,8.975E1,1E0,3.5E0,5.5E0,8.5E0,2.5E0,6.25E0,6E0,7.5E1,4E0,3E0,1E1,2.45E1,1.05E1,1.25E0,1E0,1.75E0,2.15E1,1E0,1E0,1E0,2.2E1,2.5E0,1E0,2.8E1,1.25E0,1E0,2E0,1.5E0,8.825E1,2.5E0,1E0,1E0,4.5E0,1E0,7.5E0,1.25E0,1.25E0],"tree_param":{"num_deleted":"0","num_feature":"40","num_nodes":"85","size_leaf_vector":"0"}},{"base_weights":[-4.6557733E-1,-7.5405425E-1,3.882977E-1,1.1676497E-1,-8.7776124E-1,6.7244494E-1,-1.052869E0,9.323285E-1,-2.3057164E-1,-2.78904E-1,-9.982445E-1,1.5511668E0,3.3793733E-1,-1.4099422E0,1.1025252E0,1.4230547E0,-4.1720644E-2,5.157494E-1,-7.2428095E-1,-1.0524184E0,1.460935E-1,3.1000149E-2,-1.0544806E0,4.5906228E-1,1.5939273E0,5.387521E-1,-1.2280535E0,1.6224076E0,2.6995966E-1,7.942069E-1,-1.0193565E0,9.4069E-1,-5.997809E-1,-1.1391348E0,2.3712823E-1,-1.2151071E0,3.871308E-1,1.0801553E0,-2.4418712E-1,-1.1897895E0,7.477134E-1,-7.329795E-1,-1.2504611E0,-1.283757E0,6.693069E-1,1.3959663E0,-6.233675E-1,1.7496432E-1,-1.0956553E0,-1.344547E0,9.4254926E-2,-6.494452E-1,1.0486839E0,-1.3399982E0,1.123218E-2,-8.276162E-3,1.6207258E0,7.9400593E-1,-5.095761E-1,-9.550738E-1,1.3090986E0,-1.003379E0,9.49586E-3,6.40434E-1,-1.2812883E0,1.3996196E0,3.6906812E-1],"categories":[],"categories_nodes":[],"categories_segments":[],"categories_sizes":[],"default_left":[1,1,1,1,1,1,1,1,1,1,1,1,1,0,0,1,1,1,1,1,1,1,1,0,0,1,0,0,0,0,0,1,1,1,1,1,0,1,1,0,1,1,1,0,1,0,0,0,0,0,0,0,0,0,0,0,0,0,0,0,0,0,0,0,0,0,0],"id":3,"left_children":[1,3,5,7,9,11,13,15,17,19,21,23,25,-1,-1,27,29,31,33,35,37,39,41,-1,-1,43,-1,-1,-1,-1,-1,45,47,49,51,53,-1,55,57,-1,59,61,63,-1,65,-1,-1,-1,-1,-1,-1,-1,-1,-1,-1,-1,-1,-1,-1,-1,-1,-1,-1,-1,-1,-1,-1],"loss_changes":[8.6274414E1,2.8246262E1,3.7075127E1,9.670464E0,1.623529E1,2.1460117E1,1.3111155E1,4.9195967E0,9.294537E0,1.3212016E1,1.1038757E1,2.182846E-1,1.8098948E1,0E0,0E0,1.122858E0,4.3874145E0,5.4105396E0,6.2478333E0,3.7977715E0,9.929516E0,1.0358993E1,1.0445557E1,0E0,0E0,1.2718475E1,0E0,0E0,0E0,0E0,0E0,6.4192505E0,1.5097482E0,2.8229427E0,4.5271587E0,2.0071125E0,0E0,4.7193117E0,5.781847E0,0E0,8.355906E0,1.4205696E1,7.268631E0,0E0,9.825771E0,0E0,0E0,0E0,0E0,0E0,0E0,0E0,0E0,0E0,0E0,0E0,0E0,0E0,0E0,0E0,0E0,0E0,0E0,0E0,0E0,0E0,0E0],"parents":[2147483647,0,0,1,1,2,2,3,3,4,4,5,5,6,6,7,7,8,8,9,9,10,10,11,11,12,12,15,15,16,16,17,17,18,18,19,19,20,20,21,21,22,22,25,25,31,31,32,32,33,33,34,34,35,35,37,37,38,38,40,40,41,41,42,42,44,44],"right_children":[2,4,6,8,10,12,14,16,18,20,22,24,26,-1,-1,28,30,32,34,36,38,40,42,-1,-1,44,-1,-1,-1,-1,-1,46,48,50,52,54,-1,56,58,-1,60,62,64,-1,66,-1,-1,-1,-1,-1,-1,-1,-1,-1,-1,-1,-1,-1,-1,-1,-1,-1,-1,-1,-1,-1,-1],"split_conditions":[-3.1428857E2,-1.0767896E1,1.1115938E1,-9.084662E0,2.0088669E1,8.159108E1,-3.0332956E0,3.1881304E0,-3.1295917E0,-1.721609E0,7.304705E1,-1.5910874E1,5.6017566E0,-4.2298266E-1,3.307576E-1,1.3739929E2,-1.4963341E1,1.2454851E2,9.879831E-1,4.4164505E0,-7.6924477E0,-6.4195795E0,-6.0365844E0,1.3771869E-1,4.781782E-1,-6.610351E0,-3.6841604E-1,4.867223E-1,8.09879E-2,2.3826209E-1,-3.0580696E-1,-6.2925905E-1,6.7421536E0,6.605849E0,9.024675E-1,2.8666244E0,1.1613924E-1,-2.007074E0,-2.3759073E1,-3.5693687E-1,-1.2811418E0,-7.168453E0,-6.140518E0,-3.851271E-1,-7.7909737E0,4.187899E-1,-1.8701026E-1,5.24893E-2,-3.286966E-1,-4.0336412E-1,2.8276479E-2,-1.9483356E-1,3.1460518E-1,-4.019995E-1,3.369654E-3,-2.4828487E-3,4.8621774E-1,2.3820178E-1,-1.5287283E-1,-2.8652215E-1,3.927296E-1,-3.010137E-1,2.8487581E-3,1.9213022E-1,-3.843865E-1,4.198859E-1,1.1072044E-1],"split_indices":[0,8,23,15,3,1,13,32,19,37,1,15,26,0,0,1,8,1,35,11,9,15,22,0,0,33,0,0,0,0,0,29,4,6,27,9,0,34,4,0,32,2,38,0,10,0,0,0,0,0,0,0,0,0,0,0,0,0,0,0,0,0,0,0,0,0,0],"split_type":[0,0,0,0,0,0,0,0,0,0,0,0,0,0,0,0,0,0,0,0,0,0,0,0,0,0,0,0,0,0,0,0,0,0,0,0,0,0,0,0,0,0,0,0,0,0,0,0,0,0,0,0,0,0,0,0,0,0,0,0,0,0,0,0,0,0,0],"sum_hessian":[3.480601E2,2.6025223E2,8.780785E1,3.23792E1,2.2787303E2,7.379206E1,1.4015791E1,9.168018E0,2.3211182E1,3.8721962E1,1.8915106E2,1.934288E1,5.4449184E1,1.232056E1,1.695231E0,5.7900314E0,3.377987E0,9.223595E0,1.3987588E1,1.3207476E1,2.5514486E1,9.822681E0,1.7932838E2,1.1710073E0,1.8171873E1,4.884191E1,5.6072736E0,4.5895624E0,1.2004691E0,1.922111E0,1.455876E0,6.7927537E0,2.4308407E0,9.642103E0,4.3454843E0,1.200649E1,1.2009854E0,6.9981413E0,1.8516346E1,3.3893986E0,6.4332824E0,6.971037E1,1.0961801E2,2.6744351E0,4.6167477E1,5.3445096E0,1.4482442E0,1.2012264E0,1.2296145E0,8.18828E0,1.4538233E0,2.1722217E0,2.1732626E0,1.0812642E1,1.1938479E0,2.649035E0,4.3491063E0,3.364128E0,1.5152218E1,1.4212086E0,5.012074E0,5.0842735E1,1.8867636E1,1.4412142E0,1.08176796E2,1.2383549E1,3.3783928E1],"tree_param":{"num_deleted":"0","num_feature":"40","num_nodes":"67","size_leaf_vector":"0"}},{"base_weights":[-4.417408E-1,-5.1822567E-1,4.9638623E-1,-4.0526104E-1,-1.1088849E0,8.3824235E-1,-1.2799958E0,-2.9100633E-1,-7.2115934E-1,-1.3077253E0,-2.9755893E-1,1.0430217E0,-5.403221E-1,-6.329704E-1,-9.084913E-2,-9.020188E-1,3.594395E-1,-4.8797112E-2,-1.3944886E0,-5.852856E-1,1.005434E0,-3.039982E-1,1.1422516E0,-1.045534E0,2.586767E-1,-2.4442023E-1,-1.0105143E0,8.698792E-2,-7.358099E-1,-1.0234324E0,2.24739E-1,8.345293E-1,-1.0606426E0,8.009526E-1,-9.8666567E-1,-1.5158851E-1,-1.4304303E0,-1.231197E0,5.2985024E-1,-3.0979663E-1,1.2575047E0,-1.2335861E0,9.501553E-3,-1.4139391E0,-5.573469E-1,-3.7205312E-1,4.206754E-1,5.7333094E-1,-1.2016841E0,1.2330523E-1,-1.1459297E0,-8.0893546E-1,1.0714356E0,1.3698239E0,-1.7831503E-1,-1.4670988E0,-1.9186898E-1,-5.590095E-1,1.1340214E0,1.3859078E0,-8.664737E-3],"categories":[],"categories_nodes":[],"categories_segments":[],"categories_sizes":[],"default_left":[1,1,1,1,1,1,0,1,1,1,1,1,1,1,1,1,1,1,1,1,0,0,1,0,0,1,1,1,1,1,1,1,0,0,0,0,1,0,1,0,1,0,0,0,0,0,0,0,0,0,0,0,0,0,0,0,0,0,0,0,0],"id":4,"left_children":[1,3,5,7,9,11,-1,13,15,17,19,21,23,25,27,29,31,33,35,37,-1,-1,39,-1,-1,41,43,45,47,49,51,53,-1,-1,-1,-1,55,-1,57,-1,59,-1,-1,-1,-1,-1,-1,-1,-1,-1,-1,-1,-1,-1,-1,-1,-1,-1,-1,-1,-1],"loss_changes":[2.5618011E1,2.1388779E1,1.7563194E1,9.763428E0,7.994892E0,7.16284E0,0E0,1.3946957E1,1.4536125E1,4.4590073E0,4.9089875E0,3.1133747E0,1.7567991E0,1.0810062E1,1.5001081E1,8.790878E0,8.40159E0,3.7457447E0,1.5136261E0,7.9068947E0,0E0,0E0,3.650423E0,0E0,0E0,9.6729765E0,6.142555E0,1.5930069E1,1.7920427E1,8.101959E0,6.911863E0,5.073789E0,0E0,0E0,0E0,0E0,1.4229736E0,0E0,3.5240626E0,0E0,2.979042E0,0E0,0E0,0E0,0E0,0E0,0E0,0E0,0E0,0E0,0E0,0E0,0E0,0E0,0E0,0E0,0E0,0E0,0E0,0E0,0E0],"parents":[2147483647,0,0,1,1,2,2,3,3,4,4,5,5,7,7,8,8,9,9,10,10,11,11,12,12,13,13,14,14,15,15,16,16,17,17,18,18,19,19,22,22,25,25,26,26,27,27,28,28,29,29,30,30,31,31,36,36,38,38,40,40],"right_children":[2,4,6,8,10,12,-1,14,16,18,20,22,24,26,28,30,32,34,36,38,-1,-1,40,-1,-1,42,44,46,48,50,52,54,-1,-1,-1,-1,56,-1,58,-1,60,-1,-1,-1,-1,-1,-1,-1,-1,-1,-1,-1,-1,-1,-1,-1,-1,-1,-1,-1,-1],"split_conditions":[5.3132677E0,-2.9042017E2,1.0405462E1,2.439907E1,3.0669743E-1,1.0230563E0,-3.8399875E-1,-4.0442085E0,5.5517216E0,-3.1016688E0,6.8325714E1,-1.6839455E1,1.0719438E2,-9.826616E-1,2.4908085E0,-6.187489E-1,-2.0271554E0,-1.4056712E0,-4.325781E0,5.600484E0,3.0163023E-1,-9.1199465E-2,-3.5449786E0,-3.136602E-1,7.760301E-2,-9.594336E0,-6.531654E0,-1.1422496E1,-4.4159265E0,-1.6164103E1,-1.3998049E1,-1.6205437E0,-3.1819278E-1,2.402858E-1,-2.959997E-1,-4.5476556E-2,9.107695E0,-3.693591E-1,-2.4698138E0,-9.293899E-2,1.201594E1,-3.7007582E-1,2.850466E-3,-4.2418176E-1,-1.6720407E-1,-1.1161594E-1,1.2620263E-1,1.7199929E-1,-3.6050525E-1,3.699157E-2,-3.437789E-1,-2.4268065E-1,3.2143068E-1,4.109472E-1,-5.349451E-2,-4.4012967E-1,-5.7560693E-2,-1.6770285E-1,3.4020644E-1,4.1577235E-1,-2.5994214E-3],"split_indices":[26,0,12,5,29,2,0,29,16,23,3,11,1,38,19,22,15,28,39,8,0,0,27,0,0,8,20,6,18,11,2,30,0,0,0,0,34,0,27,0,7,0,0,0,0,0,0,0,0,0,0,0,0,0,0,0,0,0,0,0,0],"split_type":[0,0,0,0,0,0,0,0,0,0,0,0,0,0,0,0,0,0,0,0,0,0,0,0,0,0,0,0,0,0,0,0,0,0,0,0,0,0,0,0,0,0,0,0,0,0,0,0,0,0,0,0,0,0,0,0,0,0,0,0,0],"sum_hessian":[3.524478E2,3.2629297E2,2.6154856E1,2.7532306E2,5.0969917E1,2.2376688E1,3.778167E0,2.0360428E2,7.171878E1,4.0445633E1,1.0524285E1,1.9694555E1,2.6821334E0,7.437459E1,1.2922969E2,6.1577785E1,1.014099E1,2.7084625E0,3.7737167E1,9.071855E0,1.4524307E0,1.2096956E0,1.848486E1,1.4541258E0,1.2280077E0,3.7464893E1,3.6909695E1,1.0197651E2,2.7253174E1,5.56707E1,5.907086E0,7.907774E0,2.233216E0,1.497578E0,1.2108845E0,1.2072392E0,3.652993E1,5.678603E0,3.3932512E0,1.235177E0,1.7249681E1,6.8647523E0,3.0600142E1,1.8404903E1,1.8504791E1,4.2877125E1,5.9099384E1,7.0923862E0,2.0160788E1,5.372293E0,5.029841E1,2.679934E0,3.227152E0,4.942944E0,2.9648297E0,3.530032E1,1.2296108E0,1.2375829E0,2.1556683E0,1.5575584E1,1.6740973E0],"tree_param":{"num_deleted":"0","num_feature":"40","num_nodes":"61","size_leaf_vector":"0"}},{"base_weights":[-5.632705E-1,-1.4902021E-1,-9.985079E-1,-7.315441E-1,7.62243E-2,-1.1577055E0,7.264763E-2,-9.871056E-1,7.977818E-1,-1.7390622E-1,5.576746E-1,-8.3248717E-1,-1.4564192E0,7.6147527E-1,-1.1155676E0,-1.1475393E0,6.000234E-1,-3.3367142E-1,1.3714539E0,1.3352284E-1,-7.55417E-1,9.5225257E-1,-1.7787905E-1,-9.131636E-1,7.4659854E-1,-1.4826696E0,-1.759977E-1,1.2633741E0,-1.0198642E0,3.6173302E-3,-1.3272958E0,4.2867297E-1,-1.2615994E0,-4.857599E-1,1.3809837E0,-1.1011269E0,5.926616E-1,3.6430302E-1,-7.9728895E-1,-1.3984638E0,-2.993658E-1,1.2821558E0,8.8050686E-2,5.984797E-1,-8.2030916E-1,1.5191002E-1,-1.016544E0,1.2059861E0,-1.9978434E-1,-5.610523E-1,-1.5050292E0,-1.632024E-1,1.4299442E0,-4.9348766E-1,1.1590822E0,-1.4771544E0,-2.58734E-1,6.5679413E-1,-2.8763315E-1,2.9502222E-1,-1.3306679E0,-1.3400735E-1,-1.5251263E0,-6.655747E-1,9.5361984E-1,1.4580626E0,4.4610832E-2,5.35671E-1,-9.348473E-1,-8.2891697E-1,1.1138726E0,-1.2105775E0,1.0148963E0,8.7263256E-1,-8.868295E-1,5.313278E-1,-1.0733277E0,-8.724368E-1,9.439699E-3,1.9244385E-1,1.5607958E0],"categories":[],"categories_nodes":[],"categories_segments":[],"categories_sizes":[],"default_left":[1,1,1,1,1,1,1,1,1,1,1,1,1,1,1,1,1,1,0,1,1,1,1,1,1,1,0,1,0,0,0,1,1,0,0,0,0,1,1,1,1,1,1,1,1,1,1,0,0,1,0,0,1,0,0,0,0,0,0,0,0,0,0,0,0,0,0,0,0,0,0,0,0,0,0,0,0,0,0,0,0],"id":5,"left_children":[1,3,5,7,9,11,13,15,17,19,21,23,25,27,29,31,33,35,-1,37,39,41,43,45,47,49,-1,51,-1,-1,-1,53,55,-1,-1,-1,-1,57,59,61,63,65,67,69,71,73,75,-1,-1,77,-1,-1,79,-1,-1,-1,-1,-1,-1,-1,-1,-1,-1,-1,-1,-1,-1,-1,-1,-1,-1,-1,-1,-1,-1,-1,-1,-1,-1,-1,-1],"loss_changes":[6.2579872E1,2.3599121E1,2.8985748E1,2.0379627E1,1.5788845E1,1.312793E1,1.956886E1,1.1738979E1,5.4753485E0,1.5567354E1,1.3168657E1,9.982407E0,2.280365E0,1.476386E1,2.0897865E0,7.6885185E0,4.605999E0,3.0733893E0,0E0,1.2630238E1,8.399803E0,8.243084E0,8.710642E0,7.8517838E0,2.0229228E0,6.7959595E-1,0E0,3.1337662E0,0E0,0E0,0E0,2.8817673E0,7.687134E0,0E0,0E0,0E0,0E0,9.097345E0,7.224573E0,1.7503223E0,9.291217E0,4.536461E0,4.6999083E0,6.8384876E0,7.98966E0,6.055661E0,6.1825256E0,0E0,0E0,6.026443E-1,0E0,0E0,1.486042E0,0E0,0E0,0E0,0E0,0E0,0E0,0E0,0E0,0E0,0E0,0E0,0E0,0E0,0E0,0E0,0E0,0E0,0E0,0E0,0E0,0E0,0E0,0E0,0E0,0E0,0E0,0E0,0E0],"parents":[2147483647,0,0,1,1,2,2,3,3,4,4,5,5,6,6,7,7,8,8,9,9,10,10,11,11,12,12,13,13,14,14,15,15,16,16,17,17,19,19,20,20,21,21,22,22,23,23,24,24,25,25,27,27,31,31,32,32,37,37,38,38,39,39,40,40,41,41,42,42,43,43,44,44,45,45,46,46,49,49,52,52],"right_children":[2,4,6,8,10,12,14,16,18,20,22,24,26,28,30,32,34,36,-1,38,40,42,44,46,48,50,-1,52,-1,-1,-1,54,56,-1,-1,-1,-1,58,60,62,64,66,68,70,72,74,76,-1,-1,78,-1,-1,80,-1,-1,-1,-1,-1,-1,-1,-1,-1,-1,-1,-1,-1,-1,-1,-1,-1,-1,-1,-1,-1,-1,-1,-1,-1,-1,-1,-1],"split_conditions":[-3.7419785E2,1.0634765E2,1.04600315E1,8.610714E0,2.1915941E0,-3.1892587E2,-7.9197204E-1,5.9833517E0,-1.1943485E0,-8.981179E-1,-1.0262525E0,1.0334375E1,1.1922355E1,-1.9033692E0,-4.654386E0,-3.2757673E0,-3.2856164E0,4.6998398E1,4.1143617E-1,-7.52969E-1,1.7618749E0,-4.13586E2,-1.6572832E1,-8.957663E0,1.8911705E0,-6.9521837E0,-5.2799314E-2,-5.4487747E1,-3.0595928E-1,1.0851991E-3,-3.9818874E-1,1.02382466E-1,-2.1943893E0,-1.4572798E-1,4.1429514E-1,-3.303381E-1,1.777985E-1,-4.917576E0,-2.1772282E1,-8.601881E0,-3.529008E0,1.2762213E1,1.2832166E-1,-8.098825E0,2.687797E0,-6.0455725E-3,-1.7637321E1,3.6179584E-1,-5.9935305E-2,1.075453E2,-4.515088E-1,-4.8960723E-2,-1.3886945E1,-1.480463E-1,3.4772468E-1,-4.4314632E-1,-7.76202E-2,1.9703825E-1,-8.628995E-2,8.850667E-2,-3.9920038E-1,-4.0202208E-2,-4.5753792E-1,-1.9967243E-1,2.8608596E-1,4.3741882E-1,1.338325E-2,1.607013E-1,-2.804542E-1,-2.486751E-1,3.3416182E-1,-3.6317325E-1,3.044689E-1,2.6178977E-1,-2.6604885E-1,1.5939835E-1,-3.219983E-1,-2.6173106E-1,2.8319098E-3,5.7733156E-2,4.6823874E-1],"split_indices":[0,1,21,7,8,0,32,21,38,18,26,23,22,29,31,37,20,3,0,27,12,0,2,17,14,33,0,4,0,0,0,26,9,0,0,0,0,20,2,10,13,7,2,9,16,25,13,0,0,1,0,0,11,0,0,0,0,0,0,0,0,0,0,0,0,0,0,0,0,0,0,0,0,0,0,0,0,0,0,0,0],"split_type":[0,0,0,0,0,0,0,0,0,0,0,0,0,0,0,0,0,0,0,0,0,0,0,0,0,0,0,0,0,0,0,0,0,0,0,0,0,0,0,0,0,0,0,0,0,0,0,0,0,0,0,0,0,0,0,0,0,0,0,0,0,0,0,0,0,0,0,0,0,0,0,0,0,0,0,0,0,0,0,0,0],"sum_hessian":[3.4691812E2,1.7843225E2,1.6848589E2,4.9128666E1,1.2930357E2,1.4661484E2,2.1871038E1,4.239817E1,6.730495E0,8.5514534E1,4.3789047E1,7.200634E1,7.46085E1,1.4072263E1,7.7987757E0,3.8757385E1,3.6407874E0,2.405159E0,4.325336E0,5.6444324E1,2.9070208E1,2.8308645E1,1.5480404E1,6.890753E1,3.0988126E0,7.295488E1,1.6536236E0,1.120577E1,2.8664927E0,1.3970349E0,6.4017406E0,2.4292312E0,3.6328156E1,1.6812758E0,1.9595115E0,1.2121847E0,1.1929744E0,4.5717907E1,1.07264185E1,1.1204723E1,1.7865484E1,2.0137617E1,8.171027E0,7.0405316E0,8.439872E0,6.0551453E0,6.2852386E1,1.9014908E0,1.1973217E0,2.3460987E0,7.060878E1,1.1737237E0,1.0032046E1,1.2170465E0,1.2121847E0,2.9511948E1,6.816205E0,3.1553831E1,1.4164077E1,3.6658907E0,7.0605283E0,1.2075807E0,9.997143E0,1.41876745E1,3.677809E0,1.7475437E1,2.6621802E0,6.0151267E0,2.1559002E0,1.7063692E0,5.334162E0,7.240493E0,1.1993792E0,3.6692042E0,2.385941E0,1.9284161E0,6.092397E1,1.1753185E0,1.1707801E0,1.1956027E0,8.836444E0],"tree_param":{"num_deleted":"0","num_feature":"40","num_nodes":"81","size_leaf_vector":"0"}},{"base_weights":[-3.5722238E-1,-6.3204265E-1,1.9804057E-1,1.6796464E-1,-7.1445274E-1,4.1446283E-1,-9.10123E-1,4.514432E-1,-9.3448615E-1,-4.379967E-2,-7.975355E-1,2.2489783E-1,1.2539968E0,-1.2441808E0,1.0774552E0,1.2314645E0,-9.342678E-2,-1.1708716E0,-1.0091651E-1,4.8257667E-1,-9.9627155E-1,-1.8424262E-1,-8.9111423E-1,4.2316025E-1,-9.77303E-1,-1.5343119E-1,1.4272203E0,-1.12776095E-2,-1.4122267E0,-2.2598436E-1,1.532887E0,1.0759978E0,-4.283689E-1,1.2276881E0,-7.0207125E-1,4.2937547E-1,-1.330666E0,-8.323294E-1,2.5212446E-1,-3.8773575E-1,-1.0131491E0,5.5357045E-1,-1.1511515E0,-9.706558E-2,-1.3468008E0,6.600658E-1,-7.355038E-1,-4.0248004E-1,1.5818652E0,5.683625E-1,-1.0737066E0,2.3014544E-1,-1.2505835E0,-6.538167E-1,8.3092695E-1,5.263638E-2,-1.1710347E0,1.0378519E-1,-1.0500755E0,1.1953214E-1,1.0552454E0,-8.562509E-1,7.616576E-1],"categories":[],"categories_nodes":[],"categories_segments":[],"categories_sizes":[],"default_left":[1,1,1,1,1,1,1,1,1,1,1,1,1,1,0,1,1,0,0,1,1,1,1,1,1,0,0,0,0,0,0,0,1,1,1,0,0,1,1,1,1,1,0,1,0,0,0,0,0,0,0,0,0,0,0,0,0,0,0,0,0,0,0],"id":6,"left_children":[1,3,5,7,9,11,13,15,17,19,21,23,25,27,-1,29,31,-1,-1,33,35,37,39,41,43,-1,-1,-1,-1,-1,-1,-1,45,47,49,-1,-1,51,53,55,57,59,-1,61,-1,-1,-1,-1,-1,-1,-1,-1,-1,-1,-1,-1,-1,-1,-1,-1,-1,-1,-1],"loss_changes":[4.9640816E1,1.4445946E1,2.632469E1,7.017025E0,1.095253E1,1.4232205E1,1.32853E1,7.536116E0,7.965493E-1,1.1908816E1,9.902084E0,1.843756E1,4.2614326E0,3.271164E0,0E0,3.5320177E0,4.851561E0,0E0,0E0,1.4415304E1,4.5947475E0,7.1330357E0,8.939392E0,1.4107796E1,3.4494295E0,0E0,0E0,0E0,0E0,0E0,0E0,0E0,3.6375537E0,6.2889442E0,3.709761E0,0E0,0E0,4.768574E0,8.617103E0,1.0845606E1,5.1265106E0,1.3214727E1,0E0,3.4764416E0,0E0,0E0,0E0,0E0,0E0,0E0,0E0,0E0,0E0,0E0,0E0,0E0,0E0,0E0,0E0,0E0,0E0,0E0,0E0],"parents":[2147483647,0,0,1,1,2,2,3,3,4,4,5,5,6,6,7,7,8,8,9,9,10,10,11,11,12,12,13,13,15,15,16,16,19,19,20,20,21,21,22,22,23,23,24,24,32,32,33,33,34,34,37,37,38,38,39,39,40,40,41,41,43,43],"right_children":[2,4,6,8,10,12,14,16,18,20,22,24,26,28,-1,30,32,-1,-1,34,36,38,40,42,44,-1,-1,-1,-1,-1,-1,-1,46,48,50,-1,-1,52,54,56,58,60,-1,62,-1,-1,-1,-1,-1,-1,-1,-1,-1,-1,-1,-1,-1,-1,-1,-1,-1,-1,-1],"split_conditions":[-3.3439102E2,-1.1728503E1,4.6810656E0,1.4132982E2,-2.3682419E1,1.1005076E1,1.4342475E0,-4.084995E0,1.030319E0,1.6041672E-1,1.6829576E1,1.0033582E1,-7.593107E0,-6.8052187E0,3.2323655E-1,-7.4548492E0,-7.739691E0,-3.512615E-1,-3.0274956E-2,1.9330227E0,9.7031295E-1,-1.9244633E0,-3.6482944E0,5.6017566E0,8.927029E0,-4.602936E-2,4.2816612E-1,-3.383283E-3,-4.2366803E-1,-6.7795314E-2,4.598661E-1,3.2279935E-1,-6.0167885E0,-4.83735E2,-8.644661E0,1.2881264E-1,-3.991998E-1,-6.1922793E0,-4.278171E0,3.5024693E0,6.233073E1,-4.7440643E0,-3.4534547E-1,-3.9828494E0,-4.0404025E-1,1.9801976E-1,-2.2065115E-1,-1.2074401E-1,4.7455958E-1,1.7050874E-1,-3.22112E-1,6.904364E-2,-3.751751E-1,-1.9614501E-1,2.492781E-1,1.5790915E-2,-3.5131043E-1,3.1135557E-2,-3.1502268E-1,3.5859644E-2,3.1657362E-1,-2.5687528E-1,2.2849728E-1],"split_indices":[0,8,24,1,6,12,38,29,17,34,3,21,11,19,0,29,10,0,0,19,7,36,25,26,5,0,0,0,0,0,0,0,18,0,22,0,0,16,17,8,1,20,0,29,0,0,0,0,0,0,0,0,0,0,0,0,0,0,0,0,0,0,0],"split_type":[0,0,0,0,0,0,0,0,0,0,0,0,0,0,0,0,0,0,0,0,0,0,0,0,0,0,0,0,0,0,0,0,0,0,0,0,0,0,0,0,0,0,0,0,0,0,0,0,0,0,0,0,0,0,0,0,0,0,0,0,0,0,0],"sum_hessian":[3.2348526E2,2.162947E2,1.0719056E2,2.0103075E1,1.9619162E2,9.0200554E1,1.6990005E1,1.646091E1,3.6421652E0,2.179414E1,1.7439748E2,7.461951E1,1.5581041E1,1.4865536E1,2.1244705E0,6.2514277E0,1.0209483E1,2.5222516E0,1.1199135E0,1.435455E1,7.4395905E0,2.348053E1,1.5091695E2,6.461196E1,1.0007547E1,1.7200466E0,1.3860994E1,1.911144E0,1.29543915E1,1.1142141E0,5.137213E0,1.7805035E0,8.42898E0,8.7897215E0,5.5648284E0,1.3594998E0,6.0800905E0,9.083068E0,1.4397462E1,3.0263037E1,1.2065391E2,6.026796E1,4.3440037E0,3.3321695E0,6.675378E0,1.6021433E0,6.826836E0,1.544497E0,7.245225E0,1.1396354E0,4.425193E0,2.6926868E0,6.390381E0,5.5620866E0,8.835375E0,1.9969147E1,1.029389E1,3.8032703E0,1.1685064E2,3.2976055E1,2.7291903E1,1.7701147E0,1.5620549E0],"tree_param":{"num_deleted":"0","num_feature":"40","num_nodes":"63","size_leaf_vector":"0"}},{"base_weights":[-3.3666673E-1,-2.7883497E-1,-1.1992153E0,-3.677976E-1,3.8832623E-1,-1.3618828E0,-1.6984487E-1,-1.9332786E-1,-6.499885E-1,-1.3657035E-1,6.9220865E-1,-1.407234E0,-3.4115753E-1,-9.358521E-1,5.913151E-1,1.0763615E-2,-4.8140064E-1,-1.0383338E0,-3.0562437E-1,-5.191441E-1,7.172741E-1,-9.41557E-1,8.199742E-1,-7.466178E-1,1.440056E-1,-1.17604256E-1,-6.954935E-1,4.377529E-1,-1.112875E0,9.524824E-1,-5.880052E-1,-1.0765762E0,7.870103E-1,1.1852052E0,-4.3694544E-1,-2.0365428E-2,1.124454E0,5.3394586E-1,-1.0011271E0,-7.830919E-2,6.596817E-1,-4.6906534E-1,6.505721E-1,-9.9584445E-2,-9.7456527E-1,-1.3475741E0,-7.862133E-1,-3.489203E-1,1.3684447E0,-1.038283E-1,-9.583506E-1,-1.3571035E0,-2.5749626E-2,1.1615152E0,-6.693612E-2,-7.504793E-1,4.9496576E-1,1.2401364E0,-2.813015E-1],"categories":[],"categories_nodes":[],"categories_segments":[],"categories_sizes":[],"default_left":[1,1,1,1,1,1,1,1,1,1,1,0,0,0,0,1,1,1,1,1,1,0,1,1,1,1,1,0,1,1,1,1,1,0,0,1,1,0,0,0,0,0,0,0,0,0,0,0,0,0,0,0,0,0,0,0,0,0,0],"id":7,"left_children":[1,3,5,7,9,11,13,15,17,19,21,-1,-1,-1,-1,23,25,27,29,31,33,-1,35,37,39,41,43,-1,45,47,49,51,53,-1,-1,55,57,-1,-1,-1,-1,-1,-1,-1,-1,-1,-1,-1,-1,-1,-1,-1,-1,-1,-1,-1,-1,-1,-1],"loss_changes":[1.6485325E1,1.8975422E1,3.2656097E0,1.3683544E1,6.1269045E0,3.481331E-1,2.8811347E0,1.0279047E1,1.3956764E1,5.174899E0,5.806185E0,0E0,0E0,0E0,0E0,1.0528006E1,5.5638466E0,5.960865E0,2.116147E1,8.661898E0,3.2015934E0,0E0,5.882799E0,5.6220684E0,1.0214724E1,7.8802624E0,7.457718E0,0E0,2.5928345E0,6.4383307E0,8.503452E0,2.3070917E0,1.289217E0,0E0,0E0,3.0328114E0,3.085575E0,0E0,0E0,0E0,0E0,0E0,0E0,0E0,0E0,0E0,0E0,0E0,0E0,0E0,0E0,0E0,0E0,0E0,0E0,0E0,0E0,0E0,0E0],"parents":[2147483647,0,0,1,1,2,2,3,3,4,4,5,5,6,6,7,7,8,8,9,9,10,10,15,15,16,16,17,17,18,18,19,19,20,20,22,22,23,23,24,24,25,25,26,26,28,28,29,29,30,30,31,31,32,32,35,35,36,36],"right_children":[2,4,6,8,10,12,14,16,18,20,22,-1,-1,-1,-1,24,26,28,30,32,34,-1,36,38,40,42,44,-1,46,48,50,52,54,-1,-1,56,58,-1,-1,-1,-1,-1,-1,-1,-1,-1,-1,-1,-1,-1,-1,-1,-1,-1,-1,-1,-1,-1,-1],"split_conditions":[1.3395464E1,3.3069804E0,1.3141919E2,3.71779E-1,1.6331658E0,-1.3970818E1,3.2779172E-1,-1.8766346E0,-1.5597706E0,3.6441588E-1,-4.481362E2,-4.221702E-1,-1.0234726E-1,-2.8075564E-1,1.7739454E-1,-4.4882517E0,-3.8710568E0,-9.523267E0,-1.389639E1,4.146359E0,-1.6499606E0,-2.824671E-1,9.3678925E1,-8.082294E0,-2.511907E0,-5.8355284E0,-3.394999E0,1.3132587E-1,-3.5989165E0,-2.8440275E1,-2.2236767E-1,7.7336693E0,-2.9867887E0,3.5556158E-1,-1.3108364E-1,-5.407954E0,6.4584746E0,1.6018376E-1,-3.0033815E-1,-2.349276E-2,1.9790451E-1,-1.4071961E-1,1.9517164E-1,-2.9875334E-2,-2.923696E-1,-4.0427226E-1,-2.35864E-1,-1.0467609E-1,4.1053343E-1,-3.1148491E-2,-2.8750518E-1,-4.0713105E-1,-7.724888E-3,3.484546E-1,-2.0080836E-2,-2.2514379E-1,1.4848973E-1,3.7204093E-1,-8.4390454E-2],"split_indices":[12,26,1,39,28,2,39,33,25,29,0,0,0,0,0,36,18,17,15,7,13,0,1,29,31,2,27,0,29,4,14,26,27,0,0,17,10,0,0,0,0,0,0,0,0,0,0,0,0,0,0,0,0,0,0,0,0,0,0],"split_type":[0,0,0,0,0,0,0,0,0,0,0,0,0,0,0,0,0,0,0,0,0,0,0,0,0,0,0,0,0,0,0,0,0,0,0,0,0,0,0,0,0,0,0,0,0,0,0,0,0,0,0,0,0,0,0,0,0,0,0],"sum_hessian":[3.3618512E2,3.1630118E2,1.988395E1,2.794823E2,3.681888E1,1.6891607E1,2.9923427E0,1.737458E2,1.0573649E2,1.370199E1,2.3116886E1,1.5810482E1,1.0811245E0,1.3770328E0,1.6153098E0,1.0226006E2,7.148575E1,4.874768E1,5.698881E1,9.733008E0,3.968982E0,1.2147099E0,2.1902176E1,1.4609944E1,8.7650116E1,2.705758E1,4.442817E1,2.1091444E0,4.6638535E1,1.0011404E1,4.6977406E1,6.944883E0,2.7881253E0,2.8049746E0,1.1640077E0,6.0733476E0,1.5828829E1,2.240239E0,1.2369705E1,6.1838753E1,2.5811363E1,1.883119E1,8.226392E0,1.4602953E1,2.9825214E1,2.532081E1,2.1317724E1,2.463896E0,7.5475087E0,2.0914658E1,2.6062748E1,5.251489E0,1.6933936E0,1.687768E0,1.1003573E0,2.3241792E0,3.7491684E0,1.4734143E1,1.0946858E0],"tree_param":{"num_deleted":"0","num_feature":"40","num_nodes":"59","size_leaf_vector":"0"}},{"base_weights":[-4.403653E-1,5.710232E-4,-7.235777E-1,-9.5978993E-1,1.5157247E-1,-8.278382E-1,1.7196527E-1,-1.192643E0,8.236925E-2,4.3590128E-1,-2.8082973E-1,-5.353056E-1,-1.1408635E0,6.2696797E-1,-7.910681E-1,-1.3508506E0,3.1535217E-1,9.4890004E-1,-6.599069E-1,5.228821E-1,-1.1290923E0,-5.7928324E-1,6.149912E-1,-6.516811E-1,5.890335E-1,-1.2139809E0,-2.3280777E-1,8.818926E-1,-7.263933E-1,-1.1234056E0,5.6516397E-1,-3.7213138E-1,-1.410905E0,-4.658458E-1,6.3188213E-1,1.0497019E0,-7.190441E-1,1.1828271E0,-2.7341375E-1,-8.7970424E-1,-8.228089E-2,1.0254562E0,-6.1346436E-1,-1.2413341E0,-9.512523E-2,5.795689E-1,-1.0964552E0,1.0852476E0,-4.9947962E-1,-9.787522E-1,4.7151718E-1,8.901449E-1,8.016458E-2,-1.1490717E0,-2.4353527E-1,-1.750926E-1,1.4692825E0,5.285692E-1,-9.465761E-1,-1.0379777E0,1.0287089E-1,3.7782985E-1,-1.1616918E0,1.3106098E0,2.6104596E-2,-1.2631536E0,-1.7815621E-1,1.1150895E0,-4.3556026E-1,1.219006E0,-1.15398884E-1],"categories":[],"categories_nodes":[],"categories_segments":[],"categories_sizes":[],"default_left":[1,1,1,1,1,1,1,1,1,1,1,1,1,1,1,1,0,0,0,1,0,1,1,1,1,1,1,1,0,0,0,0,0,1,1,0,1,1,1,1,1,1,0,1,0,1,0,1,0,0,0,0,0,0,0,0,0,0,0,0,0,0,0,0,0,0,0,0,0,0,0],"id":8,"left_children":[1,3,5,7,9,11,13,15,17,19,21,23,25,27,29,31,-1,-1,-1,33,-1,35,37,39,41,43,45,47,-1,-1,-1,-1,-1,49,51,-1,53,55,57,59,61,63,-1,65,-1,67,-1,69,-1,-1,-1,-1,-1,-1,-1,-1,-1,-1,-1,-1,-1,-1,-1,-1,-1,-1,-1,-1,-1,-1,-1],"loss_changes":[4.0133324E1,1.851727E1,1.841362E1,4.3084593E0,1.3687921E1,1.5455505E1,9.800545E0,3.824667E0,3.2658467E0,9.705117E0,1.2221659E1,1.2497423E1,5.286148E0,5.808382E0,3.9052005E0,2.4388885E-1,0E0,0E0,0E0,7.2043076E0,0E0,8.450891E0,6.1629767E0,1.0881947E1,5.4618883E0,2.2502518E0,5.8888073E0,4.2096796E0,0E0,0E0,0E0,0E0,0E0,3.799148E0,8.217827E0,0E0,6.207638E0,3.077279E0,3.375647E0,9.459694E0,1.296879E1,1.9978995E0,0E0,1.5253983E0,0E0,2.9387927E0,0E0,2.0190125E0,0E0,0E0,0E0,0E0,0E0,0E0,0E0,0E0,0E0,0E0,0E0,0E0,0E0,0E0,0E0,0E0,0E0,0E0,0E0,0E0,0E0,0E0,0E0],"parents":[2147483647,0,0,1,1,2,2,3,3,4,4,5,5,6,6,7,7,8,8,9,9,10,10,11,11,12,12,13,13,14,14,15,15,19,19,21,21,22,22,23,23,24,24,25,25,26,26,27,27,33,33,34,34,36,36,37,37,38,38,39,39,40,40,41,41,43,43,45,45,47,47],"right_children":[2,4,6,8,10,12,14,16,18,20,22,24,26,28,30,32,-1,-1,-1,34,-1,36,38,40,42,44,46,48,-1,-1,-1,-1,-1,50,52,-1,54,56,58,60,62,64,-1,66,-1,68,-1,70,-1,-1,-1,-1,-1,-1,-1,-1,-1,-1,-1,-1,-1,-1,-1,-1,-1,-1,-1,-1,-1,-1,-1],"split_conditions":[-4.0022327E2,9.2255356E1,6.514929E0,3.2755127E0,-4.989065E0,-3.3562048E2,-1.5393875E0,1.6428247E1,-5.94114E0,3.4646602E0,2.1908814E-1,1.0086624E1,4.7971745E0,-4.6329188E-1,2.3713994E-1,-3.1374584E1,9.4605654E-2,2.8467003E-1,-1.9797209E-1,-4.999854E0,-3.387277E-1,-4.179735E0,-1.3854909E0,1.3544952E2,-5.21799E0,1.6977089E2,6.02368E0,-2.1114074E-1,-2.17918E-1,-3.3702168E-1,1.695492E-1,-1.1163942E-1,-4.232715E-1,-2.2433422E0,-1.5341591E0,3.149106E-1,3.8925514E0,-3.4170291E0,-2.0158262E0,4.9464173E0,-5.65746E0,1.8264291E0,-1.8403931E-1,9.103208E0,-2.853757E-2,-1.3137314E0,-3.2893658E-1,4.665837E0,-1.4984389E-1,-2.9362568E-1,1.4145516E-1,2.6704347E-1,2.4049375E-2,-3.4472153E-1,-7.306058E-2,-5.252778E-2,4.4078478E-1,1.5857077E-1,-2.8397286E-1,-3.1139332E-1,3.0861268E-2,1.1334896E-1,-3.4850755E-1,3.9318296E-1,7.831379E-3,-3.789461E-1,-5.3446867E-2,3.3452687E-1,-1.3066809E-1,3.657018E-1,-3.4619667E-2],"split_indices":[0,1,22,8,20,0,35,2,20,30,24,12,20,32,2,4,0,0,0,35,0,37,35,1,6,1,10,29,0,0,0,0,0,8,24,0,12,35,9,16,2,10,0,39,0,27,0,28,0,0,0,0,0,0,0,0,0,0,0,0,0,0,0,0,0,0,0,0,0,0,0],"split_type":[0,0,0,0,0,0,0,0,0,0,0,0,0,0,0,0,0,0,0,0,0,0,0,0,0,0,0,0,0,0,0,0,0,0,0,0,0,0,0,0,0,0,0,0,0,0,0,0,0,0,0,0,0,0,0,0,0,0,0,0,0,0,0,0,0,0,0,0,0,0,0],"sum_hessian":[3.2037534E2,1.2568813E2,1.946872E2,1.6349573E1,1.09338554E2,1.7445276E2,2.0234451E1,1.3245656E1,3.1039178E0,6.5958824E1,4.3379734E1,9.1579124E1,8.287363E1,1.3978852E1,6.2555985E0,1.2082281E1,1.1633747E0,1.303662E0,1.8002559E0,6.311674E1,2.8420796E0,3.2804028E1,1.05757065E1,8.3370224E1,8.208902E0,7.638605E1,6.487576E0,1.2056256E1,1.9225968E0,5.1622806E0,1.0933179E0,1.1145643E0,1.0967717E1,5.942164E0,5.717458E1,2.0776176E0,3.072641E1,6.249713E0,4.3259935E0,5.914138E1,2.4228844E1,6.1310043E0,2.077898E0,7.445632E1,1.9297307E0,3.5125134E0,2.9750626E0,1.0696036E1,1.3602191E0,3.8121023E0,2.1300616E0,3.8526604E1,1.8647976E1,1.53910055E1,1.5335404E1,1.1564436E0,5.0932693E0,2.0721273E0,2.253866E0,5.0887955E1,8.253427E0,1.7443378E1,6.7854652E0,4.527635E0,1.6033695E0,7.277468E1,1.6816397E0,2.234995E0,1.2775184E0,9.610127E0,1.085909E0],"tree_param":{"num_deleted":"0","num_feature":"40","num_nodes":"71","size_leaf_vector":"0"}},{"base_weights":[-2.8420424E-1,-6.044099E-1,3.7839286E-2,-9.298124E-2,-7.4937844E-1,-1.531194E-1,6.732091E-1,3.7361306E-1,-6.976611E-1,1.9797601E-1,-8.229772E-1,-3.4588286E-1,6.8358266E-1,-3.55642E-1,8.757095E-1,-5.020023E-1,9.6631885E-1,-9.866943E-1,8.5161185E-1,-8.714149E-1,9.2909E-1,-1.0804892E0,-5.2476835E-1,-4.731944E-1,1.1580322E0,1.2885312E0,-8.4429875E-2,-9.157643E-1,8.8928264E-1,1.0850497E0,1.2964937E-1,-1.1842352E0,7.5487196E-1,1.3991084E0,-6.1196357E-1,-1.1874014E0,8.869823E-3,1.7909126E0,-6.0825837E-1,-1.2296621E0,-7.3854053E-1,3.5127193E-1,-6.885951E-1,4.4555852E-1,-6.810354E-1,3.9525993E-2,1.5397377E0,1.1192143E0,-5.079317E-1,2.3439269E-1,-1.2816377E0,1.2207656E0,-9.736722E-3,-8.6335564E-1,6.129264E-1,-2.0639928E-1,1.2642925E0,-1.6270107E-1,1.6017498E0,-7.035131E-2,-8.252776E-1,-7.059617E-2,-1.3026993E0,-7.2154325E-1,7.614118E-1,1.6246854E-1,-1.2784352E0,-1.22133754E-1,-1.1840488E0,1.0939126E0,-8.167375E-1,-1.0565395E0,5.6456536E-2,-3.8829568E-1,9.174372E-1,-7.6291716E-1,1.1904095E0,-4.6288335E-1,5.137824E-1,1.7047668E0,2.5222534E-1,-9.575943E-1,5.1668215E-1,3.9447495E-1,1.3809674E0,-9.133936E-1,9.932829E-1,-6.09002E-1,1.0221729E0],"categories":[],"categories_nodes":[],"categories_segments":[],"categories_sizes":[],"default_left":[1,1,1,1,1,1,1,1,1,1,1,1,1,1,1,1,1,1,0,0,1,1,1,1,0,1,1,1,0,1,1,0,1,1,1,1,1,0,0,1,1,1,1,1,1,1,1,0,1,0,0,1,1,0,1,0,0,0,0,0,0,0,0,0,0,0,0,0,0,0,0,0,0,0,0,0,0,0,0,0,0,0,0,0,0,0,0,0,0],"id":9,"left_children":[1,3,5,7,9,11,13,15,17,19,21,23,25,27,29,31,33,35,-1,-1,37,39,41,43,-1,45,47,49,-1,51,53,-1,55,57,59,61,63,-1,-1,65,67,69,71,73,75,77,79,-1,81,-1,-1,83,85,-1,87,-1,-1,-1,-1,-1,-1,-1,-1,-1,-1,-1,-1,-1,-1,-1,-1,-1,-1,-1,-1,-1,-1,-1,-1,-1,-1,-1,-1,-1,-1,-1,-1,-1,-1],"loss_changes":[3.0675476E1,1.0985481E1,1.8198318E1,9.874103E0,8.253479E0,1.886341E1,7.53069E0,1.0804483E1,7.6419654E0,7.979911E0,7.71624E0,1.864712E1,1.0312121E1,5.283878E0,4.4262276E0,8.340728E0,9.18918E0,2.6609945E0,0E0,0E0,8.947422E0,1.9962311E0,7.694457E0,1.7081024E1,0E0,3.8128662E0,5.9794025E0,2.3679962E0,0E0,3.384407E0,4.148945E0,0E0,2.056236E0,3.3869762E0,3.2563388E-1,1.3304291E0,2.318252E0,0E0,0E0,2.797367E0,5.292238E0,8.564093E0,1.2144819E1,6.9720864E0,1.1948601E1,9.749569E-1,1.7484398E0,0E0,4.4294105E0,0E0,0E0,2.1295586E0,4.0755835E0,0E0,3.452107E0,0E0,0E0,0E0,0E0,0E0,0E0,0E0,0E0,0E0,0E0,0E0,0E0,0E0,0E0,0E0,0E0,0E0,0E0,0E0,0E0,0E0,0E0,0E0,0E0,0E0,0E0,0E0,0E0,0E0,0E0,0E0,0E0,0E0,0E0],"parents":[2147483647,0,0,1,1,2,2,3,3,4,4,5,5,6,6,7,7,8,8,9,9,10,10,11,11,12,12,13,13,14,14,15,15,16,16,17,17,20,20,21,21,22,22,23,23,25,25,26,26,27,27,29,29,30,30,32,32,33,33,34,34,35,35,36,36,39,39,40,40,41,41,42,42,43,43,44,44,45,45,46,46,48,48,51,51,52,52,54,54],"right_children":[2,4,6,8,10,12,14,16,18,20,22,24,26,28,30,32,34,36,-1,-1,38,40,42,44,-1,46,48,50,-1,52,54,-1,56,58,60,62,64,-1,-1,66,68,70,72,74,76,78,80,-1,82,-1,-1,84,86,-1,88,-1,-1,-1,-1,-1,-1,-1,-1,-1,-1,-1,-1,-1,-1,-1,-1,-1,-1,-1,-1,-1,-1,-1,-1,-1,-1,-1,-1,-1,-1,-1,-1,-1,-1],"split_conditions":[-3.7324524E2,1.0201528E2,-2.208642E0,5.1213074E-1,-3.1736092E1,-8.013497E0,-2.7804477E0,-1.847203E0,4.380695E0,-1.3486534E1,-6.1666794E0,1.642608E1,1.2202469E2,-7.537756E-1,5.534374E0,-7.872628E-2,2.250103E0,1.9260559E0,2.5548357E-1,-2.6142448E-1,-3.4587893E0,-6.2543654E-1,-5.092882E0,1.9808886E1,3.4740967E-1,-2.5215654E0,-1.2782049E1,-5.4774747E0,2.6678482E-1,-2.1909544E0,-1.2366683E0,-3.5527056E-1,-5.1290214E-1,-5.395405E2,-6.3243723E0,-7.862735E0,-2.3688645E0,5.372738E-1,-1.8247752E-1,-5.310156E0,1.21596725E2,-2.3493884E0,-1.820311E0,-1.180348E0,4.5635633E0,-2.304808E0,-7.235178E-2,3.357643E-1,-3.2103872E0,7.031781E-2,-3.8449132E-1,-3.4869242E0,1.5393796E1,-2.590067E-1,-1.1588626E0,-6.1919786E-2,3.7928775E-1,-4.881032E-2,4.8052496E-1,-2.1105394E-2,-2.475833E-1,-2.1178853E-2,-3.908098E-1,-2.1646298E-1,2.2842355E-1,4.8740562E-2,-3.835306E-1,-3.6640126E-2,-3.5521466E-1,3.281738E-1,-2.4502125E-1,-3.1696188E-1,1.6936962E-2,-1.1648871E-1,2.7523118E-1,-2.2887516E-1,3.5712287E-1,-1.3886501E-1,1.5413472E-1,5.1143E-1,7.5667605E-2,-2.872783E-1,1.5500465E-1,1.1834249E-1,4.1429022E-1,-2.740181E-1,2.979849E-1,-1.827006E-1,3.066519E-1],"split_indices":[0,1,15,7,4,4,39,38,10,13,11,12,1,34,19,30,26,25,0,0,33,34,27,3,0,36,13,20,0,6,32,0,33,0,6,8,31,0,0,28,1,26,31,14,9,24,31,0,6,0,0,38,3,0,37,0,0,0,0,0,0,0,0,0,0,0,0,0,0,0,0,0,0,0,0,0,0,0,0,0,0,0,0,0,0,0,0,0,0],"split_type":[0,0,0,0,0,0,0,0,0,0,0,0,0,0,0,0,0,0,0,0,0,0,0,0,0,0,0,0,0,0,0,0,0,0,0,0,0,0,0,0,0,0,0,0,0,0,0,0,0,0,0,0,0,0,0,0,0,0,0,0,0,0,0,0,0,0,0,0,0,0,0,0,0,0,0,0,0,0,0,0,0,0,0,0,0,0,0,0,0],"sum_hessian":[2.9625134E2,1.481099E2,1.4814143E2,3.3073303E1,1.1503659E2,1.144906E2,3.3650833E1,1.8883894E1,1.4189409E1,8.170964E0,1.0686563E2,9.352944E1,2.0961157E1,5.4096384E0,2.8241196E1,7.684488E0,1.1199406E1,1.2264468E1,1.9249413E0,3.2399828E0,4.930981E0,5.5938152E1,5.092748E1,8.686167E1,6.667776E0,1.1346215E1,9.614942E0,3.9133346E0,1.4963038E0,2.169838E1,6.5428166E0,5.018327E0,2.6661606E0,8.878349E0,2.3210564E0,1.0046407E1,2.2180614E0,3.0540013E0,1.8769797E0,3.7140015E1,1.8798138E1,7.843156E0,4.308432E1,1.5813771E1,7.10479E1,2.0936882E0,9.252526E0,2.0749414E0,7.54E0,1.0311573E0,2.882177E0,1.920282E1,2.49556E0,1.8844059E0,4.6584105E0,1.1295488E0,1.5366118E0,1.0422851E0,7.836064E0,1.0315963E0,1.2894601E0,1.0909995E0,8.955407E0,1.1464832E0,1.0715783E0,1.1782496E0,3.5961765E1,8.420981E0,1.0377155E1,4.833421E0,3.0097346E0,2.8561249E1,1.4523074E1,5.7789497E0,1.00348215E1,6.863714E1,2.4107583E0,1.0283129E0,1.0653753E0,7.914052E0,1.3384746E0,5.2857165E0,2.2542832E0,3.680721E0,1.5522099E1,1.359812E0,1.1357479E0,1.0462905E0,3.6121202E0],"tree_param":{"num_deleted":"0","num_feature":"40","num_nodes":"89","size_leaf_vector":"0"}},{"base_weights":[-2.5763643E-1,-2.0126747E-1,-9.343311E-1,-2.8960577E-1,2.5999904E-1,1.4384548E-1,-1.1593984E0,-1.299899E-1,-5.969792E-1,-2.8582427E-1,5.469084E-1,9.979728E-1,-7.7716607E-1,-1.2662406E0,-1.8598646E-1,7.146704E-1,-1.8397902E-1,-1.0600439E0,-3.4202898E-1,-5.676581E-1,4.3840626E-1,-3.8719377E-1,7.767654E-1,-1.2976315E0,-3.810646E-1,-7.3600376E-1,4.2352283E-1,-7.3138493E-1,1.0421385E0,-7.8775334E-1,-9.415553E-2,-1.2223282E0,-3.141643E-1,-9.721222E-1,3.356153E-2,-1.1678172E0,4.090448E-2,-5.6045943E-1,9.1561794E-1,-1.1922462E0,6.545442E-1,9.173391E-1,-7.3256165E-1,-4.6942154E-1,1.3339849E0,3.024265E-1,-1.0022597E0,6.7693315E-2,-5.119601E-1,-4.1220533E-3,-1.2962357E0,8.207956E-1,-8.394882E-1,-1.0833818E0,1.4396884E-1,-8.3219045E-1,3.5745606E-1,-2.6766285E-1,-1.3369949E0,-7.020124E-1,6.058464E-1,1.243139E0,3.366869E-2,4.2031948E-2,8.664484E-1,1.1440816E0,2.5881935E-2],"categories":[],"categories_nodes":[],"categories_segments":[],"categories_sizes":[],"default_left":[1,1,1,1,1,1,1,1,1,1,1,0,0,1,1,1,1,1,1,1,1,1,1,0,0,0,0,0,1,1,1,1,1,1,1,1,1,0,1,0,1,1,0,0,0,0,0,0,0,0,0,0,0,0,0,0,0,0,0,0,0,0,0,0,0,0,0],"id":10,"left_children":[1,3,5,7,9,11,13,15,17,19,21,-1,-1,23,25,27,29,31,33,35,37,39,41,-1,-1,-1,-1,-1,43,45,47,49,51,53,55,57,59,-1,61,-1,63,65,-1,-1,-1,-1,-1,-1,-1,-1,-1,-1,-1,-1,-1,-1,-1,-1,-1,-1,-1,-1,-1,-1,-1,-1,-1],"loss_changes":[1.2057175E1,1.2202202E1,6.0902557E0,1.2200033E1,7.7299166E0,4.7916894E0,1.8762608E0,7.7011642E0,9.702641E0,3.7839808E0,7.180644E0,0E0,0E0,9.140015E-3,1.3779284E0,5.5815096E0,8.430424E0,3.2226486E0,1.3394291E1,4.7605405E0,3.094821E0,6.64684E0,6.198571E0,0E0,0E0,0E0,0E0,0E0,4.4687757E0,5.0204477E0,9.342244E0,2.166809E0,4.6660533E0,2.77849E0,1.0487841E1,6.366253E-1,3.5198011E0,0E0,1.126493E0,0E0,4.431541E-1,4.876583E0,0E0,0E0,0E0,0E0,0E0,0E0,0E0,0E0,0E0,0E0,0E0,0E0,0E0,0E0,0E0,0E0,0E0,0E0,0E0,0E0,0E0,0E0,0E0,0E0,0E0],"parents":[2147483647,0,0,1,1,2,2,3,3,4,4,5,5,6,6,7,7,8,8,9,9,10,10,13,13,14,14,15,15,16,16,17,17,18,18,19,19,20,20,21,21,22,22,28,28,29,29,30,30,31,31,32,32,33,33,34,34,35,35,36,36,38,38,40,40,41,41],"right_children":[2,4,6,8,10,12,14,16,18,20,22,-1,-1,24,26,28,30,32,34,36,38,40,42,-1,-1,-1,-1,-1,44,46,48,50,52,54,56,58,60,-1,62,-1,64,66,-1,-1,-1,-1,-1,-1,-1,-1,-1,-1,-1,-1,-1,-1,-1,-1,-1,-1,-1,-1,-1,-1,-1,-1,-1],"split_conditions":[1.2049528E1,2.255632E0,-4.414061E2,6.417014E-1,1.197239E0,1.343005E2,1.3486569E2,-5.512732E0,-2.41732E0,3.721064E0,-1.2620699E1,2.9939184E-1,-2.3314983E-1,4.759694E0,-2.5256914E1,-3.2290616E0,-3.9406967E1,-2.13619E0,-9.613724E0,-2.2470818E0,-1.6017147E1,5.432008E0,3.0401684E1,-3.8928947E-1,-1.14319384E-1,-2.2080113E-1,1.2705685E-1,-2.1941549E-1,-1.0348259E1,-3.9346576E0,3.0972426E0,-3.0599957E1,-4.3407773E2,1.3709552E0,-2.6209553E1,-5.2831197E0,-2.716855E0,-1.6813783E-1,2.670833E1,-3.5767388E-1,-6.298499E0,1.0136518E1,-2.1976851E-1,-1.4082646E-1,4.0019548E-1,9.072795E-2,-3.0067793E-1,2.0307995E-2,-1.5358803E-1,-1.236616E-3,-3.8887072E-1,2.462387E-1,-2.5184646E-1,-3.2501453E-1,4.319065E-2,-2.4965714E-1,1.07236825E-1,-8.0298856E-2,-4.010985E-1,-2.1060373E-1,1.8175393E-1,3.7294173E-1,1.0100607E-2,1.2609585E-2,2.5993454E-1,3.432245E-1,7.7645807E-3],"split_indices":[12,26,0,39,28,1,1,28,25,7,11,0,0,38,2,34,2,27,13,34,11,26,5,0,0,0,0,0,9,34,8,6,0,27,4,33,22,0,5,0,18,23,0,0,0,0,0,0,0,0,0,0,0,0,0,0,0,0,0,0,0,0,0,0,0,0,0],"split_type":[0,0,0,0,0,0,0,0,0,0,0,0,0,0,0,0,0,0,0,0,0,0,0,0,0,0,0,0,0,0,0,0,0,0,0,0,0,0,0,0,0,0,0,0,0,0,0,0,0,0,0,0,0,0,0,0,0,0,0,0,0,0,0,0,0,0,0],"sum_hessian":[3.2002145E2,2.9661105E2,2.34104E1,2.4924893E2,4.7362133E1,4.105246E0,1.9305155E1,1.6499278E2,8.425614E1,1.6319431E1,3.10427E1,2.0866075E0,2.0186386E0,1.712471E1,2.1804435E0,9.177253E0,1.5581552E2,2.8796103E1,5.546004E1,1.1903416E1,4.416016E0,5.9950953E0,2.5047606E1,1.6088217E1,1.0364935E0,1.0370663E0,1.1433771E0,1.4667639E0,7.710489E0,1.9172443E1,1.3664308E2,2.3125755E1,5.670347E0,2.011938E1,3.534066E1,5.530404E0,6.3730116E0,1.3712877E0,3.0447283E0,3.3002176E0,2.6948776E0,2.3272318E1,1.7752864E0,1.1493267E0,6.5611625E0,3.0847971E0,1.6087646E1,9.909407E1,3.7549015E1,1.3831571E0,2.1742598E1,1.6161679E0,4.0541797E0,1.8322205E1,1.7971755E0,9.194622E0,2.6146038E1,1.283475E0,4.2469287E0,2.6480772E0,3.7249343E0,1.9215899E0,1.1231384E0,1.0006982E0,1.6941794E0,1.8327362E1,4.9449573E0],"tree_param":{"num_deleted":"0","num_feature":"40","num_nodes":"67","size_leaf_vector":"0"}},{"base_weights":[-3.5335183E-1,-1.5997317E-1,-8.255028E-1,-9.993175E-1,-8.493985E-2,-1.0602682E0,-1.5274994E-1,4.1736987E-1,-1.2143941E0,-2.6539963E-1,2.3942041E-1,-8.4922925E-2,-1.0991627E0,5.601698E-1,-6.936777E-1,-1.3217345E0,7.35636E-2,-5.3210294E-1,1.01862855E-1,-1.192936E-1,6.453703E-1,-7.14936E-1,5.618783E-1,-1.151687E0,-3.759723E-1,8.770292E-1,-6.1387956E-1,-2.0775187E-1,-1.137794E0,-3.3248952E-1,-1.3886688E0,-2.561215E-1,-9.576496E-1,5.094623E-1,-3.6437902E-1,1.0234768E0,-2.5992703E-1,-7.839737E-1,8.400792E-1,-1.1720942E0,-1.1729392E-1,6.7544675E-1,-9.813795E-1,-3.311043E-1,1.0776143E0,4.1911224E-1,-9.8756516E-1,7.6332366E-1,-4.2429614E-1,3.1176674E-1,-1.1238978E0,6.758806E-1,-8.025211E-1,7.5307417E-1,-6.39927E-1,1.2851714E0,1.7511146E-1,5.3519315E-1,-4.865237E-1,6.0405977E-2,-1.1617085E0,1.0931519E0,-1.7008787E-1,-1.1993372E0,-3.4208137E-1,1.17372066E-1,1.2202036E0,-4.693879E-1,7.73217E-1],"categories":[],"categories_nodes":[],"categories_segments":[],"categories_sizes":[],"default_left":[1,1,1,1,1,1,1,0,1,1,1,1,1,1,1,1,0,1,1,1,1,0,0,1,1,1,0,1,0,0,0,1,1,1,1,1,1,1,1,1,0,0,0,0,1,1,0,0,0,0,0,0,0,0,0,0,0,0,0,0,0,0,0,0,0,0,0,0,0],"id":11,"left_children":[1,3,5,7,9,11,13,-1,15,17,19,21,23,25,27,29,-1,31,33,35,37,-1,-1,39,41,43,-1,45,-1,-1,-1,47,49,51,53,55,57,59,61,63,-1,-1,-1,-1,65,67,-1,-1,-1,-1,-1,-1,-1,-1,-1,-1,-1,-1,-1,-1,-1,-1,-1,-1,-1,-1,-1,-1,-1],"loss_changes":[2.674263E1,1.3144329E1,1.3307884E1,5.730673E0,1.141409E1,2.2986603E0,9.347201E0,0E0,2.1903934E0,1.2304727E1,1.0247778E1,1.8286545E0,1.867096E0,4.4724836E0,2.710555E0,4.6716118E-1,0E0,8.282774E0,1.0344158E1,6.360804E0,9.820748E0,0E0,0E0,1.0439453E0,4.2177677E0,2.4746728E0,0E0,4.199518E0,0E0,0E0,0E0,8.109688E0,6.3019733E0,6.860665E0,8.338813E0,7.425151E-1,6.4881067E0,1.4940417E0,7.716465E0,8.282776E-1,0E0,0E0,0E0,0E0,9.1519356E-1,1.9345186E0,0E0,0E0,0E0,0E0,0E0,0E0,0E0,0E0,0E0,0E0,0E0,0E0,0E0,0E0,0E0,0E0,0E0,0E0,0E0,0E0,0E0,0E0,0E0],"parents":[2147483647,0,0,1,1,2,2,3,3,4,4,5,5,6,6,8,8,9,9,10,10,11,11,12,12,13,13,14,14,15,15,17,17,18,18,19,19,20,20,23,23,24,24,25,25,27,27,31,31,32,32,33,33,34,34,35,35,36,36,37,37,38,38,39,39,44,44,45,45],"right_children":[2,4,6,8,10,12,14,-1,16,18,20,22,24,26,28,30,-1,32,34,36,38,-1,-1,40,42,44,-1,46,-1,-1,-1,48,50,52,54,56,58,60,62,64,-1,-1,-1,-1,66,68,-1,-1,-1,-1,-1,-1,-1,-1,-1,-1,-1,-1,-1,-1,-1,-1,-1,-1,-1,-1,-1,-1,-1],"split_conditions":[-3.3562048E2,-1.21838E1,8.078863E0,-3.847929E0,4.7130768E1,-5.369205E0,-2.2203715E0,1.2521097E-1,1.1774998E1,1.28067E2,-1.3199002E0,2.7385051E0,5.9186354E0,-2.0494065E0,-2.5432076E0,-1.0591777E1,2.206908E-2,1.9427148E-1,-4.0081207E2,-4.3949852E1,-3.0607319E1,-2.1448082E-1,1.685635E-1,8.328188E0,-1.3421302E0,-5.426575E1,-1.8416387E-1,1.5047088E-1,-3.4133822E-1,-9.974686E-2,-4.1660064E-1,-4.2955055E0,-5.1009245E0,1.7541611E0,-7.2388096E0,-4.0484804E-1,-4.6419144E0,5.121601E0,-1.086894E0,8.044071E0,-3.5188176E-2,2.0263404E-1,-2.9441386E-1,-9.93313E-2,-5.211794E0,-1.1985916E1,-2.9626957E-1,2.2899711E-1,-1.2728885E-1,9.353003E-2,-3.3716935E-1,2.027642E-1,-2.4075635E-1,2.2592226E-1,-1.9197811E-1,3.8555142E-1,5.253344E-2,1.6055796E-1,-1.4595711E-1,1.8121794E-2,-3.4851256E-1,3.279456E-1,-5.1026363E-2,-3.5980117E-1,-1.0262442E-1,3.5211623E-2,3.660611E-1,-1.4081638E-1,2.3196511E-1],"split_indices":[0,8,21,36,3,32,32,0,2,1,8,21,39,29,31,10,0,32,0,2,4,0,0,22,28,4,0,30,0,0,0,33,31,18,17,34,18,14,15,4,0,0,0,0,17,9,0,0,0,0,0,0,0,0,0,0,0,0,0,0,0,0,0,0,0,0,0,0,0],"split_type":[0,0,0,0,0,0,0,0,0,0,0,0,0,0,0,0,0,0,0,0,0,0,0,0,0,0,0,0,0,0,0,0,0,0,0,0,0,0,0,0,0,0,0,0,0,0,0,0,0,0,0,0,0,0,0,0,0,0,0,0,0,0,0,0,0,0,0,0,0],"sum_hessian":[2.933432E2,2.0905817E2,8.4285034E1,1.6144361E1,1.929138E2,6.2054386E1,2.2230652E1,2.003954E0,1.4140408E1,1.2406903E2,6.884477E1,2.5017693E0,5.9552616E1,9.575275E0,1.2655376E1,1.3028377E1,1.1120318E0,7.1614365E1,5.2454662E1,3.6923653E1,3.1921124E1,1.2139689E0,1.2878006E0,5.4967865E1,4.5847497E0,7.7394853E0,1.8357904E0,6.744132E0,5.911244E0,1.203837E0,1.1824539E1,4.4412937E1,2.7201431E1,2.7937954E1,2.4516706E1,3.358145E0,3.3565506E1,3.4642117E0,2.8456911E1,5.3773857E1,1.1940073E0,1.6330023E0,2.9517477E0,1.0093611E0,6.730124E0,3.995134E0,2.748998E0,5.788031E0,3.8624905E1,3.0485334E0,2.4152899E1,2.5223345E1,2.7146099E0,4.506819E0,2.0009888E1,2.172971E0,1.1851741E0,7.142131E0,2.6423376E1,1.3303843E0,2.1338274E0,2.2690268E1,5.7666426E0,5.163414E1,2.1397176E0,1.1058857E0,5.624238E0,1.045717E0,2.949417E0],"tree_param":{"num_deleted":"0","num_feature":"40","num_nodes":"69","size_leaf_vector":"0"}},{"base_weights":[-2.2247902E-1,-3.518717E-1,3.832064E-1,5.678265E-1,-4.0518188E-1,6.482734E-1,-6.082995E-1,7.7909756E-1,-8.352889E-1,-3.4690547E-1,-1.1103458E0,8.2246274E-1,-5.3131115E-1,-9.793306E-1,7.9148966E-1,-3.3927265E-1,9.6276873E-1,-1.3153994E-3,-4.898648E-1,-1.1956885E0,7.5069636E-2,-2.7077854E-1,1.0151613E0,5.361913E-1,-9.4423205E-1,-1.1409084E0,9.78939E-2,1.1515005E0,-2.237223E-1,4.1900897E-1,-4.7195736E-1,9.706206E-3,-6.1121035E-1,-2.612223E-1,-1.249392E0,-1.0002456E0,6.9951314E-1,1.1524026E0,-2.4945636E-1,1.3073747E0,6.019635E-2,-1.6238208E-1,8.8654375E-1,-9.016682E-1,6.760367E-1,-3.1925794E-1,9.906041E-1,-8.4109175E-1,-2.175553E-1,-1.1633117E0,-3.1780437E-1,1.2166511E0,-3.4669623E-2,-1.103726E0,6.2030923E-1],"categories":[],"categories_nodes":[],"categories_segments":[],"categories_sizes":[],"default_left":[1,1,1,1,1,1,1,1,0,1,1,1,1,1,0,0,1,1,1,1,0,1,1,0,0,0,0,1,0,1,1,1,1,0,0,1,0,1,1,0,0,0,0,0,0,0,0,0,0,0,0,0,0,0,0],"id":12,"left_children":[1,3,5,7,9,11,13,15,-1,17,19,21,23,25,-1,-1,27,29,31,33,-1,35,37,-1,-1,-1,-1,39,-1,41,43,45,47,-1,-1,49,-1,51,53,-1,-1,-1,-1,-1,-1,-1,-1,-1,-1,-1,-1,-1,-1,-1,-1],"loss_changes":[2.1450268E1,1.1243324E1,1.3102577E1,4.422486E0,8.363926E0,8.376026E0,6.3406243E0,2.7044487E0,0E0,9.786806E0,1.6879177E0,7.4499893E0,2.965521E0,1.6638556E0,0E0,0E0,2.5424538E0,1.1863776E1,8.500896E0,4.1612625E-1,0E0,4.870871E0,5.349453E0,0E0,0E0,0E0,0E0,1.4464417E0,0E0,8.755524E0,1.4565748E1,9.470863E0,1.0021339E1,0E0,0E0,5.0457E-2,0E0,2.0624008E0,3.417002E0,0E0,0E0,0E0,0E0,0E0,0E0,0E0,0E0,0E0,0E0,0E0,0E0,0E0,0E0,0E0,0E0],"parents":[2147483647,0,0,1,1,2,2,3,3,4,4,5,5,6,6,7,7,9,9,10,10,11,11,12,12,13,13,16,16,17,17,18,18,19,19,21,21,22,22,27,27,29,29,30,30,31,31,32,32,35,35,37,37,38,38],"right_children":[2,4,6,8,10,12,14,16,-1,18,20,22,24,26,-1,-1,28,30,32,34,-1,36,38,-1,-1,-1,-1,40,-1,42,44,46,48,-1,-1,50,-1,52,54,-1,-1,-1,-1,-1,-1,-1,-1,-1,-1,-1,-1,-1,-1,-1,-1],"split_conditions":[-2.9016943E2,-1.5199055E1,1.0576375E1,7.6362095E0,6.3187313E0,5.816859E0,1.6771832E1,-2.6994648E0,-2.505867E-1,1.06179474E2,3.5476415E0,-2.4843717E0,8.59615E1,-7.13011E0,2.374469E-1,-1.017818E-1,2.2137961E0,5.4722536E-1,-9.508103E0,-5.4367666E0,2.2520892E-2,-1.4056712E0,3.253018E0,1.608574E-1,-2.832696E-1,-3.4227252E-1,2.9368171E-2,1.5715485E0,-6.711669E-2,-3.6825597E-1,-9.5265436E-1,6.7263544E-1,4.2836533E0,-7.83667E-2,-3.748176E-1,-5.700758E0,2.0985395E-1,1.2493283E1,4.949539E0,3.9221242E-1,1.8058905E-2,-4.8714627E-2,2.6596314E-1,-2.7050048E-1,2.0281102E-1,-9.5777385E-2,2.9718125E-1,-2.5232753E-1,-6.5266594E-2,-3.4899354E-1,-9.534132E-2,3.6499533E-1,-1.0400888E-2,-3.311178E-1,1.8609278E-1],"split_indices":[0,8,21,28,23,26,12,28,0,1,39,23,1,13,0,0,34,7,9,19,0,28,29,0,0,0,0,26,0,39,27,18,14,0,0,15,0,8,29,0,0,0,0,0,0,0,0,0,0,0,0,0,0,0,0],"split_type":[0,0,0,0,0,0,0,0,0,0,0,0,0,0,0,0,0,0,0,0,0,0,0,0,0,0,0,0,0,0,0,0,0,0,0,0,0,0,0,0,0,0,0,0,0,0,0,0,0,0,0,0,0,0,0],"sum_hessian":[2.7098016E2,2.2362596E2,4.73542E1,1.1723465E1,2.119025E2,3.7638245E1,9.715954E0,1.0575777E1,1.1476872E0,1.9710521E2,1.4797294E1,3.305915E1,4.5790954E0,7.9176555E0,1.7982981E0,1.3723559E0,9.203422E0,5.7972237E1,1.3913297E2,1.3795441E1,1.0018531E0,4.893206E0,2.8165943E1,1.1939381E0,3.385157E0,6.833543E0,1.0841125E0,7.965813E0,1.2376083E0,3.0681068E1,2.7291166E1,2.7370516E1,1.1176245E2,1.0684294E0,1.2727011E1,2.7756195E0,2.1175866E0,2.5488558E1,2.6773858E0,6.796986E0,1.168827E0,1.3966306E1,1.6714762E1,2.001415E1,7.277016E0,2.1001694E1,6.3688226E0,6.9841E1,4.1921444E1,1.6715722E0,1.1040474E0,2.4156221E1,1.3323364E0,1.2150202E0,1.4623656E0],"tree_param":{"num_deleted":"0","num_feature":"40","num_nodes":"55","size_leaf_vector":"0"}},{"base_weights":[-2.02872E-1,-1.5709583E-1,-8.128623E-1,-1.8874192E-1,7.6368606E-1,1.1809707E-1,-1.0306553E0,-1.1420948E-1,-5.591191E-1,9.6624935E-1,-2.2684826E-1,-5.137471E-1,9.964315E-1,-1.1401184E0,-1.6737245E-1,-6.129706E-1,-2.608113E-2,7.991913E-1,-6.373783E-1,-5.1602814E-2,1.1164341E0,-9.007074E-1,2.2656365E-1,-1.1781123E0,-3.2516736E-1,-3.2861042E-1,7.60202E-2,-7.737195E-1,5.525285E-1,2.4699518E-1,-1.669478E-1,-7.3185104E-1,5.9283173E-1,2.8792405E-1,-8.972836E-1,-5.333794E-1,1.2571969E0,-4.1098908E-1,4.3020466E-1,6.898812E-1,-2.184264E-1,-9.0873146E-1,-1.1926101E-1,1.1843928E0,-3.301905E-1],"categories":[],"categories_nodes":[],"categories_segments":[],"categories_sizes":[],"default_left":[1,1,1,1,1,1,1,1,1,1,0,1,0,1,1,1,1,0,1,0,0,0,0,0,0,0,0,1,1,1,1,1,1,0,0,0,0,0,0,0,0,0,0,0,0],"id":13,"left_children":[1,3,5,7,9,11,13,15,17,19,-1,21,-1,23,25,27,29,-1,31,-1,-1,-1,-1,-1,-1,-1,-1,33,35,37,39,41,43,-1,-1,-1,-1,-1,-1,-1,-1,-1,-1,-1,-1],"loss_changes":[8.383482E0,8.442123E0,4.387267E0,7.558215E0,2.1574683E0,3.2233725E0,1.4300003E0,1.0142572E1,5.3989983E0,1.3126726E0,0E0,1.2071229E0,0E0,8.290672E-2,1.467234E-1,6.921118E0,7.636725E0,0E0,5.553255E0,0E0,0E0,0E0,0E0,0E0,0E0,0E0,0E0,4.30863E0,4.331581E0,8.325607E0,5.922509E0,4.3726254E0,2.408034E0,0E0,0E0,0E0,0E0,0E0,0E0,0E0,0E0,0E0,0E0,0E0,0E0],"parents":[2147483647,0,0,1,1,2,2,3,3,4,4,5,5,6,6,7,7,8,8,9,9,11,11,13,13,14,14,15,15,16,16,18,18,27,27,28,28,29,29,30,30,31,31,32,32],"right_children":[2,4,6,8,10,12,14,16,18,20,-1,22,-1,24,26,28,30,-1,32,-1,-1,-1,-1,-1,-1,-1,-1,34,36,38,40,42,44,-1,-1,-1,-1,-1,-1,-1,-1,-1,-1,-1,-1],"split_conditions":[1.2049528E1,7.9116874E0,-4.414061E2,-1.1394442E0,-2.1313548E0,-3.8703794E0,1.3486569E2,-9.181185E0,-7.8682513E0,-8.520304E0,-6.805448E-2,-5.021993E-1,2.9892948E-1,7.396902E0,1.5583868E0,7.577783E0,4.771808E-3,2.397574E-1,1.2115082E1,-1.5480845E-2,3.3493024E-1,-2.7021223E-1,6.79691E-2,-3.534337E-1,-9.755021E-2,-9.858313E-2,2.2806061E-2,-7.8451777E0,-1.1677015E1,-2.4328405E1,-2.9742285E1,-6.126659E0,-6.481096E1,8.637722E-2,-2.691851E-1,-1.6001382E-1,3.771591E-1,-1.2329673E-1,1.290614E-1,2.0696437E-1,-6.552792E-2,-2.7261946E-1,-3.5778306E-2,3.5531786E-1,-9.905716E-2],"split_indices":[12,26,0,20,18,22,1,10,19,19,0,34,0,32,9,21,12,0,8,0,0,0,0,0,0,0,0,19,13,4,6,2,2,0,0,0,0,0,0,0,0,0,0,0,0],"split_type":[0,0,0,0,0,0,0,0,0,0,0,0,0,0,0,0,0,0,0,0,0,0,0,0,0,0,0,0,0,0,0,0,0,0,0,0,0,0,0,0,0,0,0,0,0],"sum_hessian":[3.0380884E2,2.8377106E2,2.0037796E1,2.7511087E2,8.660185E0,3.8857708E0,1.6152025E1,2.3011275E2,4.4998127E1,7.2102194E0,1.4499656E0,2.5014217E0,1.3843489E0,1.4049847E1,2.1021793E0,3.3659855E1,1.964529E2,1.9494935E0,4.3048634E1,1.0114807E0,6.1987386E0,1.5004667E0,1.000955E0,1.2998232E1,1.0516146E0,1.0538926E0,1.0482867E0,2.9875492E1,3.7843635E0,6.659743E1,1.2985547E2,4.0354733E1,2.693901E0,2.9760015E0,2.689949E1,1.5849704E0,2.199393E0,1.4233938E1,5.2363487E1,6.6567497E0,1.23198715E2,3.093816E1,9.416572E0,1.4691566E0,1.2247446E0],"tree_param":{"num_deleted":"0","num_feature":"40","num_nodes":"45","size_leaf_vector":"0"}},{"base_weights":[-2.843072E-1,-1.452038E-1,-8.118965E-1,9.778118E-3,-4.8493972E-1,-1.0188301E0,-6.8660355E-3,-1.3461936E-1,4.1414633E-1,-6.4100057E-1,4.0464756E-1,-1.1865361E-1,-1.0574696E0,-7.549699E-1,5.3169316E-1,-2.3430045E-1,8.7398577E-1,-1.0549119E-1,8.188748E-1,-1.0229907E0,-3.4094474E-1,-1.0001713E0,1.021896E0,-1.1127582E0,-3.685959E-1,-9.8629004E-1,-5.340701E-2,9.921343E-1,-3.086303E-1,-5.929069E-1,-1.191296E-2,1.097033E0,-3.3409977E-1,-6.358506E-1,6.9788E-1,-4.9911764E-1,9.3384224E-1,-1.0969241E0,2.3272075E-1,-5.0580573E-1,7.8112245E-1,1.2310383E0,-2.1017164E-1,-1.1352291E0,-2.0129056E-1,6.41488E-1,-8.8422424E-1,4.2453724E-1,-8.0709887E-1,9.280976E-1,-7.0595676E-1,-6.476732E-1,2.059065E-1,1.3261626E0,6.703882E-2,8.5117E-1,-1.0095909E0,-4.511008E-1,1.0018793E0,1.2592133E0,3.1766644E-1,-1.1603999E0,6.448502E-2,7.815989E-1,-6.770158E-1,1.1808295E0,-3.4478796E-1,2.4225281E-1,1.3693413E0,-1.1568503E0,-1.7661119E-1],"categories":[],"categories_nodes":[],"categories_segments":[],"categories_sizes":[],"default_left":[1,1,1,1,1,1,1,1,1,1,1,0,1,1,1,1,1,1,1,1,1,0,1,1,1,0,0,0,1,1,1,1,0,1,1,0,1,1,0,1,1,1,0,1,0,0,0,0,0,0,0,0,0,0,0,0,0,0,0,0,0,0,0,0,0,0,0,0,0,0,0],"id":14,"left_children":[1,3,5,7,9,11,13,15,17,19,21,-1,23,25,27,29,31,33,35,37,39,-1,41,43,45,-1,-1,-1,47,49,51,53,-1,55,57,-1,59,61,-1,63,65,67,-1,69,-1,-1,-1,-1,-1,-1,-1,-1,-1,-1,-1,-1,-1,-1,-1,-1,-1,-1,-1,-1,-1,-1,-1,-1,-1,-1,-1],"loss_changes":[1.9728981E1,1.1336973E1,9.356419E0,8.74304E0,9.622622E0,1.4295311E0,5.4378033E0,1.1302936E1,8.371477E0,6.2721615E0,1.0281989E1,0E0,1.2176819E0,8.635144E-1,3.3454049E0,8.067343E0,3.098784E0,8.170389E0,3.8390474E0,2.5681782E0,6.6572366E0,0E0,2.2979193E0,5.716896E-1,2.9998827E0,0E0,0E0,0E0,1.6375364E0,7.315464E0,8.928716E0,1.9862413E0,0E0,7.220843E0,3.137259E0,0E0,3.7745514E0,1.8222294E0,0E0,7.168653E0,2.535634E0,6.1338806E-1,0E0,5.8150864E-1,0E0,0E0,0E0,0E0,0E0,0E0,0E0,0E0,0E0,0E0,0E0,0E0,0E0,0E0,0E0,0E0,0E0,0E0,0E0,0E0,0E0,0E0,0E0,0E0,0E0,0E0,0E0],"parents":[2147483647,0,0,1,1,2,2,3,3,4,4,5,5,6,6,7,7,8,8,9,9,10,10,12,12,13,13,14,14,15,15,16,16,17,17,18,18,19,19,20,20,22,22,23,23,24,24,28,28,29,29,30,30,31,31,33,33,34,34,36,36,37,37,39,39,40,40,41,41,43,43],"right_children":[2,4,6,8,10,12,14,16,18,20,22,-1,24,26,28,30,32,34,36,38,40,-1,42,44,46,-1,-1,-1,48,50,52,54,-1,56,58,-1,60,62,-1,64,66,68,-1,70,-1,-1,-1,-1,-1,-1,-1,-1,-1,-1,-1,-1,-1,-1,-1,-1,-1,-1,-1,-1,-1,-1,-1,-1,-1,-1,-1],"split_conditions":[-3.1892587E2,7.630341E-1,1.0576375E1,3.182589E0,4.573431E0,-6.0346756E0,9.59151E1,6.3334274E0,1.2121752E2,9.35784E0,3.084394E1,-3.5596084E-2,5.9186354E0,-4.2595688E1,-6.112632E0,1.4771668E0,-7.142745E-1,4.7482166E1,-1.2134701E1,6.014251E0,1.2425385E0,-3.000514E-1,2.0692799E1,2.5138664E0,-2.637249E0,-2.9588702E-1,-1.6022103E-2,2.976403E-1,-2.8973503E0,-6.1030164E2,-7.4894094E0,-8.615464E-3,-1.00229934E-1,-5.016997E2,-2.6043884E1,-1.497353E-1,-4.962274E0,6.495432E0,6.9816224E-2,-5.10876E0,2.1905823E0,-9.539763E0,-6.305149E-2,1.1922355E1,-6.038717E-2,1.9244641E-1,-2.6526728E-1,1.2736118E-1,-2.4212967E-1,2.784293E-1,-2.1178703E-1,-1.9430196E-1,6.177195E-2,3.9784878E-1,2.0111647E-2,2.55351E-1,-3.0287728E-1,-1.3533024E-1,3.005638E-1,3.7776402E-1,9.529994E-2,-3.4811997E-1,1.9345507E-2,2.3447968E-1,-2.0310475E-1,3.5424888E-1,-1.0343639E-1,7.267585E-2,4.108024E-1,-3.470551E-1,-5.298336E-2],"split_indices":[0,32,21,8,34,32,1,23,1,5,3,0,39,4,15,12,29,3,13,19,24,0,5,6,28,0,0,0,32,0,8,16,0,0,6,0,20,12,0,27,23,8,0,22,0,0,0,0,0,0,0,0,0,0,0,0,0,0,0,0,0,0,0,0,0,0,0,0,0,0,0],"split_type":[0,0,0,0,0,0,0,0,0,0,0,0,0,0,0,0,0,0,0,0,0,0,0,0,0,0,0,0,0,0,0,0,0,0,0,0,0,0,0,0,0,0,0,0,0,0,0,0,0,0,0,0,0,0,0,0,0,0,0,0,0,0,0,0,0,0,0,0,0,0,0],"sum_hessian":[2.6943216E2,2.1422511E2,5.5207054E1,1.4778105E2,6.644406E1,4.370665E1,1.1500404E1,1.0938677E2,3.8394276E1,5.6765152E1,9.6789055E0,1.9664097E0,4.1740242E1,4.6455345E0,6.8548694E0,1.00247E2,9.139777E0,1.713444E1,2.1259836E1,2.3913023E1,3.2852127E1,2.7651734E0,6.913732E0,3.8069477E1,3.6707628E0,3.1884036E0,1.4571311E0,4.311692E0,2.543177E0,3.7733887E1,6.251311E1,7.7929068E0,1.34687E0,1.0446515E1,6.6879253E0,1.4376115E0,1.9822226E1,2.2702787E1,1.2102358E0,2.9122492E1,3.729636E0,5.9111547E0,1.002577E0,3.691392E1,1.1555548E0,1.1580752E0,2.5126874E0,1.0893031E0,1.4538738E0,2.1117797E0,3.5622105E1,1.5448726E1,4.706439E1,6.139571E0,1.6533356E0,1.8416411E0,8.604874E0,1.2980376E0,5.389888E0,1.2289286E1,7.5329404E0,2.1527111E1,1.1756768E0,2.9998837E0,2.6122608E1,2.716485E0,1.013151E0,1.0629921E0,4.8481627E0,3.589748E1,1.0164409E0],"tree_param":{"num_deleted":"0","num_feature":"40","num_nodes":"71","size_leaf_vector":"0"}},{"base_weights":[-1.756448E-1,-5.135041E-1,1.4944891E-2,-7.163521E-1,-8.298264E-3,-2.1561778E-1,2.8825602E-1,-8.520814E-1,1.8765397E-1,2.329776E-1,-1.0325897E0,-4.3113627E-3,-8.3092684E-1,4.5633996E-1,-5.203466E-1,-9.742912E-1,-8.244182E-2,8.6540395E-1,-7.356822E-1,1.1918482E0,-7.8597724E-2,-2.563005E-1,4.190458E-1,-9.704379E-1,5.058822E-1,-2.9771847E-1,6.6671675E-1,-8.50694E-1,7.442585E-1,2.327024E-1,-1.0062166E0,6.8635094E-1,-9.697864E-1,-6.9554865E-1,1.444102E0,-8.657176E-1,-1.5115747E-1,-2.8945774E-1,1.6180936E0,-8.1119484E-1,2.8615788E-1,5.615763E-1,-4.980256E-1,3.9419033E-2,9.6385795E-1,-1.0955133E0,5.48135E-1,6.159819E-1,-8.973536E-1,-9.6554863E-1,7.4018556E-1,4.507892E-1,-1.1297172E0,1.0953254E0,5.1451948E-2,-1.036935E0,1.0815095E-1,-1.5732504E-1,1.4192638E0,1.6500543E-1,1.7907248E0,4.3820032E-1,1.9772583E0,-1.1096097E0,2.1984965E-1,5.807071E-1,-6.7883945E-1,9.0878916E-1,-7.892661E-1,4.2083502E-1,-8.00344E-1,-3.1108367E-1,6.56308E-1,-3.14058E-1,1.1717473E0,-1.1696792E0,-5.4026145E-2,-4.205583E-1,1.1143744E0,-1.2435979E0,1.8369447E-2,3.9576176E-1,9.823635E-1,-1.7246015E-1,-1.2516938E0],"categories":[],"categories_nodes":[],"categories_segments":[],"categories_sizes":[],"default_left":[1,1,1,1,1,1,1,1,1,1,0,1,1,1,1,1,1,1,1,1,1,1,1,1,0,1,1,1,1,0,1,1,0,0,1,0,0,0,1,1,1,1,1,1,1,1,0,1,1,0,1,0,1,0,0,0,0,0,0,0,0,0,0,0,0,0,0,0,0,0,0,0,0,0,0,0,0,0,0,0,0,0,0,0,0],"id":15,"left_children":[1,3,5,7,9,11,13,15,17,19,-1,21,23,25,27,29,31,33,35,37,39,41,43,45,-1,47,49,51,53,-1,55,57,-1,-1,59,-1,-1,-1,61,63,65,67,69,71,73,75,-1,77,79,-1,81,-1,83,-1,-1,-1,-1,-1,-1,-1,-1,-1,-1,-1,-1,-1,-1,-1,-1,-1,-1,-1,-1,-1,-1,-1,-1,-1,-1,-1,-1,-1,-1,-1,-1],"loss_changes":[1.6129974E1,9.250902E0,1.0210591E1,8.06654E0,6.8859763E0,1.1428602E1,1.0311318E1,5.2063904E0,6.4136486E0,6.839416E0,0E0,7.196993E0,4.6818504E0,1.0017596E1,6.1571536E0,2.099678E0,6.6650815E0,6.228555E0,2.0724773E-1,4.0038066E0,5.036654E0,8.638466E0,5.1690097E0,4.530386E0,0E0,8.329002E0,6.5552635E0,4.486004E0,7.3949194E-1,0E0,1.7331085E0,3.4990034E0,0E0,0E0,1.7192354E0,0E0,0E0,0E0,1.0405216E0,2.1629915E0,4.0161448E0,5.461628E0,9.549564E0,3.6377325E0,3.103281E0,1.439148E0,0E0,3.6802723E0,2.8689308E0,0E0,3.545927E0,0E0,8.703556E-1,0E0,0E0,0E0,0E0,0E0,0E0,0E0,0E0,0E0,0E0,0E0,0E0,0E0,0E0,0E0,0E0,0E0,0E0,0E0,0E0,0E0,0E0,0E0,0E0,0E0,0E0,0E0,0E0,0E0,0E0,0E0,0E0],"parents":[2147483647,0,0,1,1,2,2,3,3,4,4,5,5,6,6,7,7,8,8,9,9,11,11,12,12,13,13,14,14,15,15,16,16,17,17,18,18,19,19,20,20,21,21,22,22,23,23,25,25,26,26,27,27,28,28,30,30,31,31,34,34,38,38,39,39,40,40,41,41,42,42,43,43,44,44,45,45,47,47,48,48,50,50,52,52],"right_children":[2,4,6,8,10,12,14,16,18,20,-1,22,24,26,28,30,32,34,36,38,40,42,44,46,-1,48,50,52,54,-1,56,58,-1,-1,60,-1,-1,-1,62,64,66,68,70,72,74,76,-1,78,80,-1,82,-1,84,-1,-1,-1,-1,-1,-1,-1,-1,-1,-1,-1,-1,-1,-1,-1,-1,-1,-1,-1,-1,-1,-1,-1,-1,-1,-1,-1,-1,-1,-1,-1,-1],"split_conditions":[-3.9946158E2,-1.2356292E0,-9.6571124E-1,9.658055E0,3.937493E0,5.2140226E0,1.3725388E2,-2.0627089E0,-8.718789E-1,-8.266051E0,-3.097769E-1,-1.4263425E0,3.894485E0,-1.1734227E1,4.8154798E0,-1.0018296E1,2.3348923E0,-3.162561E0,-1.5508842E0,-2.9679768E0,-1.8783667E0,-4.024187E0,-5.20973E0,1.5881271E1,1.5176466E-1,-3.9189523E-1,-8.8601675E0,-8.755523E0,-2.7371511E0,6.9810726E-2,1.9269898E0,-1.3424134E0,-2.9093593E-1,-2.0866461E-1,-1.6429725E0,-2.597153E-1,-4.5347244E-2,-8.683732E-2,-1.1376034E1,8.4466946E-1,3.7538986E0,4.681616E0,-3.1427607E1,-1.1373961E0,-3.3323598E0,-1.122177E0,1.644405E-1,-1.4640878E1,-5.1418457E0,-2.896646E-1,-3.3816223E2,1.3523677E-1,-9.220676E0,3.285976E-1,1.5435585E-2,-3.1108052E-1,3.2445285E-2,-4.7197517E-2,4.2577916E-1,4.950163E-2,5.3721744E-1,1.314601E-1,5.931775E-1,-3.3288294E-1,6.5954894E-2,1.7421213E-1,-2.0365185E-1,2.7263677E-1,-2.3677984E-1,1.262505E-1,-2.401032E-1,-9.332511E-2,1.9689241E-1,-9.4217405E-2,3.515242E-1,-3.5090375E-1,-1.6207844E-2,-1.2616749E-1,3.3431232E-1,-3.7307936E-1,5.5108345E-3,1.1872853E-1,2.9470906E-1,-5.173805E-2,-3.7550816E-1],"split_indices":[0,31,36,10,6,23,1,20,17,13,0,33,16,15,14,14,12,16,34,23,33,34,11,12,0,16,14,9,33,0,13,36,0,0,37,0,0,0,2,37,32,19,4,18,12,6,0,5,24,0,0,0,22,0,0,0,0,0,0,0,0,0,0,0,0,0,0,0,0,0,0,0,0,0,0,0,0,0,0,0,0,0,0,0,0],"split_type":[0,0,0,0,0,0,0,0,0,0,0,0,0,0,0,0,0,0,0,0,0,0,0,0,0,0,0,0,0,0,0,0,0,0,0,0,0,0,0,0,0,0,0,0,0,0,0,0,0,0,0,0,0,0,0,0,0,0,0,0,0,0,0,0,0,0,0,0,0,0,0,0,0,0,0,0,0,0,0,0,0,0,0,0,0],"sum_hessian":[2.4937543E2,8.932835E1,1.6004709E2,6.3438755E1,2.5889587E1,8.692721E1,7.311987E1,5.520726E1,8.231494E0,2.1579094E1,4.310493E0,6.5455734E1,2.147148E1,6.0896904E1,1.2222974E1,4.741276E1,7.7945E0,4.783233E0,3.448261E0,4.5993624E0,1.6979733E1,4.1279873E1,2.417586E1,1.9690607E1,1.7808722E0,1.3193167E1,4.7703735E1,9.950858E0,2.2721157E0,1.0597122E0,4.635305E1,4.2975907E0,3.496909E0,1.2390795E0,3.544154E0,2.4272287E0,1.0210323E0,1.0994436E0,3.4999187E0,5.237161E0,1.1742571E1,9.115243E0,3.216463E1,1.4879872E1,9.295987E0,1.8449615E1,1.2409914E0,5.21678E0,7.976386E0,1.5316893E0,4.6172047E1,1.6480509E0,8.302808E0,1.1223755E0,1.1497401E0,4.51772E1,1.1758513E0,2.3629162E0,1.9346746E0,1.0703647E0,2.4737892E0,1.3348505E0,2.1650681E0,4.002515E0,1.2346464E0,9.301633E0,2.4409375E0,7.511717E0,1.6035262E0,7.865712E0,2.4298918E1,9.80475E0,5.075122E0,1.229211E0,8.066776E0,1.7108229E1,1.3413866E0,1.7445966E0,3.4721837E0,5.5281034E0,2.4482827E0,2.0149603E1,2.6022444E1,1.2112154E0,7.091592E0],"tree_param":{"num_deleted":"0","num_feature":"40","num_nodes":"85","size_leaf_vector":"0"}},{"base_weights":[-1.5013562E-1,-5.646361E-1,-9.3007885E-2,-1.0207133E0,4.423959E-2,2.3751995E-1,-1.7415984E-1,2.977527E-2,-1.2236459E0,-4.3742704E-1,7.805926E-1,3.6930266E-1,-8.112774E-1,-8.059687E-2,-5.319639E-1,-8.691321E-1,6.9591737E-1,-1.2677122E0,-3.1849563E-1,-1.0984553E0,4.654405E-1,1.3853624E0,-1.4625306E-1,5.2643377E-1,-6.5262353E-1,2.7530783E-1,-1.1731204E0,8.3364606E-2,-3.8516206E-1,6.629179E-2,-8.21819E-1,-4.7784144E-1,-1.355999E0,-1.313838E0,-3.8673155E-2,9.713921E-1,-7.2037345E-1,5.10857E-1,-7.50604E-1,-3.125783E-2,9.421038E-1,-9.6534985E-1,4.9101236E-1,4.550514E-1,-1.62513E-1,-5.456716E-1,4.2910206E-1,8.5963684E-1,-7.4318945E-1,-9.8459446E-1,3.9852452E-3,1.4635211E0,-2.0918429E-2,-5.6031436E-1,6.7025214E-1,1.441956E0,4.7003466E-1,-3.0714872E-1,-1.0544674E0,1.0120934E0,-8.14276E-2,4.1610122E-1,-3.1788197E-1,-1.11875765E-1,-8.163778E-1,9.468039E-1,-1.7679104E-1,1.4363698E0,-2.2504644E-1,-1.1670017E0,2.5041255E-1,4.133628E-2,-1.1096357E0,-7.572682E-1,8.961076E-1],"categories":[],"categories_nodes":[],"categories_segments":[],"categories_sizes":[],"default_left":[1,1,1,1,1,1,1,1,1,1,1,1,1,1,1,0,0,1,0,1,1,0,1,1,1,0,0,1,1,1,1,0,0,0,0,1,0,0,0,1,1,1,0,1,1,1,1,1,1,1,1,0,0,0,0,0,0,0,0,0,0,0,0,0,0,0,0,0,0,0,0,0,0,0,0],"id":16,"left_children":[1,3,5,7,9,11,13,15,17,19,21,23,25,27,29,-1,-1,31,-1,33,35,-1,37,39,41,-1,-1,43,45,47,49,-1,-1,-1,-1,51,-1,-1,-1,53,55,57,-1,59,61,63,65,67,69,71,73,-1,-1,-1,-1,-1,-1,-1,-1,-1,-1,-1,-1,-1,-1,-1,-1,-1,-1,-1,-1,-1,-1,-1,-1],"loss_changes":[6.9122095E0,9.883806E0,7.007166E0,4.3635616E0,6.062967E0,7.4335165E0,6.9565406E0,3.1572745E0,2.7573013E-1,6.7141685E0,3.9796734E0,7.81692E0,2.711253E0,8.367527E0,7.5389566E0,0E0,0E0,4.6147537E-1,0E0,1.3867259E0,3.7568257E0,0E0,1.7992877E0,9.508833E0,2.8519475E0,0E0,0E0,1.0065327E1,7.8918734E0,1.0279549E1,3.922182E0,0E0,0E0,0E0,0E0,1.9826984E0,0E0,0E0,0E0,7.215858E0,4.8582745E0,2.158165E-3,0E0,1.3168935E1,6.113822E0,5.70786E0,3.3692393E0,5.3561306E0,3.64704E0,3.170042E0,4.614539E0,0E0,0E0,0E0,0E0,0E0,0E0,0E0,0E0,0E0,0E0,0E0,0E0,0E0,0E0,0E0,0E0,0E0,0E0,0E0,0E0,0E0,0E0,0E0,0E0],"parents":[2147483647,0,0,1,1,2,2,3,3,4,4,5,5,6,6,7,7,8,8,9,9,10,10,11,11,12,12,13,13,14,14,17,17,19,19,20,20,22,22,23,23,24,24,27,27,28,28,29,29,30,30,35,35,39,39,40,40,41,41,43,43,44,44,45,45,46,46,47,47,48,48,49,49,50,50],"right_children":[2,4,6,8,10,12,14,16,18,20,22,24,26,28,30,-1,-1,32,-1,34,36,-1,38,40,42,-1,-1,44,46,48,50,-1,-1,-1,-1,52,-1,-1,-1,54,56,58,-1,60,62,64,66,68,70,72,74,-1,-1,-1,-1,-1,-1,-1,-1,-1,-1,-1,-1,-1,-1,-1,-1,-1,-1,-1,-1,-1,-1,-1,-1],"split_conditions":[1.5009068E1,-4.3742123E0,-2.4966698E0,-3.9483187E0,-2.7020147E0,3.1212206E0,-2.2878242E0,-9.686198E-1,1.5650333E2,-9.729751E-1,-6.692246E-1,-5.9190285E-1,-2.642391E0,2.1507421E1,-1.4512119E-1,-2.6073965E-1,2.0877522E-1,-4.435755E2,-9.55487E-2,3.0258312E0,5.4940236E-1,4.1560873E-1,4.9368396E-1,-9.866622E0,-2.883672E-1,8.259235E-2,-3.5193613E-1,-1.1267719E0,6.0639977E1,2.0371356E0,1.0847666E1,-1.4335243E-1,-4.067997E-1,-3.9415142E-1,-1.1601947E-2,6.9693685E-1,-2.1611205E-1,1.532571E-1,-2.251812E-1,-4.4191732E0,-4.6015552E-1,-9.049273E0,1.4730372E-1,-5.5873194E0,-2.917749E0,-2.9297588E0,-1.9725819E0,-8.073766E-1,-6.317303E-1,-7.549533E0,-3.1123834E0,4.3905637E-1,-6.275529E-3,-1.680943E-1,2.0107566E-1,4.3258682E-1,1.410104E-1,-9.214462E-2,-3.1634024E-1,3.0362803E-1,-2.442828E-2,1.2483037E-1,-9.536459E-2,-3.356273E-2,-2.4491335E-1,2.840412E-1,-5.3037316E-2,4.3091094E-1,-6.7513935E-2,-3.5010052E-1,7.512377E-2,1.2400884E-2,-3.3289072E-1,-2.2718047E-1,2.688323E-1],"split_indices":[3,15,14,23,13,6,13,27,1,33,32,20,8,5,12,0,0,0,0,18,31,0,19,13,29,0,0,39,3,8,7,0,0,0,0,32,0,0,0,14,37,15,0,11,28,38,30,34,17,18,22,0,0,0,0,0,0,0,0,0,0,0,0,0,0,0,0,0,0,0,0,0,0,0,0],"split_type":[0,0,0,0,0,0,0,0,0,0,0,0,0,0,0,0,0,0,0,0,0,0,0,0,0,0,0,0,0,0,0,0,0,0,0,0,0,0,0,0,0,0,0,0,0,0,0,0,0,0,0,0,0,0,0,0,0,0,0,0,0,0,0,0,0,0,0,0,0,0,0,0,0,0,0],"sum_hessian":[2.9312503E2,3.4429783E1,2.5869522E2,1.9298151E1,1.5131633E1,5.06152E1,2.0808003E2,3.2625759E0,1.6035576E1,9.393239E0,5.738394E0,4.5540817E1,5.0743814E0,1.6591882E2,4.2161217E1,1.2589693E0,2.0036066E0,1.4909183E1,1.1263933E0,5.297836E0,4.095403E0,3.1731784E0,2.5652153E0,3.989191E1,5.6489077E0,1.3274143E0,3.746967E0,1.08327446E2,5.7591373E1,1.4011999E1,2.8149218E1,2.1435914E0,1.2765591E1,4.203767E0,1.0940689E0,2.9973469E0,1.0980563E0,1.3030797E0,1.2621357E0,1.7430607E1,2.2461302E1,4.55833E0,1.0905776E0,4.279087E1,6.5536575E1,4.8383728E1,9.207646E0,7.0452394E0,6.96676E0,2.3353659E1,4.7955594E0,1.6862178E0,1.3111292E0,1.0051419E1,7.3791876E0,9.911708E0,1.2549594E1,1.0738307E0,3.4844995E0,2.0558167E1,2.2232704E1,1.3517501E1,5.201907E1,1.9134592E1,2.9249134E1,4.6617675E0,4.545879E0,4.3879232E0,2.657316E0,4.761337E0,2.205423E0,2.6098585E0,2.07438E1,2.669133E0,2.1264262E0],"tree_param":{"num_deleted":"0","num_feature":"40","num_nodes":"75","size_leaf_vector":"0"}},{"base_weights":[-2.2487125E-1,-8.449029E-2,-6.549356E-1,-6.544888E-1,-1.5439001E-2,-2.1646483E-1,-9.9339706E-1,7.663122E-1,-9.326867E-1,6.2095746E-2,-4.9476868E-1,1.2334714E-1,-8.1071687E-1,-1.0408258E0,-2.0821479E-1,1.1034359E0,-7.0387954E-3,-1.1847316E0,-3.0463076E-1,1.2607765E-1,-6.161298E-1,1.8797864E-1,-8.827031E-1,8.010468E-1,-2.636807E-1,-1.0734471E0,5.8273125E-1,-1.071574E0,-9.180797E-2,3.6330846E-1,-6.380442E-1,-6.9106346E-1,6.691515E-1,-4.5399594E-1,2.16931E-1,-1.0330067E0,5.1844084E-1,-9.567225E-1,8.0678505E-1,-1.020125E0,2.3336864E-1,-1.9751325E-1,1.1413459E0,6.216523E-1,-5.2372116E-1,-1.0967392E0,-1.7279781E-1,9.9042915E-2,-9.151096E-1,-9.6632487E-1,1.8258342E-1,4.975883E-1,-6.530253E-3,-1.2837886E0,3.0829215E-1,-2.4578641E-1,1.02478E0,-3.744167E-1,1.3663456E0,-1.1258551E0,-1.3558589E-1,1.2814732E0,3.0750445E-1,9.454884E-1,-4.9327694E-2,-7.5545025E-1,4.60287E-1,-1.1194687E0,-2.37058E-1],"categories":[],"categories_nodes":[],"categories_segments":[],"categories_sizes":[],"default_left":[1,1,1,1,1,1,1,1,1,1,1,1,1,1,1,0,0,0,1,1,1,1,1,1,1,0,0,1,0,0,0,1,0,1,1,1,1,0,1,1,0,0,1,1,1,1,0,0,0,0,0,0,0,0,0,0,0,0,0,0,0,0,0,0,0,0,0,0,0],"id":17,"left_children":[1,3,5,7,9,11,13,15,17,19,21,23,25,27,29,-1,-1,-1,31,33,35,37,39,41,43,-1,-1,45,-1,-1,-1,47,-1,49,51,53,55,-1,57,59,-1,-1,61,63,65,67,-1,-1,-1,-1,-1,-1,-1,-1,-1,-1,-1,-1,-1,-1,-1,-1,-1,-1,-1,-1,-1,-1,-1],"loss_changes":[1.4924999E1,7.3979144E0,8.824978E0,8.743787E0,6.307947E0,5.716838E0,1.0531425E0,1.0180593E0,2.3995113E0,6.425129E0,6.424233E0,5.080348E0,4.3785114E0,8.326721E-1,1.0160657E0,0E0,0E0,0E0,2.8482058E0,7.186581E0,6.579916E0,7.4201875E0,2.5759192E0,2.6026187E0,3.219088E0,0E0,0E0,5.073776E-1,0E0,0E0,0E0,9.81194E-1,0E0,6.221697E0,7.338449E0,3.6517868E0,1.8382851E0,0E0,4.8968725E0,1.1340322E0,0E0,0E0,2.3281908E-1,7.660148E-1,2.6867046E0,3.1663132E-1,0E0,0E0,0E0,0E0,0E0,0E0,0E0,0E0,0E0,0E0,0E0,0E0,0E0,0E0,0E0,0E0,0E0,0E0,0E0,0E0,0E0,0E0,0E0],"parents":[2147483647,0,0,1,1,2,2,3,3,4,4,5,5,6,6,7,7,8,8,9,9,10,10,11,11,12,12,13,13,14,14,18,18,19,19,20,20,21,21,22,22,23,23,24,24,27,27,31,31,33,33,34,34,35,35,36,36,38,38,39,39,42,42,43,43,44,44,45,45],"right_children":[2,4,6,8,10,12,14,16,18,20,22,24,26,28,30,-1,-1,-1,32,34,36,38,40,42,44,-1,-1,46,-1,-1,-1,48,-1,50,52,54,56,-1,58,60,-1,-1,62,64,66,68,-1,-1,-1,-1,-1,-1,-1,-1,-1,-1,-1,-1,-1,-1,-1,-1,-1,-1,-1,-1,-1,-1,-1],"split_conditions":[-3.3562048E2,-5.5468493E0,-7.731986E-1,-5.7229285E2,4.47035E-1,4.894511E0,1.7511658E-2,-5.962007E-1,7.44951E-1,1.03902025E1,-2.0411827E1,-5.286784E0,1.4945702E1,1.8742495E1,6.809314E-1,3.310308E-1,-2.1116387E-3,-3.554195E-1,4.181736E0,9.4357635E1,-3.4735875E0,-1.6299008E0,7.2227917E0,-1.8302217E0,-3.9521694E0,-3.2203415E-1,1.7481938E-1,1.1106949E1,-2.7542392E-2,1.0899254E-1,-1.9141327E-1,-5.578633E0,2.0074545E-1,-1.1266587E0,-4.1965375E2,1.2470648E1,1.3299158E2,-2.8701675E-1,-1.0870537E1,6.9239685E1,7.0010595E-2,-5.925398E-2,-2.6421456E0,-6.2221107E0,-2.7126186E0,3.4308074E0,-5.1839348E-2,2.9712876E-2,-2.7453288E-1,-2.8989747E-1,5.477503E-2,1.492765E-1,-1.9590762E-3,-3.8513657E-1,9.248765E-2,-7.373593E-2,3.0743402E-1,-1.1232502E-1,4.099037E-1,-3.3775654E-1,-4.0675767E-2,3.8444197E-1,9.225134E-2,2.8364652E-1,-1.4798309E-2,-2.2663508E-1,1.3808611E-1,-3.358406E-1,-7.11174E-2],"split_indices":[0,19,32,0,27,14,6,35,8,10,2,29,21,23,32,0,0,0,21,1,29,21,6,39,35,0,0,32,0,0,0,15,0,26,0,14,1,0,11,3,0,0,31,15,2,2,0,0,0,0,0,0,0,0,0,0,0,0,0,0,0,0,0,0,0,0,0,0,0],"split_type":[0,0,0,0,0,0,0,0,0,0,0,0,0,0,0,0,0,0,0,0,0,0,0,0,0,0,0,0,0,0,0,0,0,0,0,0,0,0,0,0,0,0,0,0,0,0,0,0,0,0,0,0,0,0,0,0,0,0,0,0,0,0,0,0,0,0,0,0,0],"sum_hessian":[2.4713033E2,1.87216E2,5.9914307E1,1.931316E1,1.6790285E2,2.6815222E1,3.3099087E1,2.875085E0,1.6438074E1,1.4527423E2,2.2628614E1,1.7564005E1,9.251217E0,3.0906597E1,2.1924887E0,1.705005E0,1.17008E0,1.1097995E1,5.3400793E0,1.3349481E2,1.1779422E1,8.385661E0,1.4242953E1,5.9956565E0,1.1568349E1,7.9768534E0,1.2743636E0,2.981156E1,1.095036E0,1.0075542E0,1.1849346E0,4.0308285E0,1.3092506E0,1.75359E1,1.15958916E2,8.679733E0,3.0996885E0,2.7508726E0,5.6347885E0,1.2758025E1,1.4849283E0,1.6305691E0,4.3650875E0,2.310711E0,9.257638E0,2.878533E1,1.0262302E0,1.0137477E0,3.0170808E0,9.429166E0,8.106734E0,5.0857475E1,6.510144E1,7.3486385E0,1.3310943E0,1.4403391E0,1.6593496E0,1.9176366E0,3.717152E0,1.1152178E1,1.6058476E0,3.277476E0,1.0876116E0,1.2825812E0,1.0281297E0,7.681059E0,1.5765792E0,2.774946E1,1.0358706E0],"tree_param":{"num_deleted":"0","num_feature":"40","num_nodes":"69","size_leaf_vector":"0"}},{"base_weights":[-1.4448787E-1,-4.2743224E-1,8.916999E-3,7.497574E-2,-5.814975E-1,-2.2334129E-1,2.2549225E-1,-7.7330756E-1,3.3744925E-1,-7.035329E-1,1.5850206E-1,-4.5376745E-1,5.2762717E-1,3.6515325E-2,8.305409E-1,-1.6476106E-2,-9.8805976E-1,-1.7751831E-1,8.1537735E-1,-8.132047E-1,3.7844345E-2,6.66824E-1,-5.373653E-1,-5.413583E-1,7.9478455E-1,9.9424034E-1,-1.4387837E-1,1.819359E-1,-8.589614E-1,1.0808562E0,1.8593702E-1,8.1059813E-1,-6.9714665E-1,1.2500801E0,-1.0886491E-1,-8.6302143E-1,5.5249333E-1,-8.7511814E-1,6.520507E-1,1.0764024E0,-6.527263E-1,2.6098028E-1,-8.480457E-1,-6.7603195E-1,1.3184193E-1,5.7364404E-2,1.0669982E0,1.219196E0,2.5728634E-2,-5.265462E-1,4.9337986E-1,3.5987356E-1,-4.8163426E-1,4.6440724E-1,-1.1183456E0,1.1578131E0,1.058615E-1,-8.418691E-1,8.6966103E-1,1.3957734E-1,1.0539829E0,3.1228966E-1,-9.7804713E-1,-7.522682E-1,6.220471E-1,-8.2474135E-2,-9.2670816E-1,-6.334044E-1,1.1154449E0,1.6842397E-2,1.4347025E0,-7.434912E-1,7.0588225E-1,-3.294354E-1,1.3381112E0,1.3152919E0,4.3826008E-1,-8.003198E-1,2.1130471E-1,-5.087076E-2,7.291244E-1,-4.059022E-1,5.9125257E-1,2.1435972E-1,-9.2339516E-1,2.3599082E-1,1.2301673E0,-1.0169574E0,-2.4391542E-1,-1.0675934E-2,1.1392907E0],"categories":[],"categories_nodes":[],"categories_segments":[],"categories_sizes":[],"default_left":[1,1,1,1,1,1,1,1,1,1,1,1,1,1,1,0,0,1,1,1,1,1,1,1,1,1,1,1,1,1,1,1,1,0,1,1,0,0,1,1,0,0,0,1,1,0,0,1,0,1,1,1,1,0,0,1,0,1,1,0,0,0,0,0,0,0,0,0,0,0,0,0,0,0,0,0,0,0,0,0,0,0,0,0,0,0,0,0,0,0,0],"id":18,"left_children":[1,3,5,7,9,11,13,15,17,19,21,23,25,27,29,-1,-1,31,33,35,37,39,41,43,45,47,49,51,53,55,57,59,61,-1,63,65,-1,-1,67,69,-1,-1,-1,71,73,-1,-1,75,-1,77,79,81,83,-1,-1,85,-1,87,89,-1,-1,-1,-1,-1,-1,-1,-1,-1,-1,-1,-1,-1,-1,-1,-1,-1,-1,-1,-1,-1,-1,-1,-1,-1,-1,-1,-1,-1,-1,-1,-1],"loss_changes":[9.891793E0,6.2443495E0,7.5300717E0,4.644156E0,5.6583843E0,1.2742355E1,8.824684E0,7.891791E-1,4.0163283E0,4.332905E0,3.722807E0,6.53553E0,5.603537E0,7.9771705E0,2.7656326E0,0E0,0E0,4.8745794E0,3.4858603E0,3.6157513E0,4.9298983E0,3.9143946E0,1.3545377E0,4.872608E0,7.54756E-1,2.2363844E0,2.215152E0,6.371431E0,3.4595385E0,8.5550404E-1,5.194774E0,4.0080976E-1,2.0175557E0,0E0,2.15477E0,2.1557693E0,0E0,0E0,3.8162155E0,1.8408418E0,0E0,0E0,0E0,4.6386757E0,5.800422E0,0E0,0E0,5.582428E-2,0E0,1.2788686E0,4.8932672E-1,7.6756983E0,3.7421927E0,0E0,0E0,5.088005E-1,0E0,7.07407E-2,1.0341136E0,0E0,0E0,0E0,0E0,0E0,0E0,0E0,0E0,0E0,0E0,0E0,0E0,0E0,0E0,0E0,0E0,0E0,0E0,0E0,0E0,0E0,0E0,0E0,0E0,0E0,0E0,0E0,0E0,0E0,0E0,0E0,0E0],"parents":[2147483647,0,0,1,1,2,2,3,3,4,4,5,5,6,6,7,7,8,8,9,9,10,10,11,11,12,12,13,13,14,14,17,17,18,18,19,19,20,20,21,21,22,22,23,23,24,24,25,25,26,26,27,27,28,28,29,29,30,30,31,31,32,32,34,34,35,35,38,38,39,39,43,43,44,44,47,47,49,49,50,50,51,51,52,52,55,55,57,57,58,58],"right_children":[2,4,6,8,10,12,14,16,18,20,22,24,26,28,30,-1,-1,32,34,36,38,40,42,44,46,48,50,52,54,56,58,60,62,-1,64,66,-1,-1,68,70,-1,-1,-1,72,74,-1,-1,76,-1,78,80,82,84,-1,-1,86,-1,88,90,-1,-1,-1,-1,-1,-1,-1,-1,-1,-1,-1,-1,-1,-1,-1,-1,-1,-1,-1,-1,-1,-1,-1,-1,-1,-1,-1,-1,-1,-1,-1,-1],"split_conditions":[-3.9946158E2,1.00969826E2,-5.62276E-1,-2.8617008E0,9.658055E0,7.4370587E-1,-2.208642E0,-6.6837196E0,-7.991966E-1,-2.0322473E0,-9.027584E-1,3.9029822E0,-3.159853E0,5.461294E0,4.694928E0,-4.942832E-3,-2.9641795E-1,-3.6391027E0,1.1162288E1,2.7638275E1,-1.265398E0,-1.8015223E1,1.8714426E-1,-9.648642E-1,-4.670208E0,1.9565985E0,-9.828744E-1,2.3186936E0,1.8400574E1,3.506528E0,-6.659825E-1,-4.2313522E-1,-4.3943E0,3.7502405E-1,1.3728105E-1,-2.3682419E1,1.65748E-1,-2.6253545E-1,-4.717685E2,-1.2969351E0,-1.958179E-1,7.829408E-2,-2.5441372E-1,7.0113974E0,3.7266006E0,1.7209321E-2,3.2009947E-1,1.410694E2,7.7185906E-3,2.2309487E0,-1.343703E0,-6.7330065E0,-8.218315E0,1.3932218E-1,-3.355037E-1,-4.4676113E0,3.175845E-2,7.237089E0,-4.22375E0,4.1873205E-2,3.1619486E-1,9.36869E-2,-2.9341415E-1,-2.2568047E-1,1.8661414E-1,-2.4742242E-2,-2.7801245E-1,-1.9002132E-1,3.3463347E-1,5.0527193E-3,4.3041077E-1,-2.2304736E-1,2.1176468E-1,-9.8830625E-2,4.0143338E-1,3.9458758E-1,1.3147803E-1,-2.4009594E-1,6.339142E-2,-1.5261229E-2,2.1873733E-1,-1.21770665E-1,1.7737578E-1,6.430792E-2,-2.7701855E-1,7.079725E-2,3.690502E-1,-3.0508724E-1,-7.317463E-2,-3.2027804E-3,3.4178722E-1],"split_indices":[0,1,37,21,10,39,15,20,30,20,17,9,22,34,19,0,0,30,5,2,35,4,23,2,11,16,36,26,3,26,32,39,29,0,32,6,0,0,0,39,0,0,0,11,17,0,0,1,0,32,34,17,15,0,0,12,0,19,22,0,0,0,0,0,0,0,0,0,0,0,0,0,0,0,0,0,0,0,0,0,0,0,0,0,0,0,0,0,0,0,0],"split_type":[0,0,0,0,0,0,0,0,0,0,0,0,0,0,0,0,0,0,0,0,0,0,0,0,0,0,0,0,0,0,0,0,0,0,0,0,0,0,0,0,0,0,0,0,0,0,0,0,0,0,0,0,0,0,0,0,0,0,0,0,0,0,0,0,0,0,0,0,0,0,0,0,0,0,0,0,0,0,0,0,0,0,0,0,0,0,0,0,0,0,0],"sum_hessian":[2.2680719E2,7.910934E1,1.4769785E2,1.868635E1,6.042299E1,7.125344E1,7.644441E1,3.9557157E0,1.4730635E1,5.191141E1,8.511576E0,5.482635E1,1.6427088E1,5.9058743E1,1.738567E1,1.1123354E0,2.8433802E0,7.393117E0,7.3375173E0,4.5137363E1,6.774049E0,4.9427204E0,3.568855E0,5.176149E1,3.064862E0,9.408637E0,7.0184503E0,5.1493332E1,7.565411E0,1.2035297E1,5.350372E0,2.3549764E0,5.038141E0,4.7506013E0,2.5869162E0,4.3903946E1,1.2334176E0,2.5535824E0,4.220466E0,3.9125578E0,1.0301626E0,1.0445863E0,2.5242689E0,4.3129276E1,8.632214E0,1.15277E0,1.9120919E0,7.4251637E0,1.9834731E0,4.493735E0,2.5247152E0,4.096591E1,1.052742E1,1.1102966E0,6.455115E0,1.098105E1,1.0542475E0,2.044973E0,3.305399E0,1.0456271E0,1.3093493E0,1.0724541E0,3.9656868E0,1.360279E0,1.2266374E0,3.485123E0,4.0418823E1,1.0210882E0,3.1993778E0,1.253306E0,2.659252E0,4.1562363E1,1.5669138E0,6.7701902E0,1.8620234E0,6.002314E0,1.4228494E0,3.2158546E0,1.2778803E0,1.0000852E0,1.5246298E0,9.330677E0,3.1635235E1,4.287394E0,6.2400255E0,1.1093313E0,9.871718E0,1.0397823E0,1.0051907E0,1.0001917E0,2.3052073E0],"tree_param":{"num_deleted":"0","num_feature":"40","num_nodes":"91","size_leaf_vector":"0"}},{"base_weights":[-1.16880395E-1,-5.413819E-1,-6.75476E-2,-1.0305976E0,-5.59664E-2,-7.6635534E-1,-3.3382703E-2,2.4556461E-1,-1.1629212E0,7.606953E-1,-4.4502047E-1,-9.909225E-1,5.890382E-1,1.2864681E-2,-6.0777444E-1,3.9880693E-2,-1.278789E0,1.2561468E0,-6.542525E-1,3.9780036E-1,-9.056139E-1,-2.8036557E-2,-1.1187936E0,-1.6492648E-1,1.2948188E-1,3.3164296E-1,-8.730675E-1,-1.3471642E0,-3.6720663E-1,1.0469716E-1,1.5930651E0,-7.5066614E-1,1.0031487E0,4.44943E-1,-1.214477E0,-1.198245E0,-3.1302434E-1,-2.564138E-1,8.9938945E-1,6.6412354E-1,-2.011896E-2,1.1733174E0,-3.9886472E-1,3.5875905E-1,-1.0040627E0,2.4142059E-2,-6.4920163E-1,1.3017899E0,-4.570535E-1,1.20917E0,9.4384775E-2,1.0468377E0,-8.670405E-2,-8.7168926E-1,2.8165242E-1,-3.4475717E-1,-1.1819233E0],"categories":[],"categories_nodes":[],"categories_segments":[],"categories_sizes":[],"default_left":[1,1,1,1,1,1,1,0,1,1,1,1,0,1,1,0,1,1,0,1,1,0,1,1,1,1,1,0,0,0,0,0,0,0,0,0,0,1,1,1,1,0,1,0,1,0,0,0,0,0,0,0,0,0,0,0,0],"id":19,"left_children":[1,3,5,7,9,11,13,-1,15,17,19,21,-1,23,25,-1,27,29,-1,31,33,-1,35,37,39,41,43,-1,-1,-1,-1,-1,-1,-1,-1,-1,-1,45,47,49,51,-1,53,-1,55,-1,-1,-1,-1,-1,-1,-1,-1,-1,-1,-1,-1],"loss_changes":[5.8587127E0,6.8685246E0,6.022855E0,2.728878E0,5.326E0,4.1640873E0,6.451686E0,0E0,1.9023228E0,4.631459E0,4.7325926E0,1.2570066E0,0E0,4.6963735E0,4.799599E0,0E0,2.6242447E-1,1.5275126E0,0E0,4.0031385E0,3.7057147E0,0E0,2.1463776E-1,8.970138E0,1.0949159E1,3.3638268E0,2.681715E0,0E0,0E0,0E0,0E0,0E0,0E0,0E0,0E0,0E0,0E0,9.209368E0,4.5939507E0,9.177974E0,7.7495165E0,0E0,1.2969525E0,0E0,1.1482906E0,0E0,0E0,0E0,0E0,0E0,0E0,0E0,0E0,0E0,0E0,0E0,0E0],"parents":[2147483647,0,0,1,1,2,2,3,3,4,4,5,5,6,6,8,8,9,9,10,10,11,11,13,13,14,14,16,16,17,17,19,19,20,20,22,22,23,23,24,24,25,25,26,26,37,37,38,38,39,39,40,40,42,42,44,44],"right_children":[2,4,6,8,10,12,14,-1,16,18,20,22,-1,24,26,-1,28,30,-1,32,34,-1,36,38,40,42,44,-1,-1,-1,-1,-1,-1,-1,-1,-1,-1,46,48,50,52,-1,54,-1,56,-1,-1,-1,-1,-1,-1,-1,-1,-1,-1,-1,-1],"split_conditions":[-6.2486105E0,1.2112508E0,-1.6197372E1,-1.2655535E1,-4.4428797E0,7.6362095E0,2.5031633E0,7.366939E-2,-1.8634272E1,-3.9673018E0,-2.257553E0,-6.437437E0,1.7671147E-1,-1.625777E0,-4.772209E2,1.1964208E-2,-1.431025E0,-3.2856414E0,-1.9627577E-1,1.1215262E0,-6.0882297E0,-8.410968E-3,2.2137961E0,1.2149768E0,-2.2517467E0,-2.285987E0,-3.5705009E0,-4.0414926E-1,-1.10162E-1,3.1409148E-2,4.7791955E-1,-2.2519985E-1,3.0094463E-1,1.334829E-1,-3.643431E-1,-3.5947353E-1,-9.3907304E-2,-1.8766346E0,2.2431536E1,-7.3995914E0,-1.8473972E1,3.5199523E-1,1.2149625E1,1.0762772E-1,-1.022143E1,7.2426177E-3,-1.947605E-1,3.90537E-1,-1.3711606E-1,3.62751E-1,2.8315434E-2,3.1405133E-1,-2.6011217E-2,-2.615068E-1,8.449573E-2,-1.0342716E-1,-3.54577E-1],"split_indices":[27,19,8,7,17,28,15,0,11,9,38,33,0,25,0,0,20,26,0,16,33,0,34,27,21,36,12,0,0,0,0,0,0,0,0,0,0,33,5,15,9,0,4,0,11,0,0,0,0,0,0,0,0,0,0,0,0],"split_type":[0,0,0,0,0,0,0,0,0,0,0,0,0,0,0,0,0,0,0,0,0,0,0,0,0,0,0,0,0,0,0,0,0,0,0,0,0,0,0,0,0,0,0,0,0,0,0,0,0,0,0,0,0,0,0,0,0],"sum_hessian":[2.8050723E2,2.8166296E1,2.5234094E2,1.3468864E1,1.46974325E1,1.0763038E1,2.4157791E2,1.1849666E0,1.2283898E1,4.434258E0,1.0263174E1,9.463921E0,1.2991168E0,2.2448131E2,1.7096601E1,1.1369755E0,1.1146922E1,3.367382E0,1.0668759E0,3.6749206E0,6.5882535E0,1.252405E0,8.211515E0,8.875452E1,1.3572679E2,3.7098215E0,1.338678E1,9.924671E0,1.2222512E0,1.0589776E0,2.3084044E0,1.1855808E0,2.4893396E0,1.1442478E0,5.444006E0,7.03114E0,1.1803757E0,8.242817E1,6.326345E0,2.8922964E1,1.0680383E2,1.4420997E0,2.2677217E0,1.1196178E0,1.2267162E1,4.8631077E1,3.3797096E1,4.9100327E0,1.4163121E0,1.4208209E1,1.4714755E1,5.4089675E0,1.0139486E2,1.1722904E0,1.0954313E0,3.2304971E0,9.036665E0],"tree_param":{"num_deleted":"0","num_feature":"40","num_nodes":"57","size_leaf_vector":"0"}},{"base_weights":[-1.8195687E-1,-8.421592E-2,-6.593125E-1,7.6349854E-2,-2.7588797E-1,-8.316656E-1,2.6320535E-1,2.2243474E-1,-5.124502E-1,-6.387445E-2,-5.955477E-1,-9.2508405E-1,-3.9111905E-2,7.0314544E-1,-7.5046116E-1,-7.094945E-1,3.189596E-1,6.376784E-1,-6.9654864E-1,1.8085061E-1,-5.686595E-1,3.427886E-2,-8.635275E-1,-9.903576E-1,-1.5127975E-1,-5.393871E-1,5.555729E-1,9.5069075E-1,-5.3030152E-2,-9.113303E-1,3.764901E-1,4.2893052E-2,6.178389E-1,1.1414393E0,-2.8466815E-1,-9.7759944E-1,-1.9193275E-1,-1.7216921E-1,7.525499E-1,1.214668E-1,-8.5712177E-1,-3.8845432E-1,8.8746434E-1,-9.812764E-1,4.923119E-1,-2.0204407E-1,-1.0135046E0,-6.8625295E-1,5.6062037E-1,-1.1768484E0,2.0136626E-1,-6.781471E-1,2.3746702E-1,-7.9525226E-1,7.112146E-1,-1.084699E0,6.333998E-2,-7.624496E-1,7.853398E-1,3.8513833E-1,-5.309027E-1,9.193088E-1,-4.6710068E-1,4.8603132E-1,-7.762677E-1,1.347183E-1,-1.0027887E0,7.529916E-1,-6.9020426E-1,1.0274011E0,2.4495594E-1,-5.167743E-2,-1.135417E0],"categories":[],"categories_nodes":[],"categories_segments":[],"categories_sizes":[],"default_left":[1,1,1,1,1,1,1,1,1,1,1,1,1,1,0,1,1,1,1,1,1,1,1,1,1,0,0,0,0,1,0,1,1,0,0,1,1,1,1,1,1,1,1,1,0,0,0,0,0,0,0,0,0,0,0,0,0,0,0,0,0,0,0,0,0,0,0,0,0,0,0,0,0],"id":20,"left_children":[1,3,5,7,9,11,13,15,17,19,21,23,25,27,-1,29,31,33,35,37,39,41,43,45,47,-1,-1,-1,-1,49,-1,51,53,-1,-1,55,57,59,61,63,65,67,69,71,-1,-1,-1,-1,-1,-1,-1,-1,-1,-1,-1,-1,-1,-1,-1,-1,-1,-1,-1,-1,-1,-1,-1,-1,-1,-1,-1,-1,-1],"loss_changes":[1.0713179E1,5.952352E0,6.432596E0,9.201911E0,5.930606E0,2.4195938E0,3.6099048E0,7.90389E0,4.9553323E0,6.782342E0,5.9367504E0,1.3466129E0,1.6507943E0,1.0492518E0,0E0,2.1669016E0,6.4117413E0,1.9334397E0,2.484827E0,7.6321383E0,3.6667614E0,4.459407E0,4.4089413E0,2.90493E-1,1.7119972E0,0E0,0E0,0E0,0E0,2.3963208E0,0E0,6.002565E0,5.499406E0,0E0,0E0,1.390749E0,5.050879E0,4.961988E0,3.3536806E0,2.390449E0,1.9764452E0,3.3868184E0,1.1554861E-1,3.2311954E0,0E0,0E0,0E0,0E0,0E0,0E0,0E0,0E0,0E0,0E0,0E0,0E0,0E0,0E0,0E0,0E0,0E0,0E0,0E0,0E0,0E0,0E0,0E0,0E0,0E0,0E0,0E0,0E0,0E0],"parents":[2147483647,0,0,1,1,2,2,3,3,4,4,5,5,6,6,7,7,8,8,9,9,10,10,11,11,12,12,13,13,15,15,16,16,17,17,18,18,19,19,20,20,21,21,22,22,23,23,24,24,29,29,31,31,32,32,35,35,36,36,37,37,38,38,39,39,40,40,41,41,42,42,43,43],"right_children":[2,4,6,8,10,12,14,16,18,20,22,24,26,28,-1,30,32,34,36,38,40,42,44,46,48,-1,-1,-1,-1,50,-1,52,54,-1,-1,56,58,60,62,64,66,68,70,72,-1,-1,-1,-1,-1,-1,-1,-1,-1,-1,-1,-1,-1,-1,-1,-1,-1,-1,-1,-1,-1,-1,-1,-1,-1,-1,-1,-1,-1],"split_conditions":[-3.1892587E2,-6.2899914E0,1.4992435E1,-4.23735E-1,1.4673059E0,1.1331703E1,1.2911026E1,-7.791047E0,-3.7673264E0,-9.417859E-1,-4.332147E-2,-4.7696447E-1,-4.1545563E1,-2.0584779E0,-2.2513835E-1,-1.8278965E-1,-6.7626625E-1,-1.1656861E0,7.351741E0,-1.487799E-1,-2.2158203E0,2.6657214E0,4.5677665E-1,-6.8872595E0,-7.101602E0,-1.6181614E-1,1.6667189E-1,2.8520724E-1,-1.5909046E-2,-6.1670556E0,1.1294703E-1,-8.555313E0,-1.4125328E1,3.424318E-1,-8.540045E-2,7.279866E1,-9.775647E0,-6.619841E0,-3.5377246E-1,1.7630465E0,-3.9552643E0,-2.7264695E0,-1.5619447E0,-4.944322E-1,1.4769357E-1,-6.0613222E-2,-3.040514E-1,-2.0587589E-1,1.6818611E-1,-3.5305452E-1,6.040988E-2,-2.0344414E-1,7.124011E-2,-2.3857568E-1,2.1336439E-1,-3.254097E-1,1.9001994E-2,-2.287349E-1,2.3560195E-1,1.155415E-1,-1.5927081E-1,2.7579266E-1,-1.401302E-1,1.458094E-1,-2.3288032E-1,4.0415492E-2,-3.0083662E-1,2.2589749E-1,-2.0706129E-1,3.0822033E-1,7.348678E-2,-1.5503229E-2,-3.406251E-1],"split_indices":[0,11,23,27,7,19,8,31,35,38,21,6,4,35,0,32,10,19,7,24,32,19,38,33,5,0,0,0,0,6,0,22,8,0,0,3,4,20,36,24,28,35,34,12,0,0,0,0,0,0,0,0,0,0,0,0,0,0,0,0,0,0,0,0,0,0,0,0,0,0,0,0,0],"split_type":[0,0,0,0,0,0,0,0,0,0,0,0,0,0,0,0,0,0,0,0,0,0,0,0,0,0,0,0,0,0,0,0,0,0,0,0,0,0,0,0,0,0,0,0,0,0,0,0,0,0,0,0,0,0,0,0,0,0,0,0,0,0,0,0,0,0,0,0,0,0,0,0,0],"sum_hessian":[2.298048E2,1.9172464E2,3.808016E1,1.04655365E2,8.7069275E1,3.2168613E1,5.911546E0,8.434987E1,2.0305492E1,5.307033E1,3.3998947E1,2.8627108E1,